43 100
ID 0.081953 -0.506256 -0.085254 -0.108355 0.285811 0.681764 -0.202633 -0.464482 0.244510 -0.204570 0.155241 -0.860407 0.083237 0.382078 -0.504422 0.177835 0.823189 -0.205113 -0.645770 0.213312 0.884395 0.424106 0.256922 -0.223046 -0.226551 0.801006 0.075787 0.387452 0.559105 0.155742 -0.152229 -0.270092 0.710584 -0.197322 -0.216018 -0.150687 -0.084462 -0.923339 0.427240 -0.285065 0.194148 0.588832 -0.080199 0.130468 0.373711 -0.278513 0.460152 -0.677833 0.269514 0.841881 -0.640390 0.542394 -0.426243 0.743097 -0.047168 -0.471883 -0.405731 0.371744 -0.423858 -0.531806 -0.209932 -0.362489 1.598395 -0.012787 -0.228866 -0.004671 -0.432073 -0.619675 -0.162399 0.092009 0.500456 0.253543 0.610519 0.247137 -0.089669 0.892400 -0.653310 0.895078 -0.563522 0.462953 0.074590 -0.454829 -0.002324 -0.186916 0.040520 -0.037960 -0.368734 0.224840 0.356785 0.463288 0.220940 -0.486803 0.795352 0.045984 -0.219784 0.428431 -0.485621 0.247965 0.159430 -0.303678
BinaryOp 0.492658 0.899540 -0.183898 0.206516 0.067671 0.053459 -0.935693 0.345918 0.158671 0.111759 0.050085 -0.243764 0.174845 -0.173816 0.696672 0.562244 0.657771 0.401533 0.582827 0.312311 -0.212456 -0.235259 0.521179 -0.159771 0.230128 0.110580 -0.066158 0.336621 -0.332405 -0.011088 -0.437854 0.809088 0.467761 0.044577 0.135240 -0.861667 -0.414587 0.078051 0.008107 -0.425379 0.415493 -0.070413 0.672876 -0.508522 -0.303789 -0.185469 -0.185944 -0.235281 -0.277519 -0.422144 -0.055216 0.065612 0.373592 0.782845 -0.170216 0.139741 -0.468689 -0.663019 1.061405 -0.127478 0.385771 -0.238877 0.096293 0.387069 0.333424 0.141011 0.100760 -0.630664 -0.339908 0.367107 0.734521 -0.550839 -0.045132 0.000783 -0.230037 -0.181574 -0.323333 -0.250841 -0.349072 -0.167585 -0.780677 0.419358 -1.277567 0.271361 -0.068339 -0.855731 -0.308796 0.061077 -0.146288 0.554088 -0.088452 -0.016854 -0.349654 0.371125 0.728009 -0.235569 -0.585957 -0.023222 0.409846 -0.066982
Constant -0.949500 -0.094913 -1.269157 0.537012 0.468448 1.358538 -0.374991 -1.466044 0.372009 0.075347 -0.150335 -0.181373 0.205055 0.474964 -0.261937 0.200959 1.359526 0.200872 0.028790 -0.977561 0.563436 -0.314657 0.454125 -0.064675 -1.007905 -0.830716 0.157124 -0.806661 1.039076 -1.285236 0.097211 1.327359 0.588027 0.488176 -0.227564 0.133827 0.030910 -0.358941 -0.414920 -0.558628 -0.028923 0.686769 -0.542002 -0.421004 0.590905 0.149229 -0.010135 -1.013570 -0.433353 1.243957 -0.073798 0.919866 0.380138 1.252180 -0.102222 -0.010018 -0.009433 0.643567 0.240337 -0.667936 0.901943 0.367902 1.085678 0.702069 -1.314518 -0.231584 -0.685884 -1.109442 1.639590 0.824167 0.914989 -0.489387 -0.435273 -0.240320 -0.068061 -0.754863 -0.467352 0.357635 0.785983 0.693098 -0.877233 -1.211884 -1.192852 1.173003 0.390869 0.149748 0.068800 -0.092092 0.473317 0.374243 0.482650 0.110533 1.262334 -0.044301 0.094116 0.705236 -0.785784 0.239242 1.320074 -1.391851
TypeDecl 0.382380 -0.031112 0.335252 0.117706 0.044047 -0.593919 0.533487 0.165807 -0.763823 0.253781 -0.007805 -0.156093 -0.153288 0.028257 -0.084213 -0.146293 0.550749 0.143246 0.290725 -0.220299 -1.032045 -2.291906 -1.063989 0.119351 -0.042166 -0.323926 1.706015 0.432228 -0.477149 0.434853 -0.809754 -0.422881 -0.222489 -0.364869 0.404736 0.563883 -0.202033 -0.925852 0.149450 0.748571 0.181591 0.377460 -0.097645 1.092687 -0.823984 0.956445 -0.011108 0.426447 -0.245746 -0.356594 0.360657 0.122640 0.791828 -0.447708 0.116298 -0.164355 -0.030789 -0.881847 -1.656398 0.258474 -0.016512 -0.200356 0.444237 0.041653 0.256630 -1.475448 0.353709 -0.206850 1.118383 0.242580 0.514427 -0.480979 1.006305 0.611402 0.691413 0.524211 -0.271900 0.447771 -0.131171 0.736554 -0.102135 -0.341128 1.150837 0.131072 -0.813547 -0.495278 0.280001 0.459921 -0.468824 -0.527942 0.153718 0.166403 -0.369416 0.028928 -0.592946 -0.017566 1.330140 0.170983 -0.853331 0.463025
Decl -0.013000 -0.421172 -0.004686 0.341066 0.742748 -1.386102 2.122569 0.396719 0.194687 -1.617695 -2.267418 1.192441 1.016945 -1.555269 -0.181734 -0.912646 -1.175231 0.522016 -0.246795 -2.904149 -0.976185 -2.289522 -1.865857 1.892743 0.608590 -1.226435 0.626577 -1.692449 -0.124944 -0.835394 0.685136 0.571844 -1.520201 0.610940 0.079335 0.334408 -0.518227 0.939046 -0.751692 1.201410 -0.562188 -0.155702 -2.995370 1.561179 -0.201661 1.071862 -2.605599 0.674217 -2.135702 -0.168730 2.020442 0.719670 0.387097 -2.167787 0.239746 2.830508 2.187256 -0.302105 -2.729830 0.795280 -0.437491 1.606359 -2.993808 -1.118549 -2.148826 -1.775864 0.962789 1.878858 3.020684 -0.097196 -0.182083 0.143417 -0.475308 -0.287484 -0.402604 -2.260606 1.022670 -0.576729 2.332818 0.286408 0.433194 -2.048733 1.751849 1.192736 0.182835 0.527653 -0.406850 -0.524680 1.352562 -1.179515 0.211045 1.438734 -0.598385 -1.290653 -1.178108 1.656412 -0.163345 -0.179868 0.883619 1.487598
ArrayRef 0.007460 -0.313299 -0.059325 -0.037031 0.546493 0.659247 0.365463 -0.220790 0.017515 -0.131973 -0.066629 -0.591222 -0.094370 0.640243 -0.611787 0.021267 0.285208 -0.194616 -0.863871 -0.029539 0.303686 -0.135658 0.496508 -0.333966 -0.473291 0.029739 -0.113453 0.228026 -0.353258 -0.531207 -0.007407 0.086870 0.365581 -0.449883 -0.137750 -0.133780 -0.034617 -0.595044 0.710437 -0.234078 0.345411 0.680690 0.136807 0.579884 -0.060506 -0.129107 0.015209 -0.179995 -0.698532 1.094021 -0.295660 0.332283 -0.029541 0.627208 0.122485 -0.020443 -0.014898 0.189104 -0.585741 -0.366608 0.028096 -0.429153 1.255866 0.438784 0.287883 0.018859 -0.049132 -0.318219 -0.210399 0.124246 0.215790 0.278212 0.496695 0.641610 -0.233012 0.452535 -0.585683 0.454972 -0.827562 -0.093374 0.190153 0.377038 0.445529 0.183720 0.006794 -0.117637 0.646355 -0.415125 -0.414699 0.292488 0.091342 0.173708 0.048993 0.332201 -0.306093 0.113601 -0.119131 0.740679 -0.132917 -0.499684
Assignment 0.042887 0.339860 -0.506436 -0.006103 0.393902 -0.590136 0.484485 0.026910 0.778047 -1.085904 -1.428341 0.642605 0.684425 -0.824237 0.396890 -0.031345 -0.706981 0.069076 -0.010805 -1.313239 0.065191 -0.214852 -0.676855 0.751163 0.291348 -0.176487 -0.692767 -0.584630 0.297018 -0.542102 0.660672 0.903144 -0.392512 0.004095 -0.301934 0.069642 -0.358627 0.831651 -0.720166 -0.120411 -0.145001 -0.125989 -1.532849 0.454336 0.213495 -0.115899 -0.926552 -0.189691 -1.401225 0.009618 0.593594 0.135644 0.082437 -0.212438 0.196558 1.105300 0.949181 0.145171 -0.432862 0.148721 -0.322891 1.072073 -1.852388 -0.465256 -0.887518 -0.238577 0.128356 0.625950 0.947080 -0.220722 0.370231 -0.061815 -0.417048 -0.429533 -0.632743 -1.014681 0.805336 -0.272696 0.841658 -0.150666 0.090388 -1.211655 -0.142293 0.895728 -0.136441 0.260704 -0.253800 -0.700529 0.837728 -0.686804 0.249839 0.568845 -0.536310 -0.755642 -0.041206 0.619052 -0.570882 -0.108535 1.119532 0.932743
UnaryOp 0.619401 1.905307 -0.765634 0.637158 -0.738276 0.216608 -2.462907 0.540937 -0.048529 -0.229907 1.323334 1.180689 0.405518 -1.027123 0.662660 0.517085 0.402347 0.313041 0.978937 1.061053 0.114557 0.407360 1.110296 0.329754 0.254395 0.102494 -0.275060 -0.326959 -0.695894 -0.083626 -1.094275 1.707850 -0.373675 0.509760 -0.701043 -0.844324 0.254490 -0.195350 0.240586 0.569862 0.316111 0.319088 0.899911 -0.592480 0.571120 -0.168727 -0.456655 -0.108723 0.229312 -0.671140 -0.215835 0.758507 -0.795865 0.787759 -0.046188 0.034264 -0.501665 -0.103143 2.523431 0.100533 0.367882 -0.350137 0.618481 0.958079 -0.006756 0.595728 0.446719 -0.781322 -0.557569 0.161308 -0.128118 -0.377403 -0.779731 -1.247660 -0.730127 -0.779733 -0.891725 -0.402420 -0.031663 0.056703 -1.984360 0.087674 -1.603761 -0.204582 -0.739384 -0.852281 -0.776071 0.690048 -0.338307 0.304730 -1.404024 0.080376 0.045747 0.524887 1.105257 -0.412243 -0.918609 0.264802 0.519881 -0.147152
ExprList -0.021029 0.627808 -0.934819 0.299603 -1.144611 0.096084 -0.875951 -0.244395 -0.098330 0.043900 0.652154 -1.591436 0.123179 -0.413208 -0.024971 1.043757 0.296411 -0.696116 -0.392112 0.146738 1.256446 -0.433276 0.208423 -0.629859 -0.915364 1.538490 0.876273 0.229141 0.636210 0.630025 -0.182192 0.323994 0.691650 -0.221637 -1.207287 0.922156 -1.189712 -0.484454 -0.065316 -0.114725 0.430609 0.045477 0.749139 0.593922 1.905116 0.088765 0.863981 0.321634 -0.185351 0.784739 -0.901297 1.076907 -0.099941 1.092193 0.269223 -0.237011 -0.585643 0.714558 -0.482873 -0.826201 0.286143 -0.277533 1.027374 0.052870 0.722549 -0.273057 -0.022737 -0.517918 -0.563869 -0.090149 0.318377 -0.212213 -0.090179 -0.324299 -0.115843 -0.845779 -0.599204 0.218075 -0.724944 -0.230026 0.434023 0.434363 -0.549866 -0.293349 -0.335717 -0.120812 -0.950834 0.511003 0.734856 0.300108 -0.435389 0.377096 0.349712 0.819307 -0.336859 0.623062 -0.080620 0.259205 0.001116 -0.537085
FuncCall 0.010164 -0.160468 -0.074350 0.315611 0.237831 -1.336579 1.271227 0.152048 0.311887 -1.307159 -1.611489 0.668483 0.551897 -1.495425 -0.278376 -0.739094 -0.683421 -0.284639 -0.377315 -2.236024 -0.506811 -1.602148 -1.655549 1.267365 0.300704 -0.469274 0.608078 -1.536429 0.214599 -0.845550 0.687894 0.280881 -0.929023 0.766604 -0.626075 0.553910 -0.874980 0.542169 -0.916273 1.071225 -0.584146 -0.104414 -2.347317 1.449731 0.556036 0.536576 -1.539854 0.691408 -1.678633 -0.131400 0.946204 0.502068 -0.193303 -1.485904 0.339714 1.917954 1.960194 0.160417 -2.368317 0.497680 -0.214634 1.262189 -2.343739 -1.243604 -1.571310 -0.939779 0.905739 1.913805 2.127822 -0.033322 -0.581001 0.107297 -0.451139 -0.710574 -0.493798 -1.899413 0.762441 -0.342040 1.818586 0.080135 0.192747 -1.846328 1.251268 0.496572 -0.024783 0.651413 -0.298242 -0.054342 1.180189 -1.173964 0.240106 1.009148 -0.298343 -0.739655 -1.326139 1.460395 -0.051968 -0.134810 0.185267 1.131005
Compound 0.022024 -0.102251 -1.322137 0.095321 0.142339 -0.917535 0.564413 -0.472928 0.893122 -0.843482 -1.226284 0.734911 1.036575 -1.084625 0.739861 -0.787971 -0.863006 -0.252265 -0.374699 -2.785758 0.682667 -2.311567 0.075652 0.942904 0.710997 -0.563899 -0.117856 -1.330971 0.377945 -1.635947 1.544765 1.741640 -0.189986 0.842354 -0.602716 0.648614 -1.424616 1.458063 -1.087514 0.343164 -0.079615 -0.254400 -2.491131 1.951242 0.170140 -0.180463 -1.048210 -0.069530 -2.884041 0.684881 1.736975 1.000642 0.850305 -0.839040 0.519933 2.464879 2.249781 0.191080 -2.456364 -0.129300 0.256488 1.869438 -2.415255 -0.803851 -1.332949 -1.231261 0.699993 1.793790 2.781414 -0.038179 0.263113 -0.344852 -0.972388 -0.600878 -0.717127 -2.524608 0.757389 -0.565641 2.605037 0.289026 0.149750 -1.668490 0.620372 1.978753 -0.056747 0.725409 -0.002114 -0.565148 1.333224 -1.068255 0.663545 1.910438 -0.317441 -1.302384 -0.263721 1.600475 -0.612058 -0.710773 1.313707 1.330787
IdentifierType 0.071974 3.335334 -3.509042 2.012032 -0.514938 2.481802 -4.514316 0.848989 0.073847 -1.944075 2.136787 0.219635 1.332951 -3.853723 2.432967 3.301430 4.819236 1.409809 0.619801 -1.504338 -0.257419 -4.404896 0.754167 -0.022454 1.441754 -3.056792 1.510616 -3.797647 -3.474034 -4.197649 0.387292 5.258822 1.418633 3.356605 -2.786461 -1.415589 -1.575330 -2.263492 -3.617995 1.285707 -0.260735 1.062963 4.154347 0.298845 3.609704 1.877268 -2.007144 -0.770417 -6.157071 0.547757 1.391178 4.990677 2.595947 1.910163 0.837645 2.259699 0.903767 -0.383147 2.493938 1.064872 4.355738 0.259673 1.265282 -0.045603 -1.282175 -0.280649 -1.460290 -0.849075 3.782032 0.923905 3.397288 -5.054084 -1.924797 -1.393989 -2.903544 -6.472737 -1.740429 -0.274194 3.182007 -0.043872 -4.413655 2.149330 -6.451710 3.777004 2.506092 -1.264515 -1.866894 -0.577303 -0.328609 0.287514 -2.672721 -0.967809 -1.579843 0.338889 0.651325 0.625190 -0.813287 0.791777 4.267842 -2.930927
If 0.794571 0.464828 -1.405279 0.617023 -0.057775 -0.862411 -0.783609 0.115203 0.336745 -0.771358 -0.816526 0.610783 1.086638 -1.528223 1.154309 -0.205598 0.181887 -0.015913 0.565342 -2.185603 -0.621959 -2.292056 -0.482016 0.515676 0.726253 -0.520921 1.030857 -1.500842 -0.469698 -1.418890 0.324123 1.353768 -0.202641 0.777583 -0.701727 -0.622003 -1.432773 0.280041 -1.463999 0.554588 -0.291181 -0.382272 -0.997283 1.155996 -0.291566 0.479648 -1.130470 0.408568 -2.924625 -0.810218 1.202310 1.629043 0.754901 -0.559797 0.227776 2.225185 1.790774 -0.856112 -1.473666 0.409939 0.664745 1.252854 -1.934676 -0.928971 -1.025353 -1.565306 0.945376 1.527793 3.094098 0.417176 0.889858 -1.416701 -0.099714 -0.440006 -0.491785 -2.551675 0.517410 -1.095139 2.187187 0.023920 -0.966470 -1.601347 -0.108186 1.422464 -0.028361 -0.192229 -0.489053 -0.457950 0.716176 -0.613341 -0.503440 1.578744 -0.314953 -0.886209 -0.212563 0.982955 -0.063924 -0.928070 0.983948 1.247146
For -0.455228 0.602836 0.069242 -0.311675 0.340527 -1.341918 1.232668 0.243748 0.688988 -2.005852 -1.327352 1.789869 0.747838 -1.785870 -0.152900 -0.537937 -1.636840 0.606722 0.034496 -2.641693 -0.344342 -2.154828 -1.510202 1.883424 0.558757 -1.471957 -0.217909 -1.809941 -0.452239 -1.276789 0.487622 1.563086 -1.726720 1.396786 -0.519447 0.728385 -0.357681 1.026390 -0.870378 1.528948 -0.375550 -0.177364 -3.129392 2.053580 0.874121 0.562355 -2.938832 0.691761 -2.133320 0.470122 1.694975 0.661025 0.328660 -2.032540 0.413015 2.790004 2.443046 0.592746 -1.618277 0.957467 0.074097 1.378798 -3.450176 -0.983374 -1.658326 -0.806477 0.821704 1.758080 1.849946 -0.104877 -0.938192 0.456905 -1.457436 -0.838818 -0.855787 -4.002104 1.254466 -1.094409 2.187405 0.066320 0.410387 -1.322328 1.013294 1.297034 -0.047784 0.938113 0.122445 -0.527904 0.688065 -1.241474 -0.665087 1.658099 -0.473737 -1.340752 -0.577300 1.044088 -0.810390 -0.270440 0.864690 1.546683
ArrayDecl -0.257280 0.474043 -1.484719 -0.086459 0.871789 0.146751 -0.598463 -0.960053 0.232273 -0.189310 -0.208143 -0.225019 1.056458 0.224385 0.921076 0.132268 0.751375 0.271701 0.731181 -0.745638 -0.380604 -1.341368 0.644063 0.197113 -0.916120 -0.429464 1.388848 -0.843177 0.319746 -0.041730 -0.005121 0.954068 0.728002 -0.015374 0.505092 -0.532265 -0.449169 -0.221986 -0.556134 -0.723560 0.211920 0.203306 0.232290 0.190827 -0.533972 0.900706 -0.131895 -0.141826 -1.619179 0.166842 0.577924 0.823644 1.033295 0.642823 -0.711347 0.099804 0.205809 -0.119427 -0.392766 0.224275 0.453344 0.431832 0.391905 0.471686 -0.459393 -1.590897 -0.410471 -0.960035 2.795881 -0.152186 1.172292 -0.441768 -0.232580 0.217294 -0.362085 -1.051419 -0.259517 -0.190013 1.457426 0.534773 -1.145864 -1.823898 -0.431264 1.363309 0.264686 -0.381329 0.340011 -0.107139 0.450022 0.147570 0.381770 0.812935 0.646754 -0.273695 0.478607 -0.443584 0.620491 -0.352435 1.106385 -0.149162
FuncDecl 0.762847 0.139917 0.750101 -0.099595 1.365020 -0.076937 1.205556 0.793857 -0.467563 -0.601441 -1.805691 -0.683027 0.985150 -1.012660 -0.037429 -0.258881 0.747397 1.236627 -0.179980 -1.125221 -2.007468 -1.952644 0.050308 0.704519 0.635721 -1.283565 1.097734 -0.519328 -1.192459 0.281608 0.694972 -0.520437 0.241715 0.171780 0.851890 -0.453275 0.004589 -0.089162 0.327556 0.192158 -0.303924 0.352792 0.321351 -0.312863 -0.747200 1.835795 -1.802844 0.369448 -1.035586 0.008173 1.301793 -0.005621 1.583048 -0.501806 -0.682800 0.635496 -0.470297 -1.263196 0.029719 0.919779 1.002627 -0.327270 -0.804099 -0.243642 -0.316704 -1.303155 -0.301073 -0.245451 1.780768 0.225606 -0.207483 0.585858 -0.172956 0.258358 -0.074545 -0.248643 0.340582 -0.884948 0.414723 -0.098851 -1.284807 -0.319501 0.928581 1.742278 1.229038 0.284138 -0.577498 -0.010676 -0.657103 0.205182 0.778732 -0.796326 -1.126557 1.080077 0.071620 -0.758569 0.270114 0.152561 0.982487 0.249001
FuncDef 2.262323 -0.423279 1.431653 -0.683345 1.367234 -1.478476 1.619439 0.483576 -0.209076 0.225199 -2.588451 -1.931220 0.990080 -1.378318 0.345464 0.120529 0.762766 0.971042 -0.291232 -2.389722 -1.483796 -0.601690 -1.303822 0.924444 1.167200 1.191195 1.137765 1.316768 0.583490 -0.040161 0.779004 -2.640816 0.781785 -1.606686 0.541625 -0.380622 -1.124087 1.310366 1.507580 0.348011 -0.948799 -0.032740 -1.998297 0.114367 -2.444883 0.416272 -0.069208 1.691258 1.264297 -1.597921 0.676355 -1.431845 -0.508676 -0.434606 -1.104557 -0.469629 -1.282855 -1.734748 -0.164178 -1.366301 -0.169352 0.790417 -1.395989 -1.978103 -1.963226 -0.607017 0.128147 0.228606 1.258014 0.633022 -0.003557 0.246091 1.019726 0.446124 0.919101 2.534382 1.250411 -0.880886 -0.452384 -0.165892 -0.117048 -1.754952 2.284666 -0.436913 1.539180 -0.822486 -2.105995 -0.084461 0.086428 -0.304695 2.319801 -0.726790 -1.813266 1.591500 -0.229514 0.809434 -0.679505 0.878016 -0.073073 1.525123
StructRef 0.549527 0.095191 -0.705719 1.437377 -0.108209 1.018235 0.159520 1.028679 0.239535 -0.790406 0.185800 0.698049 1.072999 0.182600 -0.385902 -0.439272 0.386749 -0.739070 -1.921463 0.354284 0.754779 0.705103 1.194653 0.290946 0.554252 -0.348395 -0.007533 0.251713 -1.357589 -0.021073 -0.633259 -0.255768 0.121798 -0.667457 0.143761 -0.588386 0.859939 -1.310981 0.718932 0.005814 0.011896 1.127440 0.625829 -0.139074 1.165053 0.341430 -0.247810 -1.329638 -0.783988 0.983225 -0.160666 1.374961 -0.090052 -0.008851 0.510380 0.396342 -0.166668 -0.002128 -0.577380 -0.071158 -0.467303 -0.323717 2.224927 0.517458 -0.138230 -0.155846 -0.602703 -0.237060 -0.187510 0.295438 0.414147 0.752671 0.989713 -0.364310 -0.424159 1.244311 -1.215744 1.459514 0.112247 -0.151462 -0.533889 -0.457522 0.261460 0.914932 -0.071327 -0.141320 -0.774565 0.100313 0.430218 0.250623 -0.207651 -0.319721 0.386247 0.259857 -0.673767 0.761204 -0.858554 0.656901 0.457858 -0.407980
Return 0.687301 -0.279232 -0.750898 0.553866 0.466804 -1.827861 1.055027 0.180144 0.326925 -1.708510 -2.017822 0.762752 1.467491 -1.885288 0.435108 -0.816042 -1.332711 -0.647636 -0.233469 -2.963109 -0.319535 -2.216766 -1.955008 1.266674 0.239213 -0.407370 0.744208 -1.767139 0.256652 -1.539789 1.189188 0.762225 -1.024274 0.099254 -0.928333 1.429121 -1.582974 0.709292 -1.321490 1.170390 -0.448185 -0.062903 -2.907539 2.538397 0.528537 0.524787 -1.056440 0.898979 -3.122378 0.009675 1.556228 0.771495 -0.021681 -1.724048 0.860842 2.059078 2.436931 0.395958 -3.723015 0.455116 -0.484477 1.806260 -2.554428 -1.903064 -2.141036 -1.576890 0.656615 1.585099 3.474022 -0.721060 -0.020536 -0.281855 -0.189089 -1.433117 -0.217627 -2.549174 0.783960 -0.396128 2.672554 0.090198 0.879245 -2.654744 1.775582 0.891430 0.009072 0.905083 -0.214453 -0.434952 1.336277 -1.963090 0.369773 1.403525 -0.841161 -1.141866 -1.298716 1.330506 0.293959 0.192243 0.651918 1.634790
PtrDecl -0.394959 0.360898 0.307366 0.272997 -0.234066 -1.736568 1.069466 -0.209094 -0.333760 -0.501948 -0.510512 0.384964 0.210411 -0.983625 0.048456 0.003505 0.640874 -0.510759 0.266412 -0.735857 -1.760459 0.044181 -1.703782 0.295011 -0.233554 0.086755 1.934490 -0.168450 0.203800 0.489039 -0.687149 -1.360215 -0.753356 -0.285490 0.395574 0.607679 0.090592 -0.377847 -0.544520 0.823625 -0.578170 0.216319 -0.566073 0.066760 -0.132864 0.422234 -0.005107 0.418652 1.117229 -1.042101 -0.167772 -0.750156 -0.372018 -0.570904 -0.441472 -0.052954 0.425022 -0.819915 -0.912971 0.401160 -0.795758 0.883907 -0.933094 -0.463807 -0.345276 -0.964439 0.420308 1.046561 0.391716 0.038887 -0.709433 -0.302069 0.662761 0.073042 0.376658 0.691466 0.964101 -0.224038 0.245509 -0.023026 -1.137165 -1.420783 0.828497 -0.634862 -0.159749 -0.858326 -0.742288 0.162637 0.036150 -1.151315 0.177949 -0.191786 -0.764862 0.211137 -1.595773 1.260450 1.033989 -0.208785 -1.430755 0.736102
root 5.234206 -0.877838 3.294884 -2.337856 3.045488 -2.442233 2.275829 1.637589 -0.437714 2.172804 -5.378042 -4.307218 2.050384 -1.721386 0.732334 0.624425 1.932983 1.459203 -0.258197 -4.833977 -4.007566 -2.710642 -2.033629 1.975615 0.771791 1.315050 3.139578 2.402464 1.269823 -0.179282 0.237299 -4.674351 2.139037 -2.136504 1.131935 -2.103238 -3.098660 1.802957 3.193067 -0.513410 -2.177288 -0.583759 -4.278296 -0.062752 -5.689753 1.250212 0.183628 3.446121 2.227569 -2.703247 1.230510 -0.676180 -1.009192 -1.147385 -3.221961 -0.468371 -1.638829 -4.189481 0.264194 -2.593053 1.186668 0.953429 -2.601966 -3.869064 -4.126758 -1.842186 0.553197 0.043272 4.306402 2.460206 -0.670961 0.447447 2.620847 1.222626 2.383644 3.409375 1.950767 -3.072348 -0.037768 -0.287618 -1.295421 -4.752079 3.749278 -0.036330 2.521183 -1.508058 -3.328408 0.265494 -0.607676 -0.005780 4.453993 -0.460731 -2.026953 3.715727 1.174701 0.700075 -1.297938 0.233392 0.230248 2.763786
Typename 0.143908 1.111152 -0.940134 0.897051 -2.540230 -1.225930 -0.590677 -0.696111 0.003716 0.960034 2.478704 -0.324662 -0.077050 -0.155573 0.287538 0.930531 0.291259 -2.477824 -0.564080 1.341316 1.144264 2.829000 0.562611 -1.073345 -0.977917 2.825713 1.052638 1.613987 1.612606 1.040161 -0.416053 -1.067310 0.357087 0.100430 -1.344863 1.508853 -0.811623 -0.151417 -0.830688 -0.412301 -0.967372 0.521055 1.310459 -1.000587 2.464209 0.069173 2.877480 -0.808477 2.476496 -0.592732 -2.392148 -0.108298 -1.900718 1.135391 -0.012493 -1.060810 -0.689568 1.458310 0.488964 -0.497304 -0.200658 1.132441 1.726850 0.312413 0.911774 0.007118 0.411514 0.319999 -1.682246 -0.516376 -0.992729 0.258251 -1.245477 -1.284835 0.531593 0.569207 0.086983 0.333114 -0.241369 -1.313044 -0.647676 0.196868 -0.518603 -1.076814 -0.741440 -0.855342 -2.087452 1.036669 0.976007 0.168317 -0.085456 -0.197352 0.791048 1.279983 -0.768959 1.002748 -0.101055 -0.389268 -1.415320 -0.688054
ParamList -2.000802 -0.011447 0.617203 0.530619 -0.015023 -1.668951 3.271301 -0.186309 -0.193799 -1.577571 -1.532865 1.574857 -0.148407 -1.023426 -1.137884 0.106257 -0.544191 -0.175105 0.354519 -1.525982 -1.487646 -0.405180 -3.983290 1.616490 -0.286765 -0.902747 1.261412 0.195818 0.468740 0.014515 -0.648281 -1.364055 -1.995466 0.097417 0.886376 0.928114 0.770689 0.376015 -1.008996 0.594864 -0.788004 0.174779 -2.286119 0.459497 0.237882 1.667361 -1.656122 -0.700195 0.761773 -1.115925 0.839730 -0.891755 -0.009240 -1.817835 0.348406 1.379502 0.932366 -0.158620 -2.339705 0.290121 -1.819018 2.157939 -2.617617 -0.267777 -1.516928 -1.648998 0.231641 1.485327 0.633068 0.262822 -0.049879 0.379568 0.486257 0.778650 0.565571 0.060291 0.755826 0.767239 1.213768 0.412643 0.296727 -2.039703 1.437181 0.487491 -0.384394 -0.677265 -0.727017 0.151358 1.665896 -1.365039 -0.092331 0.619321 0.187385 -1.101999 -2.717920 2.105265 0.165975 -0.026444 -0.756106 0.602151
Break 1.003843 1.368168 -1.907804 0.342558 -0.073293 -0.135375 -2.459044 0.251163 1.392954 -1.014770 -0.246385 -1.499640 1.010733 -2.009851 0.881028 1.074545 1.328736 -0.616894 0.626804 -0.342834 0.034393 -0.405062 0.601750 -0.997732 0.118832 1.717841 1.156749 -0.602562 0.743631 -0.078039 -0.209741 0.855478 1.060009 0.238135 -0.825159 -1.283760 -1.422833 -0.501918 -1.490348 -0.337182 0.367402 -0.507302 1.292139 0.423736 1.333872 0.029378 1.090991 -0.367033 -1.228439 -0.418511 -1.198090 1.217479 0.774209 1.004092 -0.070049 -0.290981 -0.901038 0.359640 0.990045 -0.224837 0.942157 0.066050 0.079341 -0.480980 0.079202 -0.401705 -0.194988 -0.636586 0.531806 -0.391522 2.335191 -0.948065 0.388528 -0.877723 -0.905995 -1.223558 -0.152420 -0.339376 0.462033 0.156608 -1.126297 -0.898055 -1.741307 0.468366 -0.748466 -0.291761 -1.211224 0.352513 1.362223 -0.179610 -0.432709 0.024449 -0.328692 -0.052471 0.492291 -0.016539 -0.615610 0.047061 0.892332 0.806208
Case 1.584949 1.453060 -2.007493 1.028507 0.490867 -0.784335 -1.881712 0.557227 1.536666 -1.780211 -0.973615 -2.458225 1.442742 -2.833583 0.866417 1.092329 2.012987 -0.926105 0.458209 -0.829573 -0.822899 0.127079 -0.952900 -1.262445 -0.197125 2.593801 2.418068 -0.529599 1.488903 -0.098111 -0.375111 -0.309292 1.001323 -0.431505 -0.709127 -1.047652 -1.654586 -1.318837 -2.202925 0.034651 -0.214124 -0.677798 0.708495 0.551227 1.636618 0.486816 1.791487 -0.139371 -0.854927 -1.344306 -2.318727 0.736356 0.141528 0.834607 -0.179867 -0.944410 -1.395573 0.511510 0.323307 -0.107584 0.535436 0.448272 0.251911 -1.570262 -0.889432 -0.873011 -0.530105 -0.990938 1.467100 -0.635791 3.286335 -1.073127 1.277734 -1.530481 -0.560313 -0.564916 0.084450 0.191451 0.714530 -0.028722 -1.072651 -2.105270 -1.347580 -0.287331 -0.603544 -0.582322 -2.312483 0.103900 2.069964 -0.737062 0.093481 -0.643639 -0.929580 0.011724 -0.566024 0.582936 -0.239569 0.950673 0.662469 0.862939
Struct 0.525788 -1.214602 1.412557 -0.510521 2.966093 -0.697905 3.329103 0.570741 0.189535 -1.296719 -4.039341 -0.402053 1.228757 -1.421361 -1.024460 -0.670030 0.235853 1.674350 -1.052480 -2.500624 -2.555938 -2.788060 -1.450134 2.111901 0.348812 -1.020900 1.326529 -0.373611 0.110782 0.269435 1.230140 -0.295352 0.035098 0.098838 1.373810 -0.444877 -0.441938 1.024441 1.427209 0.394403 -0.149419 0.796232 -1.521810 0.401890 -1.554401 1.809765 -2.958747 0.386170 -1.222897 0.874499 2.230989 -0.123044 1.316884 -1.437819 -0.677806 1.481631 0.050986 -0.530217 -1.298344 0.710357 0.118601 -0.040950 -1.761951 -0.743792 -1.702790 -1.890828 -0.206966 -0.200685 2.437476 -0.010677 -0.412337 1.382170 -0.102957 0.666741 -0.654550 -0.115299 -0.025589 -0.627259 0.615459 0.711686 -0.001839 -1.585878 2.537300 1.373069 1.122445 0.548021 -0.096639 0.097932 -0.065975 -0.742202 2.110996 -0.781738 -0.945396 0.748916 -0.573986 0.582474 -0.291068 1.051054 1.089989 0.358875
Cast -0.867969 -0.157084 -1.025334 0.439567 -1.412722 -1.058717 1.734352 -0.715448 0.976964 -0.133010 1.058841 0.092727 -0.389710 0.255276 -1.116445 0.251085 -0.795005 -2.424067 -1.176578 0.658255 1.883442 2.592991 -0.550351 -0.058822 -0.887526 2.580157 0.319194 1.961102 2.379392 0.831505 -0.257048 -1.227529 -0.054950 0.174468 -0.593465 1.096775 -0.187052 0.424053 -0.523383 -1.045396 -0.497336 0.457707 -0.661135 0.187012 2.076146 0.155952 2.029268 -1.719664 1.482392 0.198327 -1.902108 -0.122235 -1.780711 0.105332 0.262736 0.014950 -0.373751 2.438855 -1.204042 -0.647658 -1.727884 1.783405 0.711505 0.049715 0.168337 -0.336824 0.180173 0.833231 -1.544311 -0.866742 0.158244 1.115868 -0.331070 0.072695 -0.174242 1.363603 -0.346359 1.922522 0.314149 -0.464773 1.422686 -1.015014 0.760337 -0.535880 -1.323515 -0.229671 -1.588404 0.861061 2.980745 -0.444550 0.162691 0.331486 1.669754 -0.583446 -2.076277 2.038294 -0.533767 -0.201373 -0.851910 0.011965
While 1.244563 -0.806180 -0.018247 0.759146 1.342824 -1.334222 2.642350 0.768696 0.751437 -1.016001 -2.735162 1.455577 0.791700 -1.255154 0.006557 -1.134786 -0.637028 0.547185 -1.091728 -2.033398 -1.423461 -1.007032 -1.563981 1.901465 0.852050 -0.051395 0.475881 -0.943117 0.489171 0.103596 0.095340 0.240695 -0.845195 0.354724 0.441551 -0.617790 -0.527551 -0.062743 -0.299982 0.776616 -0.580208 0.228434 -2.169062 0.168310 -1.140769 1.112423 -2.434627 -0.376488 -2.217005 -0.656575 0.970009 1.349947 -0.308285 -1.184380 0.415620 2.930334 1.777817 -0.371033 -1.901316 1.504964 -0.943657 1.166803 -1.814655 -1.073129 -2.028260 -1.983370 1.173855 1.526328 3.107405 -0.156816 0.902042 -0.141574 0.284076 -0.197807 -1.081229 -0.575673 0.216609 -0.073613 1.128879 0.137329 0.346015 -2.328113 1.435972 0.805009 -0.750413 -0.067943 -0.986782 -0.714637 1.361977 -0.628426 0.629782 0.254226 -0.248746 -0.997068 -1.102585 1.737515 0.057489 -0.105704 1.313928 1.456918
InitList 0.549515 -0.066344 -2.028954 0.029317 1.990809 0.054413 0.445030 -0.823361 0.553211 -1.757861 -3.290226 -0.423342 2.971369 -1.741393 0.493701 -0.421738 0.251217 1.324626 0.275192 -4.845461 -0.506531 -3.513908 0.116618 2.569389 -0.495205 -1.285392 1.623749 -3.562464 0.967099 -1.515782 1.205607 1.995048 -0.117146 0.557670 -0.278147 -1.523930 -1.504458 1.369584 -0.595327 -0.006682 -0.775765 0.150569 -3.648896 1.223126 -0.641458 1.993302 -3.007443 1.191332 -3.571028 0.415194 2.706173 2.914843 0.547741 -1.016885 -1.621796 2.948349 1.771881 -0.352019 -1.703387 -0.258711 1.093424 2.121765 -2.114779 -0.645471 -4.402842 -3.085415 0.555210 0.337998 7.174870 0.371695 1.153732 0.001993 -1.261244 -0.472082 -0.878531 -3.668354 0.862925 -1.409387 4.307191 0.979867 -1.373863 -5.071170 0.929451 2.780484 1.536357 0.460542 -1.377436 -0.432320 2.882422 0.033045 1.061229 2.572837 0.718690 -0.869119 0.494311 1.713236 -1.348292 -0.355272 3.723025 1.140639
DoWhile 0.424722 -0.026600 1.593860 0.063513 1.267968 -0.243025 1.176134 1.796012 -0.244912 -1.099587 -1.556618 0.142841 0.808200 -0.641454 -0.667996 -0.337501 0.114233 0.985067 0.127649 -0.781199 -0.665397 -1.217790 -0.902024 1.512673 0.995205 -1.797119 0.076926 -0.265254 -1.426102 -0.081648 -0.132565 -0.758908 -0.367962 0.404979 1.028078 -1.005620 0.358075 -0.012335 0.365583 0.108542 -0.177512 -0.301275 -1.125995 0.177179 -0.102420 0.984258 -1.895834 0.228822 -0.808619 -0.321222 1.496848 -0.470993 0.644060 -1.492800 -0.163122 1.269097 -0.238044 -0.865693 -0.734950 0.328551 -0.090301 -0.262622 -0.831407 -0.921712 -1.333011 0.002660 -0.326860 0.068641 0.575536 0.235811 0.259264 0.881472 0.317973 0.206808 -0.002300 -0.383981 -0.217056 0.515883 1.013959 0.155813 0.373567 -0.416189 0.488806 0.729692 1.328172 0.207877 -0.412654 0.433988 0.715557 0.127587 0.242802 -0.625157 -0.624253 0.074999 -0.258380 -0.413933 -0.773467 0.466559 0.874598 0.427266
Switch -0.067813 -0.028224 0.623848 -0.672652 0.655942 -0.313570 0.366785 -0.165255 -0.055135 0.151659 -0.408391 -1.029605 -0.429023 0.099303 -0.566511 0.738585 0.941531 0.837562 0.300004 -1.010540 -1.138902 -0.375463 -0.372222 0.156069 -0.495934 -0.518766 1.174011 -0.954155 -0.213979 -0.081451 -0.395767 -0.547632 -0.009482 0.214376 -0.198502 -1.091126 0.117185 -0.044969 -0.250717 0.369917 -0.545646 -0.046611 -0.114220 -0.159221 -0.298061 0.426408 -0.330131 1.425151 0.455448 -0.260467 -0.138816 0.198313 -0.317104 -0.072616 -1.187619 0.119928 0.055762 -0.729453 0.541761 0.078093 0.810677 -0.033846 0.071546 -0.294503 -0.926472 0.280172 0.318923 0.402549 0.672154 0.035309 -0.204343 -0.493671 0.030763 1.010988 -0.129778 -0.070068 1.076758 -0.503603 -0.110248 -0.230032 -0.619796 -0.052197 -0.053759 -0.592937 0.794752 -0.713123 -0.191008 -0.518683 0.106681 0.479631 0.025379 0.108793 -0.886852 0.183944 -0.363186 0.213040 0.353919 0.352419 -0.399780 -0.264123
Continue 0.452003 1.608976 -1.623462 0.875534 -1.322252 0.428709 -3.445830 0.254424 -0.293323 -0.268690 1.900954 -0.022723 0.494823 -0.610844 1.170738 0.702885 1.171294 -0.323703 1.306165 0.348231 0.214173 -0.234587 0.518740 -0.906455 0.197339 -0.112863 0.977900 -0.833258 -1.352720 -0.791853 -0.790527 0.795309 0.208716 0.453998 -1.247302 -1.226486 -0.255179 -0.996434 -1.477815 0.294704 -0.316222 -0.486844 1.384602 -0.024712 0.907411 0.079046 0.479874 0.619452 -0.998994 -1.355763 -0.607818 1.293034 0.020563 0.644356 -0.195048 -0.038256 0.185137 -0.847631 0.984897 -0.041122 1.155933 -0.038428 0.479377 -0.077175 0.426860 0.037114 0.255715 0.320823 0.760678 0.667362 0.645545 -1.494066 0.068691 -0.536943 -0.081604 -1.522232 0.016282 -0.578520 0.988312 -0.434251 -2.095268 -0.074124 -1.813150 0.160720 0.219083 -0.762129 -0.675659 -0.025362 -0.121379 0.425614 -1.930486 0.920712 0.200365 -0.170270 0.398891 -0.469816 0.044944 -0.763369 0.103573 -0.137573
TernaryOp 0.784217 -0.176094 0.355810 -0.341241 0.208743 0.206005 0.618026 0.248056 0.093531 0.648516 -0.073281 -0.529338 -0.260537 0.397919 -0.153052 0.014635 0.204740 0.173399 -0.535069 -0.462799 0.408337 -0.860026 0.739674 0.351342 0.423268 -0.315584 -0.408406 0.287973 -0.381560 -0.387478 -0.217245 -0.015079 0.379899 0.001533 0.046383 0.163682 -0.096375 0.341818 0.834354 0.142004 0.045542 0.485893 -0.337646 0.537813 -0.253444 0.004827 0.141280 0.009279 -0.107805 0.632952 0.217733 0.097013 0.161454 0.045061 -0.066711 -0.097163 -0.231115 0.060311 0.019435 -0.418509 0.430139 -0.165377 0.535101 -0.144015 -0.264476 0.381826 -0.100953 -0.195404 -0.094522 0.234676 0.085178 -0.058793 0.193187 0.186087 -0.009731 0.768170 -0.004381 0.439990 -0.360896 0.319732 0.564432 0.279218 0.334495 0.440593 -0.005417 0.306960 -0.047065 0.088060 -0.159430 0.205160 0.744301 -0.157412 -0.558949 0.414403 0.074872 0.154423 -0.321974 0.341158 0.179254 0.329854
EmptyStatement 0.916189 1.071778 -1.078172 0.880426 -0.591166 -0.146251 -1.968751 0.620096 0.015454 0.158990 0.514626 -0.022426 0.490169 -0.754846 0.869455 0.614776 1.108461 0.109829 0.886172 -0.162542 -1.203810 -0.417989 -0.071145 -0.602836 -0.158409 -0.082263 1.618582 -0.941549 -0.651413 -0.087546 -1.261758 0.496499 -0.089933 0.496590 -0.632590 -1.632942 -0.513837 -0.966167 -0.873035 0.498981 -0.427626 -0.397680 0.776175 -0.550896 -0.178860 0.333399 -0.354284 1.225562 -0.626438 -1.203304 -0.470197 1.505805 0.087706 0.311846 -0.529954 0.532254 0.481390 -1.362582 0.910882 0.503039 0.932804 -0.245412 -0.015795 -0.190701 -0.309241 -0.635707 1.194739 0.368894 1.309235 0.935761 0.435440 -1.427797 0.171874 -0.090095 -0.337300 -1.273774 0.267217 -1.311156 0.433496 -0.356070 -2.335539 -0.844046 -1.295310 -0.113508 -0.100689 -1.230444 -0.667370 -0.093592 -0.013303 0.283127 -1.270508 0.951328 0.122601 0.091988 0.174454 -0.079543 0.264062 -0.623637 -0.018379 0.155821
DeclList 0.458164 1.788231 0.299885 0.957258 -0.874823 -0.711247 -1.357959 1.401301 -0.693322 -0.009839 0.749589 1.119384 0.831225 -0.872917 1.054032 0.519178 -0.195485 0.458303 0.864156 0.078995 -0.587072 -1.359888 -0.420024 0.493416 0.286867 -1.141519 0.932305 0.310152 -1.657157 0.244853 -1.582924 0.781812 -0.782769 -0.332407 0.343948 0.053418 -0.260777 -0.298539 0.286438 0.842438 0.215416 -0.212983 0.525237 0.306667 0.841801 0.570604 -0.959798 0.840486 -0.117410 -0.738599 0.797585 0.010781 0.584905 -0.623939 0.437704 0.678777 -0.132991 -1.297874 0.415272 0.108657 0.444562 -0.551307 0.125228 0.160802 0.049753 0.010848 0.160362 -0.848213 -0.430779 0.541763 -0.172891 -0.624102 -0.297730 -0.873160 0.530722 -1.948967 -0.391921 -0.637217 0.226365 -0.754032 -0.461624 1.130045 -0.835262 -0.041906 0.062735 -1.221034 -0.581920 0.431704 -1.005544 -0.058036 -1.175089 0.554365 -0.820835 0.771129 0.793090 -0.493726 -0.495271 0.613002 -0.488902 -0.130313
Goto -0.001768 1.614645 -1.429688 0.986684 -1.350826 0.344688 -3.359893 0.085800 -0.429471 -0.543187 1.434575 0.420728 0.641097 -1.013278 0.850763 0.669481 1.223490 -0.190130 1.315984 0.095885 -0.440582 -0.453932 -0.049745 -0.732103 -0.150910 -0.231325 1.579213 -0.999846 -1.162598 -0.441334 -1.239044 0.819763 -0.256638 0.239328 -0.978197 -1.363055 -0.176901 -1.338170 -1.383065 0.490041 -0.337721 -0.446280 1.424566 -0.187969 1.113006 0.463880 -0.073435 0.445375 -0.532365 -1.369740 -0.628429 1.526675 0.095104 0.374141 -0.230428 0.264456 0.173615 -1.020920 1.008450 0.123673 1.157525 -0.180811 0.469398 0.346720 0.408110 -0.456413 0.316207 0.177968 0.791864 0.868515 0.686217 -1.372972 0.234024 -0.535196 0.215639 -2.116130 0.041248 -0.959567 0.778822 -0.494280 -2.091072 -0.008833 -1.611680 -0.054397 -0.180018 -0.983886 -0.722130 0.041741 -0.401926 0.337982 -2.221727 0.917910 0.404109 -0.032175 0.511709 -0.091857 -0.072224 -0.667608 -0.187383 -0.273240
Label -0.110017 0.940752 -0.899517 0.166887 -0.095718 0.096424 -1.887888 -0.494513 -0.041225 -0.632012 0.189104 -0.487488 0.028387 -0.870483 0.492657 0.381590 1.630124 0.543228 1.130084 -0.555953 -2.201804 0.127337 -1.406041 -0.768983 -0.673051 0.186244 2.218769 -1.386226 -0.315470 -0.517552 -0.786700 -0.313433 -0.135820 0.424486 -0.898570 -2.292313 0.056510 -1.199585 -1.250628 0.759741 -1.048782 -0.520780 0.221130 -0.702135 -0.930481 0.438944 -0.968386 1.821730 0.250356 -1.874455 -1.374611 1.257649 -0.613999 0.121183 -1.554837 -0.012778 1.078761 -1.647559 1.370688 0.567866 0.901849 0.108322 -1.206827 -0.388806 -0.305376 -1.044294 1.093002 1.128055 2.050931 1.602244 -0.306357 -1.055359 0.594581 0.646733 -0.206141 -1.076253 1.160020 -2.063925 0.600961 -0.498199 -3.323941 -1.829718 -0.627865 -0.681083 0.320511 -1.304036 -0.607663 -0.648496 -0.517107 0.261876 -1.509236 1.172024 0.666937 -0.389966 -0.394294 0.406245 0.489624 -1.251212 -0.840444 -0.120380
Default 0.176140 1.542678 -0.880868 0.428281 -0.630149 0.454424 -2.131114 0.164241 -0.200891 -0.152051 0.828600 -0.206848 0.062039 -1.150491 0.824976 0.957216 1.359546 0.001668 0.931165 -0.550611 -0.527401 -1.617968 0.014205 -0.025670 -0.097894 -0.983917 1.085365 -2.054799 -0.703304 -0.368580 -1.570846 0.876818 -0.145469 0.562671 -0.534701 -0.482628 -0.373904 -1.537297 -1.278492 0.737372 -0.162902 0.030090 1.166819 0.398928 1.599525 1.001056 -0.155705 0.698059 -1.086625 -0.657827 -0.344519 1.224548 0.425747 0.238952 -0.023277 -0.375769 -0.045162 -0.487506 1.028501 0.491967 1.618928 -0.440166 0.724727 -0.079487 -0.556087 0.441770 -0.303682 -0.648376 1.141391 0.229885 0.966369 -2.085758 -0.074607 -0.882206 -0.336841 -2.141406 0.073746 -0.119764 0.474716 -0.018863 -1.207578 0.185227 -2.056413 0.180747 0.049896 -0.249139 -0.537462 0.243252 -0.234678 0.175637 -1.267184 0.029714 -0.224644 0.309761 0.411406 -0.508819 0.412816 0.411811 0.297531 0.170482
Typedef 1.533155 0.314196 0.441161 -0.887316 0.690035 -0.425186 0.136112 0.321194 -0.185723 0.418655 -1.355341 -1.215599 0.502318 -0.521910 0.216551 0.401226 0.982012 0.874886 0.135218 -1.404333 -1.552003 -0.490697 -0.697046 0.653108 0.130674 0.765783 1.394661 0.789885 -0.077149 -0.392275 -0.151223 -1.471012 0.844910 -0.538340 -0.233855 -1.593470 -0.533831 0.251295 0.906434 -0.128440 -0.803032 -0.398961 -1.338681 -0.512662 -2.538558 0.398383 -0.346874 1.070403 0.770174 -1.585122 -0.162589 0.982591 -0.879875 0.057535 -1.609151 0.158296 -0.374903 -1.610392 0.950382 -0.910712 0.265482 0.633922 -1.453905 -0.948648 -0.896676 -1.187383 0.342683 0.688873 1.907535 1.604665 -0.208942 0.254347 1.598475 0.894827 0.646171 1.281626 0.537516 -1.502919 0.111528 -0.045964 -1.526006 -2.498492 1.160439 0.147800 0.439555 -0.993368 -1.449131 -0.182880 -0.141093 0.409084 0.469458 0.415609 0.018501 0.980809 0.116450 0.764484 -0.451790 -0.925583 0.306467 0.700669
Enumerator 0.131695 0.245149 -0.728916 -0.025204 0.507395 0.638881 0.638633 -0.374857 0.987688 -0.498297 0.722355 0.211713 -0.628549 0.017765 0.385105 0.389542 0.017843 -0.349088 -0.688713 -0.017489 0.355722 -1.217899 0.572251 -0.118041 1.065771 -0.793287 -1.157479 -0.910939 -0.512796 -1.063523 -0.255557 0.882552 0.088329 0.573283 0.046404 1.004482 0.079890 -0.322182 -0.011892 0.769498 0.900557 1.921671 0.553347 1.721857 0.256363 -0.053043 -0.218804 0.071047 -2.003520 1.438008 0.627326 -0.319267 1.241586 -0.041370 1.079526 -1.477663 0.343192 0.857188 -0.720130 0.690189 0.027521 -0.279919 0.588588 -0.028350 -0.348426 1.238786 -0.413049 -0.916655 -0.478554 -0.680458 0.068486 -1.237065 -0.422274 -0.101019 -1.537671 0.760534 -0.485759 1.452134 -0.404939 1.009942 -0.373041 -0.084393 -0.376815 1.092794 0.108909 0.390148 1.426199 0.348426 -0.162753 -0.737820 0.417643 -0.168213 -0.122528 -0.674514 -1.111563 -0.976030 0.389745 1.430862 -0.255177 1.019290
Enum -0.066147 0.030466 -0.238711 0.063187 0.072147 0.270140 0.104771 -0.094905 0.234356 -0.067970 0.073821 0.107326 -0.227199 -0.080864 -0.003001 0.238614 0.133671 -0.169634 -0.166673 0.034596 0.036949 -0.358001 0.113811 -0.034205 0.232395 -0.311853 -0.243144 -0.379116 -0.132189 -0.160931 -0.157721 0.186575 0.034949 0.124616 -0.018901 0.149058 0.000509 -0.224075 -0.039709 0.103931 0.274911 0.602460 0.475142 0.324026 0.184592 0.147008 -0.093631 0.009895 -0.633816 0.423868 0.208045 0.006672 0.472475 0.127118 0.380359 -0.399852 0.025445 0.122535 -0.127897 0.179680 0.039957 -0.171935 0.337420 0.125013 -0.109400 0.347169 -0.078526 -0.259518 -0.165814 -0.180481 0.174246 -0.518387 -0.066366 0.103721 -0.487988 0.278062 -0.222244 0.456376 -0.271659 0.273622 -0.173052 0.041374 -0.273666 0.323853 -0.033755 0.029393 0.413361 0.214876 0.039359 -0.194350 0.036703 -0.147546 0.022888 -0.073030 -0.313523 -0.339735 0.206976 0.485275 -0.075285 0.199034
EnumeratorList 0.052364 -0.085337 -0.434031 0.101664 0.316857 0.404667 0.285831 -0.207732 0.310851 -0.195711 0.205167 0.064164 -0.358117 0.025682 0.070974 0.097459 0.079787 -0.050837 -0.187183 0.132515 0.042255 -0.587708 0.189710 -0.024666 0.396834 -0.325436 -0.452775 -0.455211 -0.207307 -0.354276 -0.147751 0.476739 0.053615 0.225490 0.041227 0.290160 0.075688 -0.102702 0.098029 0.285670 0.462958 0.920451 0.562682 0.626754 0.026041 0.139277 -0.177195 -0.009284 -0.998991 0.551137 0.287836 -0.133616 0.519689 0.062053 0.446465 -0.666502 0.021521 0.426201 -0.235615 0.412988 -0.036788 -0.284262 0.400278 0.081803 -0.060821 0.482597 -0.183053 -0.547352 -0.147025 -0.362553 0.193172 -0.657415 -0.111068 0.035589 -0.755118 0.528898 -0.418028 0.749232 -0.299554 0.542332 -0.046207 0.043016 -0.129302 0.367741 0.001900 0.218736 0.655897 0.231340 -0.071581 -0.297607 0.142819 -0.204769 0.002580 -0.270183 -0.564938 -0.463008 0.349508 0.712202 -0.088620 0.294362
Union 0.000836 -0.007345 0.002253 -0.010456 0.015788 0.008367 0.003302 -0.010971 -0.007313 -0.007712 0.008288 -0.015040 0.010869 -0.001910 -0.005308 -0.009666 0.012599 0.003549 0.010509 0.001315 -0.006295 -0.011132 0.003341 -0.004951 -0.007415 -0.014834 0.008750 -0.004492 -0.003946 -0.012100 -0.010289 -0.004605 -0.000420 0.013690 0.011933 -0.007417 -0.002110 -0.016617 0.006742 -0.004344 -0.010150 0.005794 0.001696 0.014849 -0.003839 0.014314 -0.005224 -0.014201 -0.009132 0.013736 -0.001138 -0.011387 0.000831 0.001392 -0.011462 0.010097 0.001018 0.000004 -0.002853 0.007409 0.012679 -0.003809 0.011910 -0.003704 -0.004176 -0.013015 -0.000986 -0.004612 0.015931 0.001734 0.007113 0.000115 -0.003589 0.014674 -0.007017 -0.013565 0.003109 0.000318 0.001792 -0.003814 -0.001120 0.006770 0.002752 0.015477 0.016145 0.010238 -0.003567 -0.007358 -0.014131 0.005997 -0.009529 -0.006995 0.004225 -0.000310 0.005233 -0.015589 0.000260 -0.006943 0.007032 0.012678
