43 100
ID 0.020809 0.249675 0.468257 -0.383791 -0.082600 0.764281 -0.296090 -0.325240 -0.690481 -0.049842 -0.227788 -1.258654 -0.240297 -0.413079 -0.145018 0.507671 -0.496257 0.031049 0.432656 0.638932 0.381813 -0.580824 -0.382547 -0.237856 -0.145992 0.540831 -0.749779 -0.285134 0.300001 -0.343208 1.080748 0.446127 -0.551763 0.231867 -0.053573 0.839374 -0.535165 0.458258 0.219894 -0.149348 0.752532 -0.219470 -0.370885 -0.174897 -0.994218 -0.267292 -0.541821 0.658913 -0.455770 -0.173912 -0.008835 -0.588737 0.076326 0.776352 0.213215 -0.622429 -1.084727 -0.055879 0.316753 -0.575741 0.032820 -0.550516 -1.092620 0.677346 0.386031 0.039348 0.031651 -0.084575 -0.320532 -0.161357 -0.040501 0.069177 0.175572 -0.209297 -0.076147 0.551336 -0.724514 -0.040807 -0.756303 -0.070950 -0.031727 0.767481 0.017668 0.007596 0.164684 0.645696 0.026494 -0.138727 0.043767 0.457976 0.202409 -0.298755 -0.118478 0.352813 -0.138281 -0.590864 -0.290556 -0.120910 0.964284 -0.226860
BinaryOp 0.286117 0.000007 -0.176555 -0.179299 0.648610 0.646038 0.032339 0.028829 0.086042 -0.460413 -0.265913 -0.586482 0.300122 0.364600 0.278544 -0.085709 0.669783 0.539728 -0.454311 -0.812096 0.500174 -0.759375 0.338555 0.396322 0.807403 -0.016517 -0.156411 -0.543007 -0.726946 -0.002558 0.088465 -0.564860 0.428129 -0.185526 0.713394 -0.410192 0.371183 0.018692 0.375049 0.600243 -0.216349 -0.271888 -0.511190 0.138771 -0.860052 -0.084040 -0.414143 0.598796 -1.068672 -0.448340 0.420092 -0.370982 0.782372 0.103872 0.195571 -0.452370 -0.271374 0.206225 -0.632810 -0.540349 0.301632 -0.311100 -0.276033 -0.268919 -0.183499 -0.108011 -0.163347 0.684435 0.554355 0.545458 0.944397 0.201030 0.205020 0.250354 -0.521886 0.266170 0.216580 0.545955 -0.273205 1.089655 0.080268 -0.584894 0.485038 0.386197 0.694057 0.620052 0.823400 -0.465320 0.082143 0.248165 0.910219 0.251427 -0.324379 0.246467 -0.125075 -0.061569 0.171419 0.238557 0.756618 0.527142
Constant 0.480140 -0.107832 -0.059298 0.569332 -0.175432 0.883860 0.699001 -0.064245 -0.870505 0.278286 -0.907300 -0.362017 -1.001588 -1.626817 0.054740 -1.451398 0.348611 0.344684 -0.349245 0.493182 0.146830 -0.273635 0.836465 -0.330166 1.274869 0.328594 -1.630594 -1.223635 0.321245 -0.531927 1.854298 -0.544116 0.374292 -0.164575 -0.287738 0.883559 -0.288438 -0.474166 0.755194 0.656887 0.529449 -0.015483 0.752600 -0.645362 -1.080592 0.263458 -1.143095 0.672048 -0.446377 -0.324785 -0.210222 -0.498561 0.351048 1.133007 0.394768 -0.404803 -0.834190 -0.482244 1.068270 0.233814 -0.094007 -0.594953 -0.762619 0.414441 0.569303 -0.179772 1.007393 0.496641 -0.036837 0.403078 0.390088 -0.358141 -0.457567 -0.330944 -0.623662 1.062828 -0.623478 -0.417536 -1.185363 0.137439 -0.070404 1.181226 0.054771 -0.036000 0.156177 0.932632 -0.640557 0.613539 -0.003631 0.168647 0.401075 -1.656080 -0.337348 0.979778 -0.126744 -0.265792 0.628045 0.116830 0.963101 0.527603
TypeDecl -0.405507 0.144447 0.751029 -1.708988 0.662123 -0.544288 -0.247029 -0.523511 0.400557 -0.490870 -0.549703 0.451806 0.140925 -0.348153 -0.122401 0.698600 -0.443988 -0.561084 0.422368 -0.036630 -0.753545 0.660936 -0.194754 0.069545 0.089380 0.356519 -0.195347 0.504360 0.581692 -0.310851 -0.850051 -0.056397 -0.719814 -1.035090 1.016596 -1.062418 -0.086078 -0.330530 -0.095480 -1.061713 0.527307 0.243855 -0.057486 0.523563 -0.951817 -0.166770 0.966868 -1.402339 -0.286686 -0.723453 -0.018244 -0.186434 -1.080269 -0.532846 0.078167 0.036597 -0.499677 -0.672806 0.003696 -0.075267 -0.532599 0.318202 0.013734 1.125382 -0.091105 0.372862 -0.525467 -0.148943 -0.991188 -1.395670 1.205345 -0.120351 1.618730 0.890985 0.357075 0.863991 -0.278656 0.467704 -0.737809 -0.668637 0.365946 0.613228 0.348502 0.022243 -1.218838 -1.287727 0.061558 -0.687195 -0.202826 -0.086718 -0.626462 -0.359998 -0.829515 -0.838589 0.584244 -0.009879 -0.400277 0.344738 -0.787340 0.830140
Decl -0.960660 -2.599906 0.975530 1.677546 1.351641 0.121001 2.251020 0.014872 -0.895676 0.745699 -1.087109 -0.667850 -1.555740 -0.407842 -0.561592 -3.535006 1.570011 0.794750 1.155747 0.947204 -2.191073 1.898112 0.254245 -1.040202 -0.440731 -1.970509 0.399333 -4.243984 1.525163 0.113169 -1.363290 -2.166667 -0.413715 -0.674591 1.604984 -0.054757 1.772910 -3.021912 -1.202775 1.460738 -0.036868 -0.164528 2.042612 -0.722360 0.648742 0.853223 0.729612 -0.538831 2.111245 -0.196032 -1.482680 -0.496411 -0.447874 -1.366659 0.049984 0.168363 1.506763 -0.541937 -0.318794 2.541387 -1.131421 -0.876328 2.278045 -1.169856 -1.471530 -0.281351 0.480210 -1.389546 1.802713 -1.209770 1.924133 -1.414953 1.717432 -0.263076 1.009924 0.976298 0.457527 0.781074 0.364057 1.153847 1.412789 0.083314 -0.712462 -2.272430 -0.326013 0.857551 -0.563695 0.855078 0.401861 -0.125009 -0.327042 -2.949917 -0.995073 -1.471156 -1.174764 0.777081 3.300457 0.491809 -2.283689 -0.398409
ArrayRef 0.264630 0.365725 0.598105 -0.402655 0.346699 0.188801 -0.205416 -0.273814 -0.309365 -0.237466 -1.032189 -1.539691 -0.227643 -0.347750 -0.355968 0.709074 0.136394 -0.037283 0.663222 0.296320 -0.319446 -0.556275 -0.629260 -0.186187 -0.318374 0.492000 -0.257927 -0.207958 0.018137 -0.376528 0.716740 0.254238 -0.020240 -0.126877 -0.512840 -0.168416 -0.684769 0.400741 -0.269205 -0.575299 0.525719 0.244765 0.241225 -0.102526 -0.640523 0.108379 -0.227718 0.125165 -0.776808 -0.368933 -0.263818 -0.329213 0.041184 0.943760 0.013801 -0.200150 -0.632063 -0.483567 0.211758 -0.461336 0.152763 -0.216000 -0.834315 0.481956 0.401349 0.012071 0.091009 -0.102470 -0.064479 -0.266015 0.402637 -0.057396 0.769958 0.336803 -0.094163 1.020909 -0.283266 0.094638 -0.851766 -0.238351 -0.457114 0.174669 -0.126366 0.328209 -0.323555 0.093613 0.006495 -0.107402 0.110467 0.450598 0.287297 -0.331796 -0.719521 0.362458 -0.336296 -0.491452 -0.124389 -0.040500 0.337382 -0.117404
Assignment 0.417415 -1.400000 0.201919 1.524634 0.238946 0.467378 1.330745 0.428639 -0.839665 0.518896 -0.479722 -0.758201 0.124790 -0.549115 0.104183 -1.528852 0.774628 0.185437 -0.283676 -0.058855 -0.296569 0.205781 0.786129 -0.108795 0.658240 -0.654955 -0.165253 -1.899980 0.417254 -0.229119 -0.283097 -0.769277 -0.269134 -0.460733 0.621679 0.349129 0.222805 -0.964075 0.250943 0.911527 0.162362 0.496522 0.829952 -0.068079 0.169622 0.143418 0.070863 0.120751 0.361319 0.215009 0.138562 0.101027 0.194540 -0.587807 0.313990 0.417784 0.381547 -0.235340 -0.462823 0.393300 -0.475524 -0.425644 1.346295 -0.675966 -0.918280 -0.419403 0.352913 -0.619742 0.873158 -0.369712 1.012715 -1.149748 0.694058 -0.206408 0.244508 0.659777 -0.142207 0.629083 0.054594 0.820439 0.687145 0.389103 -0.134012 -0.682429 0.658368 0.733585 -0.656599 0.481064 0.242320 -0.269915 0.163503 -1.164342 -0.541207 0.000577 -0.647127 0.967994 1.087406 0.561150 -0.322960 0.143430
UnaryOp 0.290618 0.041127 -0.855831 -0.583334 0.712993 0.584445 1.181646 -0.451510 0.823730 -0.479992 0.687268 0.324332 0.181202 0.328203 0.316498 -0.045560 -0.283172 -0.177780 -1.443898 -1.266403 0.599998 -0.383252 1.184348 0.495683 0.715007 0.033678 -0.669897 -0.796283 -1.100339 -1.534704 0.614382 -0.907104 0.481971 0.722534 0.518531 0.109687 0.267599 0.522153 0.522494 0.857860 -0.463307 -0.042709 -0.891947 0.936317 -1.175398 -0.221537 -0.473965 -0.023893 -1.060925 0.263792 0.694162 0.285556 0.638802 -0.251456 0.106718 -0.445327 0.239135 1.733240 -0.557286 -0.257804 -0.181256 0.929036 -0.751704 -0.662690 -0.451274 0.023746 -0.407533 1.175494 0.908578 0.438015 -0.163265 0.624319 -0.189496 -0.198411 -0.984267 -0.182692 0.113334 -0.195693 0.925446 1.141735 0.102888 -1.559666 1.179656 1.040178 1.053007 1.071728 1.520253 -0.758540 -0.005659 0.096765 0.971912 1.071078 0.742848 0.262763 -0.775651 -0.000659 -0.282510 -0.009728 1.295725 1.155967
ExprList -0.393396 0.881492 -0.870974 -0.667775 -0.207223 1.054314 -1.595658 -0.352038 -0.293515 -0.248547 0.634141 0.311117 -0.427049 -0.691312 0.541126 0.410715 0.224499 -0.015017 0.487659 0.362454 0.705231 -1.114139 -0.395538 0.544686 0.696495 0.404400 -0.585288 0.413736 -0.834180 -0.313571 0.435514 0.343331 0.071286 0.927617 0.385716 -0.631725 0.044521 0.334791 0.494142 0.071210 -0.009747 -0.783627 -0.031578 -0.216151 -1.359892 0.409304 -1.233709 -0.280202 -1.712710 -1.474292 0.368703 -0.320214 0.019403 1.000111 0.509910 -0.149574 -0.740501 -0.561892 0.762953 -0.680096 0.312471 -0.261895 -1.744389 0.773156 0.685981 -0.050200 -0.096260 1.584221 -0.099633 0.949858 0.236333 -0.089677 0.036112 0.236715 -1.333622 0.373279 -1.512745 0.141012 -0.216736 0.416796 -1.378486 0.215048 -0.071940 1.071853 -0.001973 0.273619 -0.026110 -0.340525 -0.433413 0.489427 -0.429760 0.488721 0.767797 0.311873 -0.070554 -0.616284 -0.484207 -0.802071 1.399433 0.061570
FuncCall -0.578380 -1.489365 0.583532 0.687446 0.594430 -0.170358 1.238332 -0.047988 -0.158262 0.341295 -0.218247 -0.615580 -1.025277 -1.180613 -0.126686 -1.927464 0.691858 0.466647 0.918246 1.112692 -1.705222 1.069763 -0.071125 -0.945526 -0.210169 -0.750893 0.620307 -2.722740 1.226612 0.345466 -1.379469 -1.280640 -0.644094 0.087754 1.320791 -0.120812 0.795761 -2.351318 -0.714465 1.256366 0.324992 -0.141266 1.511666 -0.100531 0.624236 0.513352 -0.006814 -0.802170 1.949931 0.017982 -1.141296 0.235725 -0.555590 -1.013399 -0.216297 0.306144 0.731163 -0.786401 0.205364 2.287561 -1.307126 -0.919324 1.305627 -0.840279 -0.827412 -0.103770 0.411940 -1.370216 0.480058 -1.162043 0.850529 -1.219884 1.571140 -0.238485 0.260237 0.774232 -0.161696 0.083750 0.156698 0.595502 0.288509 0.215704 -0.846483 -1.496504 -0.534123 0.142349 -1.382306 0.595243 0.083527 0.182898 -0.961739 -2.000516 -0.378987 -1.406540 -1.177837 0.638422 1.675473 -0.133770 -1.447987 0.331133
Compound 0.213800 -2.163437 0.666340 1.835733 0.666816 0.294716 1.851328 0.586759 -0.991359 0.887677 -0.956968 -0.929242 -0.163306 -0.864592 -0.036871 -3.327847 2.157092 0.107698 0.243405 0.747729 -0.475704 1.220249 1.605686 -0.253214 1.053252 -1.369922 -0.090539 -4.023215 0.780252 0.439047 -0.500156 -2.589928 0.240888 -0.384582 1.551434 -0.475964 0.772153 -2.265034 -0.021065 1.200772 -0.259799 0.220577 1.904632 -0.950162 0.233161 0.371418 0.397327 0.134175 0.906500 -0.388668 -0.302813 -0.684623 0.104564 -0.616105 -0.064413 0.311609 0.744281 -0.576315 -0.547521 1.460779 -1.236598 -1.252466 2.461162 -1.161719 -1.358839 -0.273978 1.275346 -0.346374 1.381111 -0.758692 2.002947 -1.208105 0.951485 -0.018481 -0.225704 1.884920 0.011298 1.382347 0.276165 1.753741 0.388961 -0.376515 -0.794108 -1.414441 0.846263 1.250634 -0.560575 1.547235 1.051543 -0.158044 0.796717 -2.897010 -0.877057 -0.096701 -1.122895 0.681632 2.849890 0.225226 -0.790827 0.619031
IdentifierType -2.135942 -1.994554 -2.859260 0.819767 -1.270424 2.737229 0.840015 -5.344792 -0.663246 -0.363168 -0.990239 -0.308735 0.846671 -4.693200 1.349025 -4.359628 2.148707 -0.715789 1.522436 -2.565738 5.619292 1.877579 2.533722 -1.000202 1.124397 -0.600408 -4.137894 -5.070686 0.195276 -3.765406 1.969850 -4.332952 0.700360 -1.035844 0.839660 1.065145 -0.774820 -1.943174 1.774147 1.023880 -0.428761 -0.290249 -1.825766 2.056457 -0.422740 -0.327176 -4.754815 -3.635085 0.844001 2.537887 0.081813 -2.204407 2.201935 5.526250 0.931594 3.501749 2.138138 -1.791847 -0.284761 -2.959959 -4.111570 2.966852 0.396759 -1.029802 -2.665938 -3.463923 2.397067 2.657124 3.490850 3.659561 5.325794 -1.925087 1.420334 0.448552 -0.536373 1.012821 1.730434 -2.430698 -0.104835 1.806316 0.620241 -2.567678 -0.468874 2.444173 1.589072 2.419911 -3.945215 -0.584047 1.740530 1.777895 0.306674 -0.243849 1.983602 0.396296 -0.826414 3.377259 -2.692436 -3.553538 3.977340 4.922684
If -0.300529 -2.271720 0.434170 1.042351 0.660731 0.650299 1.607810 0.106514 -0.685807 0.481869 -0.658797 -1.109989 0.130547 -1.241800 0.152775 -2.439160 1.605312 0.210271 0.378500 0.593535 -0.265837 1.323578 0.485002 -0.127523 0.647647 -0.404294 0.073828 -3.072218 1.112239 0.860309 -1.342681 -2.473708 -0.507010 -0.095969 2.226961 -0.712743 0.757640 -2.124940 0.334935 1.123177 -0.244110 -0.355503 0.933185 -0.435018 -0.311560 0.355924 -0.199331 -0.961910 1.303187 -0.503917 -0.417011 -0.599696 -0.084130 -0.692143 0.221425 0.722007 0.722388 -0.530943 -0.435214 0.899231 -1.698784 -0.769986 1.548480 -1.199042 -1.610878 -1.023798 0.642849 -0.032234 1.330107 -0.418736 2.525084 -1.210144 1.890456 0.240576 -0.372641 1.629094 -0.217555 1.059802 -0.072623 1.897333 0.606140 -0.622675 -0.422220 -1.220333 0.294746 1.120637 -1.253770 0.566103 0.855995 -0.005492 0.183582 -2.002558 -0.103592 -0.656627 -0.991950 1.397456 1.747939 -0.411976 -0.313472 1.056625
For -0.239903 -2.479650 0.677646 1.279420 1.619706 -0.295356 2.452169 -0.239631 -0.341914 0.616440 -0.809112 0.200573 -1.438580 -0.350628 -0.411857 -3.548527 2.101234 0.830589 0.691889 0.601840 -1.917154 1.525302 1.346364 -0.230011 0.250461 -2.038014 0.109438 -4.184672 0.445408 -0.149223 -1.240429 -2.314012 0.671354 0.094872 1.178940 -0.475046 1.626380 -3.000392 -0.451084 1.641318 -0.084211 0.754428 2.467668 -0.634112 0.516670 0.794851 -0.148816 -1.136971 1.615849 0.410414 -0.763518 0.245900 -0.274101 -0.548707 -0.508748 0.498271 1.811315 -0.209484 -0.039799 3.017903 -1.485984 -0.827923 2.645675 -1.640114 -1.154512 -0.112633 0.538080 -1.080754 1.617467 -0.965070 0.847087 -1.286582 1.293830 -0.034515 0.002720 1.288494 0.269369 0.495236 0.545782 1.859981 0.538748 -1.047869 -0.687555 -1.476215 0.278929 1.003063 -0.199138 1.325521 -0.188464 0.133912 -0.228414 -3.093428 -0.281870 -0.803785 -1.572989 0.473506 3.137908 -0.098174 -1.578640 0.568133
ArrayDecl -0.121291 -1.184260 -0.075329 0.358978 0.114772 1.053895 0.864048 -0.106663 -0.639832 0.242096 -1.132790 -0.413313 -0.948388 -1.530523 0.111472 -1.504590 0.405611 -0.383089 -0.267365 0.303484 -0.610899 1.163559 0.237268 -1.559819 0.743518 0.316703 -1.491744 -1.090193 0.881878 -1.014714 1.020949 -1.617289 -0.098461 -0.571977 0.778631 0.250021 -0.168846 -1.315039 0.132452 0.216239 -0.123460 -0.722361 0.682614 -0.659688 -1.629637 0.454908 -0.266186 -0.421856 -0.052768 -0.521343 -0.713309 -0.566037 0.262988 0.214384 0.935037 -0.087523 0.335002 -0.910759 -0.076575 0.338668 -0.267233 -0.083188 -0.790570 0.257844 -0.050353 -1.106945 1.237630 1.173741 0.169328 0.714356 1.449484 -0.338243 0.457866 0.146471 0.357324 0.495249 -0.171874 -1.046310 -1.162943 -0.135750 0.349096 1.088796 0.324224 0.074162 -0.169265 0.438117 -0.512330 -0.226834 -0.025147 0.231414 0.019660 -1.133840 -0.173989 0.085316 0.112145 0.255368 0.510982 -0.342461 -0.050930 0.628190
FuncDecl -0.413359 -0.767826 0.121577 0.906898 1.256438 0.030264 0.738156 -0.127577 -0.528097 0.153044 0.260839 0.347470 -1.344812 0.559244 0.290807 -1.606646 0.115970 0.957306 1.272385 0.326589 -1.105407 1.913962 0.601722 -1.444275 -0.586148 -1.189172 -0.619927 -1.021304 -0.169199 -1.513228 -1.041271 -0.993043 0.145106 -1.233186 0.669827 0.403516 1.300712 -1.222739 0.038506 1.117640 0.593819 -0.277392 0.891950 0.368366 -0.838906 0.298872 0.379739 0.454869 0.849295 0.307900 -0.840447 -0.983952 0.076014 -0.751488 0.711351 -0.494246 1.249871 -0.275123 -0.271495 0.560298 -0.145307 0.466768 0.794092 -0.449666 -0.988825 -0.492051 0.113449 -0.887914 0.551149 0.175886 1.000341 -0.197562 0.347906 -0.344766 1.546734 -0.980746 0.316973 -0.983841 -0.033786 -0.036822 1.991910 0.673251 0.615972 -1.430214 0.251484 -0.715522 0.342179 0.069247 -0.152320 0.360037 -0.882919 -0.303114 -0.473035 -0.885600 0.199479 -0.465396 0.602396 0.725865 -2.278587 -0.477887
FuncDef -0.464400 0.341249 0.615615 -0.729827 1.217595 0.150212 -1.529582 1.380923 0.323594 -0.207489 1.585945 -0.521817 -0.323543 1.622124 0.855853 0.433167 -0.688170 1.225547 1.999728 1.384164 -1.477602 0.863847 -2.176940 -1.084259 -0.875486 -1.404624 1.421913 -0.275290 0.386009 0.379600 -2.695284 0.569863 -1.827002 -0.044145 2.314550 -0.097523 2.206132 -1.292725 -1.721928 0.961817 -0.111545 -1.962284 -0.817745 -0.080406 -0.727380 -0.210661 1.937806 2.137371 -0.354828 -1.791707 -1.496912 -0.977546 -0.716024 -2.775702 0.272854 -1.934913 -0.173511 0.128821 0.053407 1.572248 0.911888 -1.901223 -0.511257 -0.778701 -0.947437 1.002898 -1.405783 -1.469655 0.292909 -1.293158 1.361608 -0.437442 1.332618 -0.487694 0.796270 -1.269765 0.182250 1.081176 0.720583 -0.198397 1.202168 0.658087 -0.600959 -1.683221 -0.168576 -0.192441 0.886410 -1.634098 -0.385220 -0.497793 -1.394316 -0.274564 -1.480469 -3.086468 0.145667 -1.783517 1.783752 0.578708 -1.554800 -1.546085
StructRef 0.409414 -0.589934 0.847474 -0.734962 0.578059 0.667822 0.267122 -0.785509 -0.566644 0.474311 -0.030856 -2.192023 0.273645 -0.848659 -0.285164 -0.032224 -0.893427 -0.785647 0.844305 0.476919 0.121806 -1.082732 0.904168 0.061654 -0.130238 0.419409 -0.683358 -0.615898 0.977530 -1.580113 0.982522 0.622838 -0.920123 0.844685 0.574955 0.649326 -1.036266 1.082877 0.370872 -0.543021 1.352257 0.755972 -0.300616 1.075632 -1.325069 -0.144222 -0.006098 -0.858478 -0.303124 0.583079 0.394233 -0.297928 -0.055644 0.073387 0.134414 0.388706 -0.809575 0.049085 0.014132 -0.924493 -0.257512 0.143520 -0.647545 0.638197 -0.227846 -0.597194 -0.246411 -0.788006 0.593170 -1.256559 -0.055624 0.048414 1.176766 -0.165455 0.388352 1.185355 -1.533431 0.104047 0.582132 0.268295 -0.267534 0.369804 0.846983 1.004802 -0.098798 1.175588 -0.586562 0.470960 0.134958 0.504895 0.147094 0.017376 0.158289 -0.108680 -0.412017 -0.216131 -1.098618 -0.510063 0.514009 0.279638
Return -0.852600 -2.695744 0.489150 2.150893 0.098865 0.852063 1.700775 -0.251019 -1.523227 1.330431 -0.832641 -1.103032 -1.473235 -1.740270 -0.532927 -2.963487 1.555890 -0.201906 1.084845 1.387249 -1.571804 1.570455 -0.289348 -1.185735 -0.600253 -1.089038 0.244550 -4.423188 1.953836 0.090349 -1.868474 -2.067319 -1.215579 -0.541594 1.196509 -0.540839 0.511651 -3.352690 -0.450938 1.266746 0.015456 0.146718 2.394785 -0.519954 0.669247 1.188047 -0.026282 -0.750416 1.997297 -0.463017 -1.549319 0.204477 -1.163816 -0.712978 0.360889 0.853641 1.253812 -1.514515 0.062778 1.810751 -1.556988 -1.000641 2.623426 -0.472337 -1.823531 -0.571082 1.538389 -1.050421 1.467033 -0.749635 2.405471 -2.720093 2.231348 0.137602 0.365307 1.564108 -0.658491 0.704769 -0.480386 0.686132 0.738285 0.870839 -1.284752 -2.437466 -0.722756 0.312221 -1.959890 0.999333 0.697667 0.218052 -1.130255 -2.521333 -0.079190 -1.025572 -1.474981 1.562587 2.491187 0.266966 -1.849575 -0.033474
PtrDecl -0.290884 -0.650687 -0.084205 -0.727631 0.273168 -0.517512 -0.282427 0.810994 0.074148 -0.056475 1.251372 0.340061 0.085040 -0.057824 0.682421 -0.418291 -1.215907 0.435820 0.922868 1.402041 -0.269835 1.914292 0.207299 -0.324047 -0.409933 0.467732 -0.166272 1.110407 0.173175 0.998827 -1.507076 0.294324 -0.845286 0.371010 1.042150 -0.522995 0.934750 0.050756 0.663542 0.084080 0.323427 -1.118002 -0.032104 0.440613 -0.263147 -0.345013 0.289156 -0.929466 1.299443 0.097560 -0.384922 -0.191305 -1.393330 -1.531747 -0.369414 0.728501 0.924925 -0.242478 0.778379 0.844701 -0.909531 0.137188 -0.404282 -0.584534 -0.095033 -0.485757 -0.499456 -0.098434 -0.851703 -0.857391 -0.512085 0.457939 0.525457 -0.072964 -0.005762 -0.599200 -0.328484 -0.648072 0.499405 -0.317899 0.852359 0.722160 0.334830 -0.980356 -0.377737 -0.424306 -1.457229 -0.540279 -0.230909 -0.196525 -1.839645 0.349469 0.046439 -1.626753 0.688776 0.289850 -0.267689 -1.095959 -0.968555 0.212262
root -1.980352 0.630852 1.797422 -2.005421 3.245780 0.092845 -0.746035 2.001124 0.143709 -0.287908 2.833080 -0.081105 -0.324563 1.864303 1.925849 -0.126149 -1.027217 3.741852 3.524222 1.847331 -2.893136 1.160296 -2.977075 -0.565683 -0.782348 -3.079826 3.049020 -2.090891 1.106938 0.957330 -5.114564 -0.579878 -3.440668 -1.050808 6.481177 -0.013746 4.762531 -2.445507 -1.866908 3.170720 0.170601 -3.812306 -1.636586 0.415219 -2.952184 0.079966 2.934677 4.186610 0.429618 -3.795668 -1.276904 -2.608120 -0.796451 -6.059919 0.817865 -3.232303 -0.915363 0.551636 -0.041010 2.428573 0.260425 -2.643975 -0.503443 -0.945427 -3.176346 0.869853 -2.481034 -3.052344 1.975209 -2.982207 4.521615 -0.481682 2.565569 -0.439060 1.383875 -2.054210 -0.097099 2.347239 1.716553 1.214692 3.270202 0.910880 0.077742 -3.703245 -0.088236 -1.169813 1.759357 -2.294991 0.200122 -1.094880 -1.460925 -1.132993 -3.452397 -5.325590 0.649002 -2.351084 3.995934 2.369884 -2.793821 -2.334074
Typename 0.667574 1.412384 -0.886592 -0.356878 -1.238241 0.805276 -2.478485 1.128833 -0.388934 0.422109 2.938799 0.241543 1.473331 -0.482673 0.935212 0.832497 -1.408474 -0.609291 0.100771 0.607150 2.334933 -1.134302 1.708239 1.441280 1.030677 1.256096 -0.507594 2.378546 -0.251647 0.823227 -0.605375 1.613578 -1.163403 1.678663 0.732545 0.114630 0.092014 1.811671 1.811124 0.217687 0.584092 -0.980273 -1.690154 0.908575 -0.343808 -0.667067 -0.036677 0.024394 0.137229 -0.515346 1.084611 -0.230331 -0.256458 -0.700828 0.281423 0.072374 -1.768806 0.560927 1.576099 -2.322860 0.830421 0.199277 -1.057508 0.726314 0.092883 -0.201888 -0.813584 0.655580 -1.014098 0.244757 -1.145124 0.911363 -1.045608 -1.055691 -0.730975 -1.033926 -2.003497 0.331718 1.236541 0.762733 -1.094109 0.686382 0.633197 0.777357 0.215853 0.827152 -1.165924 0.527203 0.144791 -0.351028 -1.085919 2.227800 1.715834 0.485864 1.637282 -0.423717 -2.448252 -0.664450 1.602522 0.584224
ParamList -0.420680 -1.991815 1.463142 -1.705759 0.582473 -0.196767 -0.208722 0.409026 0.671918 -0.131928 -0.184197 0.245254 -0.193795 -0.487771 -0.562150 -1.740591 -0.956219 -0.464264 1.127818 2.131452 -0.505221 3.083083 0.376837 -1.193896 -0.625988 -0.113414 -1.376773 0.256895 1.978522 0.738684 -0.862922 0.066671 -1.079556 0.684927 0.951365 -0.506385 0.951249 -1.655792 -0.343516 -1.043740 0.372395 -0.706698 -0.355057 -0.072111 0.528220 -0.854068 0.744616 -2.595619 2.566602 1.654603 -1.869114 0.089499 -1.618899 -1.501001 -0.958586 0.851114 1.477263 -0.248812 1.250018 2.047857 -0.977349 -0.742436 0.285577 -0.429276 0.070127 -0.512377 -0.262797 -0.829217 -1.172155 -1.400273 -0.281491 1.084566 1.152030 -0.184173 1.080135 -0.547486 0.466464 -0.950086 0.364921 -0.587071 1.217598 0.756977 -0.370202 -0.795553 -1.536435 1.002975 -1.532325 0.085759 -0.351257 -0.287240 -1.924213 -1.852722 0.482480 -2.645859 1.671778 -0.170451 -0.455507 -2.384516 -1.087933 0.830074
Break 0.650151 -0.779164 -0.415435 0.203670 -0.773841 2.213040 0.047389 0.401232 -0.737023 0.016697 0.746073 -1.645582 1.172611 -2.227108 1.136890 0.012568 0.367083 -0.892764 -1.095004 0.217515 1.030670 -0.100792 0.040040 -0.737482 1.787741 1.565429 -0.627655 -1.083155 0.814722 -0.699073 -0.026483 -1.780908 -1.204236 0.262536 2.117281 -0.170964 -1.043529 -1.353941 0.972508 0.806110 -0.241029 -0.922448 -0.544463 0.089636 -2.306764 -0.061702 -0.573491 0.195927 -0.506394 -1.349685 0.107206 0.383248 0.361871 -0.698849 0.982132 -0.168712 -0.972547 -0.304480 -0.566251 -0.967226 -0.730140 -0.593102 -0.593005 -0.080607 -0.976555 -1.701354 0.887773 1.118720 0.503227 0.871601 2.627646 -1.016961 1.379550 0.159080 -0.435955 0.398469 -1.417989 0.040017 -0.475107 0.963956 -0.170483 0.559871 0.179146 0.262261 1.063467 0.697677 -1.307929 -0.465675 0.727951 0.443191 -0.057794 -0.070365 1.089723 0.024770 -0.268188 1.141415 -0.691308 -0.693218 1.763421 1.498171
Case 0.285017 -0.662524 -0.557182 0.075318 -1.299143 2.775669 -0.196252 0.051880 -0.927892 0.340107 1.564348 -2.166546 0.725917 -3.246424 1.380105 0.467057 -0.499377 -0.866169 -0.535536 0.911261 0.753787 0.078010 -0.546958 -1.562733 1.273635 2.165299 -0.649518 -1.203335 1.716976 -1.342618 -0.664091 -1.220717 -2.481776 0.412478 2.504313 0.265983 -1.353631 -1.599372 1.076841 1.206943 0.360743 -1.296259 -0.548115 0.528338 -2.799461 -0.034950 -0.801642 0.105098 0.318891 -1.431538 -0.623825 0.790009 -0.153236 -1.002009 1.294290 -0.072333 -1.349750 -0.522579 0.349297 -0.998795 -0.989736 -0.660676 -1.051632 0.479767 -1.224876 -2.071929 1.048622 0.423236 0.172889 0.695663 3.162442 -1.794263 2.103220 -0.033943 -0.115727 -0.024918 -2.148015 -0.695295 -0.827923 0.373895 0.186409 1.844961 -0.079056 -0.247006 0.329589 0.223627 -2.479919 -0.924377 0.616296 0.780071 -1.300575 0.225605 1.342320 -0.714673 -0.287056 1.654101 -1.433263 -0.817511 1.577512 1.293500
Struct 0.139213 -1.463869 1.867525 -0.533442 2.598276 -0.468558 0.041338 -0.042961 0.146669 -0.744565 -0.997690 -0.536349 -1.355772 0.147547 -0.208192 -2.256661 0.216245 2.028554 1.813278 1.001182 -2.208445 2.700947 0.302097 -2.392400 -0.362985 -0.828079 -0.249718 -1.677892 1.353359 -0.923789 0.253481 -0.609620 0.209796 -1.378286 0.652027 0.054656 1.480143 -2.733637 -1.674680 1.057181 1.036108 -0.826568 0.658613 -0.423601 -0.988536 -0.411358 0.863859 0.813676 1.104481 0.636849 -2.383192 -0.495755 -0.477224 -1.170912 -0.098319 -0.421089 0.923127 -0.758629 -0.002631 2.354186 0.332661 -0.812998 0.862951 -0.611062 -0.750388 -0.732012 -0.005474 -1.785480 1.128935 -1.569462 1.877614 0.694817 0.914618 -0.688990 2.508963 -1.528047 1.184782 -1.536746 -0.026831 -0.943495 2.644752 1.531724 0.638283 -2.372506 -0.407291 -0.578598 -0.413310 -0.263035 0.147326 0.767529 -1.058152 -2.786869 -1.912990 -2.601146 1.281480 -1.322533 0.936709 0.092781 -2.352653 -0.925168
Cast 1.481418 0.622052 0.076025 -0.625428 -1.672842 0.992160 -2.446522 1.969742 -0.657930 0.263496 1.203536 -1.438067 1.602621 -1.704154 0.195851 1.001808 -1.357230 -1.585384 -0.163691 1.462666 1.467736 -1.564336 0.646039 0.416797 0.807399 1.716177 -0.904826 2.354002 1.179148 1.637943 0.559204 2.338262 -1.790803 2.021348 0.011800 0.772718 -1.064551 1.146468 0.943449 -0.882906 0.439855 -0.659570 -1.413197 0.316804 0.726026 -0.472143 0.255897 -0.123125 0.167674 0.242942 0.144321 0.099602 -0.384403 -0.584353 -0.316128 -0.158464 -2.105227 0.058198 1.867570 -1.056950 1.404250 -1.261069 -1.384796 0.803929 1.128842 -0.338559 -0.198371 0.006908 -1.869077 -0.531785 -1.678252 0.694499 -1.183868 -1.224189 -0.497897 -0.808698 -1.521859 0.086643 0.175986 -0.173887 -1.537256 2.028079 -0.290522 1.040891 -0.361493 2.055506 -2.106614 0.663047 -0.252497 -0.910127 -0.949987 0.417823 0.779445 0.560362 1.990259 -0.736773 -1.960328 -1.121414 2.147523 0.782946
While -0.107013 -2.233964 1.444432 1.372139 1.121660 0.109445 1.980192 0.313505 -0.490632 0.269590 -0.832845 -1.749261 -0.619457 -0.829821 -0.568857 -2.699320 0.641685 1.235074 0.393810 0.457089 -1.729509 0.864487 0.849643 -0.738568 0.561170 -0.555843 0.426186 -2.540931 2.013186 0.243450 -0.475014 -0.366548 -1.040379 -0.174601 1.455726 0.876924 1.406716 -1.424087 -1.052436 1.713596 0.852984 0.064610 1.202409 -0.276031 0.862672 -0.026267 0.830322 -0.906856 2.403896 0.537557 -1.422739 -0.124003 0.182986 -1.877449 0.213720 0.630278 0.216353 0.313367 0.242207 1.594984 -0.077543 -0.846921 1.260896 -0.818449 -0.623076 -0.800065 -0.600802 -1.752546 0.842041 -1.829482 1.563190 -0.627073 1.604753 -0.975968 1.512531 0.271008 0.461064 0.629528 0.341310 0.957621 1.939918 1.663210 0.185197 -1.630505 -0.656241 1.632905 -1.552155 0.471821 0.131950 -0.323850 -0.275912 -2.681901 -1.700261 -1.552714 -0.519164 1.619029 1.388968 0.378863 -1.698174 -0.571489
InitList -0.066197 -3.786117 0.791251 2.697906 1.446683 1.795591 2.966035 1.256731 -1.961282 0.731465 -2.061378 -1.186949 -2.288477 -1.891044 -0.201859 -6.164402 2.161669 0.256562 -0.181260 1.529600 -2.176373 2.392960 1.754377 -2.080798 2.131931 -1.895502 -1.979288 -5.637130 2.244205 -0.377996 0.870046 -3.645905 -0.067392 -1.003237 2.353152 0.494548 2.019965 -4.552025 -1.142701 1.839628 -0.167076 -0.932710 2.680031 -1.666883 -0.502532 1.174687 0.915482 0.036004 0.980040 -1.227202 -1.857545 -1.276771 -0.164653 -1.995415 0.795255 -0.984592 0.839188 -1.206530 -0.348145 3.319594 -0.585691 -1.719338 1.654725 -1.233190 -1.103408 -0.399928 1.265762 -0.117534 1.920005 -1.011660 2.873957 -1.571888 1.127558 -0.976953 0.868873 1.900043 -0.079210 1.144418 -0.078380 1.290709 1.667135 1.856870 -0.360139 -2.203238 0.633322 2.630608 -1.184888 1.383203 0.858105 -0.447108 0.299431 -5.189963 -1.309288 -1.221776 -0.768930 0.234078 4.496773 0.689790 -1.469425 0.552081
DoWhile -0.526953 -1.372687 0.071104 -0.090379 0.946996 0.222347 -0.525760 -0.989296 -0.832928 -0.267155 -0.271445 -0.352210 -0.051749 0.377293 -0.464496 -1.278943 0.021205 0.070683 1.515119 0.120779 -0.801771 0.435043 0.824517 -1.090972 -1.254465 -0.913969 0.218742 -1.942907 1.158134 -0.699883 0.063713 0.335127 -0.621136 -1.018233 0.411793 0.547116 0.574875 -0.989387 -0.580348 0.052913 0.834122 0.172491 -0.105921 0.644419 -0.508040 -0.440037 0.901849 0.683879 0.730256 0.966321 -0.230291 -0.222097 -0.182097 -0.243354 -0.654090 -0.646585 0.430795 -0.081004 -0.853486 0.535092 -0.353462 -0.275462 1.409571 0.454608 -0.363366 -0.775319 0.362516 -1.458217 1.341132 -1.163827 0.448150 -0.219769 0.343339 -0.162764 1.688838 -0.639147 0.554525 -0.564828 0.491816 0.503430 0.819782 -0.246129 0.552275 -1.280652 -0.082984 0.289403 0.820898 0.244247 -0.000913 -0.190273 -0.525109 -0.252898 -0.292947 -1.121035 0.648945 -0.345182 1.119159 0.339155 -0.950035 0.000010
Switch -0.029125 -0.137818 -0.236641 0.282612 0.715324 -0.383152 -0.224543 0.531758 -0.095951 -0.116234 -0.595547 -0.811580 0.123428 0.402322 0.679119 -0.125967 -0.104750 0.966575 0.845008 0.256375 -0.801247 1.145616 0.011358 -0.605489 -0.651723 0.013701 0.365128 -0.642698 0.014543 0.714744 -0.207111 -0.248861 0.267824 -0.694164 0.350475 -0.125341 0.556953 -0.222083 -0.496641 0.088796 0.383455 -1.258323 0.161063 -0.685376 -0.432569 -0.548502 0.441382 0.648054 0.302254 -0.433290 -0.159522 -0.117673 -0.100181 0.070825 -0.239843 -0.177829 0.270894 -0.686732 0.070123 0.387912 -0.504071 -0.132154 -0.561636 -0.820411 -0.219542 -0.027539 -0.402888 -0.416782 0.514544 -0.393062 0.120596 -0.069661 0.830215 -0.307984 0.254703 0.069670 0.417026 -0.596051 0.039041 0.112464 -0.013093 -0.833451 -0.498114 -0.799739 0.386000 -0.291575 -0.212139 -0.708080 0.182385 0.127060 -0.282105 0.015488 -0.818202 -0.430569 0.011841 -0.223843 1.002707 -0.171854 -0.033760 -0.300531
Continue -1.071599 -0.413373 -0.591554 -0.005260 -0.261800 0.772504 0.876452 -0.967928 -0.179970 0.120850 0.191254 0.136450 1.022640 -0.582953 0.400741 0.106381 0.087405 -0.216439 -0.043568 -1.195316 1.623049 -0.019171 -0.403110 1.114065 -0.021269 -0.264436 -0.308943 -1.223762 -0.675075 -0.452499 -1.068760 -1.736788 -0.799625 0.218091 1.580519 -0.035802 0.087537 0.250383 1.254768 0.610325 -0.514137 -0.714664 -1.679321 0.799969 -0.915841 -0.271690 -1.285265 -1.264252 0.179561 -0.342846 1.493783 -0.636513 0.469220 0.571018 0.929772 1.090772 0.401418 0.183910 -0.946393 -1.768571 -1.935168 1.010273 -0.536041 -0.722502 -1.805484 -0.494786 -0.160817 1.349380 1.002396 1.178589 1.342590 -0.544863 1.645488 0.404638 -0.917959 0.928001 -0.361075 0.454224 0.160858 1.866479 -0.101126 -2.294226 0.165489 0.763511 0.643426 0.719523 0.158463 -0.916323 0.320843 0.108993 0.477531 1.337501 1.057099 0.467755 -1.153957 1.511955 -0.564662 -0.510126 1.686314 1.433918
TernaryOp 0.068243 0.143811 0.230071 -0.054064 -0.025908 0.275658 -0.231016 -0.286772 -0.397115 -0.532790 -0.326530 -0.534644 -0.296752 -0.020086 -0.453299 -0.196185 0.390298 -0.150748 0.161128 0.046254 -0.244600 -0.933101 -0.091763 -0.411821 0.472758 -0.091757 -0.108523 0.049195 0.142218 -0.185022 0.699737 0.360220 -0.157171 -0.410149 -0.218739 0.380584 0.086764 -0.261332 -0.476549 -0.143914 0.291514 0.705953 0.072520 0.260625 -0.063240 0.213210 0.144632 0.440233 -0.503437 -0.078130 -0.259551 -0.486832 0.451059 0.213488 -0.165725 -0.779990 -0.660116 -0.350778 -0.397496 0.124708 0.547372 -0.459541 0.085955 0.799143 0.937900 -0.097628 0.276899 -0.225700 -0.310411 -0.230195 0.170711 -0.037171 -0.216992 0.385625 0.441697 0.557784 0.333937 0.532143 -0.582406 -0.082922 -0.354642 0.784341 0.340293 0.313349 -0.240399 0.207950 0.295516 0.239713 -0.182276 -0.142073 0.162716 -0.446997 -0.641824 -0.148895 -0.083844 -0.396492 0.378582 0.372375 -0.340625 0.193448
EmptyStatement -0.987409 -0.371375 0.186108 -0.104842 0.390391 0.498570 1.983737 -0.080414 0.354380 -0.014791 0.471254 0.156103 0.240821 -0.461052 0.443173 -0.311109 0.203571 0.671723 -0.704013 -0.614014 0.303950 -0.111797 -0.304531 0.790184 0.566914 -0.277644 -0.108470 -0.441231 -0.342940 -0.120551 -0.982318 -1.256029 -0.614755 0.619350 2.112289 0.307704 0.868310 -0.047015 0.677968 1.358208 -0.522615 -0.631013 -0.840816 0.535697 -0.645312 0.142030 -0.955645 -1.635127 0.994556 -0.068877 0.557472 -0.506064 0.931986 -0.798994 0.904302 0.879854 0.648228 0.850108 -0.386185 -0.381610 -1.090652 0.708205 -0.638986 -0.672374 -0.996627 -0.960851 -0.539880 0.643721 0.554226 0.752811 1.329783 0.174528 0.916849 0.156902 -0.503102 0.020218 -0.115702 0.410319 0.337755 1.787610 0.462571 -0.682631 0.311656 0.753227 0.042404 0.679951 0.093246 -0.754541 -0.221768 -0.124869 0.666606 0.394229 0.108099 -0.191981 -0.667174 1.581218 -0.218271 -0.222870 0.625411 0.532144
DeclList -1.429478 -0.473071 -1.143646 -1.343483 0.743437 0.645477 0.113516 -1.760553 0.380502 -0.548226 0.310817 0.912873 0.016751 -0.009963 -0.063171 0.018596 0.428113 -0.836546 0.474400 -1.232025 -0.025549 -0.106374 -0.100850 0.206830 -0.463531 -0.906660 0.161543 -1.235304 -0.518629 -1.519471 -0.636479 -1.667084 0.037625 -0.375989 1.121284 -1.139230 0.627793 -0.399849 -0.119954 -0.138939 -1.059520 0.288673 0.014394 1.285580 -0.944844 1.191314 0.010208 -1.029304 -0.952820 -0.416104 0.671026 -0.121028 0.233708 -0.141942 0.044624 -0.283591 0.873654 0.400547 -1.078149 -0.296385 -0.719522 1.183705 0.193016 0.292174 -0.860411 -0.652764 0.020452 0.919518 1.521259 0.229532 1.290354 -0.133515 0.642445 1.366781 -0.240225 0.150933 0.280325 0.005975 0.829440 1.082740 -0.421896 -2.014658 0.967835 1.326427 0.154040 -0.057111 1.505375 -0.554004 -0.082374 0.025106 -0.055393 1.279342 0.922174 -0.555389 -0.516620 -0.231985 0.449432 -0.074978 -0.043423 1.140279
Goto -1.019642 -0.540558 -0.283738 -0.659763 0.146663 0.310157 1.129843 -1.267496 0.286683 0.288612 0.263321 0.439319 0.970961 -0.545587 0.622246 0.163409 -0.012532 -0.015300 0.194672 -1.234322 1.469620 0.438113 -0.355379 1.119440 -0.077037 -0.301119 -0.245593 -1.098502 -0.346315 -0.333483 -1.298996 -2.105715 -0.543241 0.364927 1.936966 0.034917 0.087224 0.144789 1.303118 0.631422 -0.552594 -0.656752 -1.740734 0.769520 -1.168848 -0.228735 -1.261517 -1.338578 0.453240 -0.055710 1.445174 -0.832180 0.478378 0.469763 0.836784 1.038364 0.565064 0.301885 -0.824353 -1.380723 -2.047869 1.124668 -0.519508 -1.052311 -2.200645 -0.546027 -0.261062 1.110048 1.095872 0.927450 1.351501 -0.396938 1.456242 0.417079 -0.864605 0.669268 -0.097468 0.036394 0.245740 1.781800 0.261673 -2.569018 0.306186 0.714015 0.747043 0.486762 0.065766 -0.818643 0.344090 0.239312 0.603847 0.956737 1.162531 0.250674 -0.944838 1.092840 -0.662592 -0.777621 1.485322 1.694309
Label -0.415621 -0.411758 1.005611 -0.149047 1.332828 -1.197425 2.821215 0.762000 0.745589 0.615454 0.129791 0.262750 0.175391 0.388904 1.433767 -0.000540 -0.491192 2.319066 -0.000360 -0.214092 -0.336302 1.342524 -1.274410 1.055881 0.020721 -0.304901 0.254583 0.325295 -0.417987 1.273081 -1.963207 -1.339855 -0.277685 0.753520 2.762755 0.846073 0.988752 0.225159 0.847586 1.465920 -0.245972 -1.892375 -1.572924 -0.374654 -1.121257 -0.645507 -0.971629 -1.452652 1.474093 -0.497724 0.878544 -1.358914 0.151623 -0.678975 1.099533 1.441741 0.937617 0.332035 -0.261925 0.634910 -2.027504 0.562955 -1.291789 -2.623619 -1.964355 0.118981 -1.409830 -0.036247 0.458088 0.144204 0.731638 -0.120518 1.439141 -0.581195 -0.866376 0.322247 0.023950 0.166882 -0.006746 1.217131 1.457119 -1.265717 -0.394171 -0.482201 0.586342 -0.175749 -0.666531 -1.781479 -0.478314 0.157155 0.872400 -0.413999 -0.920255 -0.397170 -0.994693 1.258639 0.379841 -0.225440 0.775515 0.129804
Default -1.559793 -0.367289 -1.369984 -0.414014 -0.447325 1.121073 0.583455 -1.339783 -0.381079 -0.432266 0.437226 0.132403 0.508346 -1.242426 0.761625 0.277627 0.240898 -0.290053 0.420033 -0.889864 0.896240 0.525496 0.613458 0.058582 -0.052139 -0.280214 -1.061464 -1.859220 -0.534495 -1.202501 -0.244243 -1.259966 -0.665808 0.099312 1.274455 0.486430 0.434137 0.110660 0.628236 0.553876 -0.194404 -0.586238 -0.275938 0.527276 -0.896099 -0.158224 -1.047724 -1.414043 0.651216 0.227533 1.150267 -0.131225 0.868490 0.772115 0.198838 0.311897 0.574011 0.438191 0.132423 -1.000126 -1.700402 1.279911 -1.043847 -0.011680 -0.676569 -1.160925 -0.117196 1.081623 0.336691 0.814361 0.965343 -0.740087 0.815699 0.417126 -0.419858 -0.099673 0.290322 -0.930702 0.199034 1.893183 -0.381754 -1.384513 -0.401169 1.074367 0.911277 0.847935 0.101678 -0.866955 -0.085231 0.013959 -0.389202 1.015312 0.679706 0.202855 -0.572506 1.375012 -0.168820 -1.110680 1.686592 1.629820
Typedef -0.562128 -0.105244 1.235013 -1.212186 1.479919 -0.338799 0.266487 0.317746 0.648852 -0.096134 0.842262 -0.056268 -0.106259 0.637902 0.627064 -0.032665 -0.111153 1.658140 1.161346 0.184819 -0.787684 -0.213211 -2.378975 0.264551 0.024715 -1.018645 1.505335 -0.449493 0.586261 0.633997 -1.919354 -0.563895 -1.217828 0.416187 2.741649 0.211016 1.467621 -0.734910 -0.909824 1.533972 -0.673760 -1.414677 -1.553290 0.378525 -1.077216 0.220923 0.602944 1.002411 -0.066542 -1.582794 -0.439882 -1.586120 -0.051624 -2.176489 0.704123 -0.772860 -0.118264 0.622330 -0.732346 1.177047 0.080598 -1.028351 -0.525412 -1.266700 -1.650937 0.365205 -0.982297 -0.695374 1.313780 -0.878785 2.099973 -0.169310 0.944132 -0.218416 0.068162 -0.534992 0.344512 1.345024 0.613769 0.761406 1.540051 -0.196272 0.315903 -1.016902 -0.196097 0.102701 0.636263 -1.181062 -0.092781 -0.372122 0.452930 -0.866366 -1.381545 -2.149009 -0.294534 -0.679473 1.333397 0.647213 -0.644123 -0.580716
Enumerator -0.099260 -0.146690 0.686998 -1.684973 -0.046392 0.439605 1.141029 -0.077737 0.040096 -1.230675 0.821105 -0.570297 0.446094 -1.040915 -0.180749 1.231232 -0.128012 -0.011834 -0.144439 0.161052 0.964041 0.307494 0.740170 0.114056 1.211121 0.068938 -1.812094 0.000728 -1.765632 -1.376571 0.776947 -0.958195 -0.513770 1.081802 0.408319 0.409534 0.206347 0.866754 0.976201 0.561646 -0.204603 0.780590 0.252464 0.805539 -0.635930 0.152385 -1.251108 -1.226522 0.367084 1.114663 1.256673 -0.291094 0.767563 -0.140326 -0.249980 0.152951 0.224513 0.997625 0.080626 -0.122039 -0.937152 0.387049 -0.967618 -0.020290 0.130780 -0.694077 0.031158 0.912777 -1.940021 -0.230359 -0.543996 1.079031 -0.388020 0.903021 -0.558169 0.256958 0.356596 -0.580421 -0.259486 1.256617 -0.194456 0.474767 0.472690 1.803447 1.428083 0.894754 0.071440 -0.225073 -0.379952 0.499357 -0.258430 -0.135871 -0.623055 0.121601 -0.589749 -0.029867 -1.169526 -1.051700 1.162739 1.515597
Enum 0.089704 -0.061634 0.191233 -0.465297 0.103875 0.133754 0.318289 0.168161 0.044365 -0.364018 0.187853 -0.254663 0.224184 -0.324689 0.002453 0.475999 -0.032256 -0.009402 0.021164 0.108290 0.126698 -0.012571 0.220355 0.091082 0.249591 0.040383 -0.498740 -0.001311 -0.485160 -0.356189 0.009246 -0.075501 -0.179332 0.399279 0.164743 0.026531 -0.016745 0.347800 0.384829 0.113707 0.078961 0.253401 0.073142 0.346543 -0.277170 -0.050863 -0.323322 -0.372081 0.145917 0.419636 0.445810 -0.008627 0.275022 -0.159489 -0.114320 -0.002114 0.133837 0.383979 0.111430 -0.056025 -0.309921 0.113838 -0.309933 -0.102584 -0.027896 -0.247492 -0.048534 0.061398 -0.525382 -0.077445 -0.164448 0.218393 -0.009832 0.210211 -0.223856 0.006973 0.003577 -0.184038 -0.029311 0.560178 -0.072503 -0.046521 0.031014 0.441966 0.349122 0.272387 0.128945 0.038514 -0.112663 -0.008545 -0.066014 0.058073 -0.142019 0.037730 -0.065139 0.034670 -0.363579 -0.255468 0.334465 0.526662
EnumeratorList 0.135968 -0.127149 0.306952 -0.837465 0.104448 0.185448 0.522056 -0.006940 0.050026 -0.503691 0.412531 -0.182657 0.136788 -0.550325 -0.003408 0.560474 -0.111399 0.250381 -0.031918 0.202062 0.337850 0.114800 0.333833 0.097404 0.528015 0.222181 -0.904719 0.051559 -0.644083 -0.534762 0.318192 -0.128335 -0.226008 0.537950 0.081144 0.165356 0.034107 0.390898 0.573000 0.388438 0.007356 0.382342 0.126256 0.412041 -0.446141 -0.035156 -0.634824 -0.543670 0.275065 0.570589 0.513154 0.012391 0.190371 -0.044804 -0.174345 0.091293 0.122132 0.606925 0.322664 0.104874 -0.480331 0.146736 -0.357102 -0.038487 0.027315 -0.375867 0.073349 0.132268 -0.759669 -0.208506 -0.147944 0.376524 -0.257185 0.314028 -0.337742 -0.008754 0.079763 -0.387165 -0.210902 0.681730 0.051735 0.301305 0.173813 0.566820 0.467738 0.334928 0.004258 -0.100685 -0.269193 0.156843 -0.166406 -0.149852 -0.290882 -0.002718 -0.014618 -0.010020 -0.494774 -0.386843 0.627129 0.682083
Union 0.009678 -0.035473 0.006899 -0.000101 -0.061472 -0.005023 -0.035682 -0.002848 -0.060062 0.010837 0.005122 -0.022740 0.022876 -0.015527 -0.004208 0.019386 0.013972 -0.020832 0.013149 0.012069 0.047275 0.006548 0.013523 0.014515 0.032389 0.046832 -0.019742 0.009371 0.012101 0.055864 0.037017 -0.032428 0.013967 0.013575 -0.021802 0.016382 -0.043331 0.047594 0.017881 -0.029069 -0.030489 -0.013015 0.040305 -0.047572 0.022853 0.005098 0.030754 -0.009918 0.036119 -0.041523 0.059985 -0.026860 -0.019065 0.013307 -0.008266 -0.015474 -0.034204 0.013561 -0.022067 -0.027745 -0.000581 -0.008648 -0.000045 -0.009895 0.025085 0.011348 0.013683 0.040645 -0.058513 -0.006272 -0.046019 -0.001633 -0.059268 -0.004288 0.009992 0.014264 0.006436 0.010216 -0.025238 0.027255 0.011496 0.024420 -0.013441 -0.016686 0.056532 0.037547 -0.017631 0.048013 0.007003 0.013176 0.012476 -0.023854 0.017762 0.063189 0.022949 -0.001575 0.013089 -0.024213 0.028623 0.029442
