43 30
ID -0.580958 -0.310985 -0.812242 0.622755 -0.896003 -0.005520 -0.358259 -0.407225 -0.344409 -0.037476 -0.862212 0.378408 -1.357826 2.379194 0.082165 0.026397 0.604015 -1.290311 0.938488 -0.972390 0.315190 0.339036 -0.970414 -1.246932 0.571828 -0.525688 -0.989850 0.541058 -0.834131 1.179613
BinaryOp 1.883174 1.058562 0.845234 0.499151 0.255191 0.572330 -0.004442 -1.718848 -0.331147 0.141317 -0.324858 0.303730 0.564099 0.944826 0.173597 0.900667 -1.196251 -0.600415 -0.300618 0.237494 1.941916 -0.329531 -0.664119 0.442221 -1.299401 -0.866435 -0.419794 -0.053059 -0.405509 0.067066
Constant 1.322198 0.310189 1.714542 -0.211278 -0.193149 0.583531 -1.267004 -0.826431 -2.325335 -1.661601 -2.015966 -1.102815 -2.954177 2.703183 1.748438 1.571273 1.880161 -1.404650 -0.821035 0.474050 1.273266 -0.657222 -1.798141 0.038168 -1.139409 -0.063878 -0.322733 1.989621 -1.018175 -0.307387
TypeDecl -1.835469 0.642974 0.095558 1.934964 0.442428 -2.142204 1.236267 0.120927 -0.390316 -1.790178 -1.118139 0.861394 -1.104558 -1.450092 0.147947 -0.191018 -0.420250 -0.017030 1.601440 -1.256719 -0.490163 1.200095 0.754374 0.702173 0.711104 -0.643233 0.647712 -0.458164 2.580326 -0.029730
Decl -2.619623 -0.644187 1.344820 -2.366244 3.279376 0.928137 -0.061409 3.445160 -3.014026 -0.645644 0.919982 0.795209 -1.656401 -4.240204 4.922866 0.389709 0.757986 2.240757 -0.097503 0.148649 0.771391 -0.895643 2.894547 3.146072 -0.604179 -2.127846 3.011290 2.260552 6.007565 -3.717333
ArrayRef -0.630070 0.674977 -0.256028 1.001796 -1.484424 -0.235536 -0.533068 -0.349621 -0.779028 -0.049548 -1.377289 0.424251 -0.213561 1.580990 0.153071 1.363307 0.659403 -1.807190 0.759909 -0.226018 0.238301 -0.331788 -0.370438 -1.453469 0.402899 -0.399244 -0.114859 0.787791 0.858571 0.629447
Assignment -0.933342 -0.557715 0.445139 -0.856627 0.449311 1.274434 -0.251025 0.497278 -1.785321 0.120763 1.631392 0.225929 -1.455456 -0.818713 2.908955 0.538831 0.037276 0.303744 -0.648572 0.210926 0.633837 -1.412500 0.175269 0.599969 -0.352741 0.423455 0.713750 0.955562 2.955029 -1.504554
UnaryOp 3.946531 0.369862 0.722480 0.523024 0.453779 1.308710 1.252280 -2.608949 0.633139 0.620820 -0.600387 -0.511030 1.021071 1.304232 -0.337818 1.657714 -0.012147 0.606570 -0.640439 0.612822 1.447485 -0.300918 -1.645853 1.211291 -1.081723 -0.395983 -0.059513 -2.236860 -1.040902 0.660527
ExprList -0.101914 0.797260 -0.443879 1.708105 -0.156847 0.196950 0.103272 -2.255482 -0.171253 -2.066117 -1.719878 -0.528004 -1.707773 2.495129 -1.390278 0.269362 0.699281 -0.722512 -0.409191 0.789694 -0.161702 -0.295735 0.404963 -1.145830 -0.702203 -1.947442 -0.958469 0.363617 -2.447509 1.513467
FuncCall -2.722780 -0.283271 0.083463 -0.855186 2.334908 1.407409 -0.931217 2.125559 -2.450008 -1.390691 1.148901 -0.141662 -2.477124 -3.193701 2.702728 0.262220 1.284982 1.986396 0.204331 0.335318 -0.006646 0.480773 1.912436 3.101913 -0.030163 -2.088030 2.781024 1.761658 3.959065 -2.735872
Compound -1.597689 0.716752 0.214222 -2.229864 2.614112 2.068344 0.722032 2.419954 -4.002745 -0.452350 0.075614 1.865786 -2.937495 -2.638040 3.792523 0.533216 0.645532 1.199939 -1.390417 1.324780 1.463520 -1.335259 0.360065 2.135563 -1.297596 -0.922251 0.965961 3.608048 3.892529 -5.323778
IdentifierType 3.530287 -4.707180 0.077070 2.740101 8.576080 1.264360 -7.621696 -0.023884 -5.967294 3.972015 -4.871910 -3.485879 -0.481659 2.957120 2.279490 4.952804 -1.512485 3.648045 -5.465661 9.573467 8.992878 -0.494985 3.487635 8.554399 -1.555878 -2.422548 0.071394 -1.289806 -0.535485 4.636010
If -0.628098 1.884000 0.559861 -0.723727 3.396210 1.415902 2.328072 1.586774 -3.108016 0.446646 -0.641957 0.862168 -2.209341 -2.282195 1.957849 0.672164 -0.769055 1.996655 -0.503248 1.656528 2.950398 -0.418666 0.971353 2.998317 -1.325001 -2.005689 1.174124 1.886688 2.557625 -3.210886
For -1.901339 0.125639 0.586532 -1.674142 2.651227 3.127064 -1.549333 2.615375 -2.682683 -1.408678 1.991804 1.095930 -1.724161 -3.978416 4.578722 1.928613 1.613282 1.460276 -0.539088 1.229211 1.115359 -0.790747 2.639671 3.285293 -1.253465 -2.031821 4.247354 1.918542 5.108616 -4.070632
ArrayDecl 0.257251 0.493825 2.403306 -0.619034 0.799045 0.065572 0.937025 0.452524 -2.091594 -0.681498 -1.554023 0.226091 -2.943771 0.644110 2.546878 0.262159 -0.229404 0.222615 -0.960606 1.595335 1.384147 -1.921879 -0.037918 0.737047 -1.210168 -1.329756 -1.428774 2.427198 0.324569 -0.223066
FuncDecl -1.205142 -0.993107 1.665159 -1.611582 2.880826 -1.320663 -0.164879 2.728589 -0.916786 -1.717389 -1.085488 0.073728 0.581999 -3.269059 2.501807 0.563533 -0.565643 0.682350 -0.069075 -2.540307 -0.202299 0.294169 1.481956 0.910573 -0.765879 -0.095043 1.513552 2.498106 2.184922 -0.144305
FuncDef -1.220143 -1.751083 -0.261988 1.338551 3.284401 -2.269347 1.284872 -0.249036 1.391697 2.826247 -3.965775 2.340597 2.518690 -5.293908 1.224373 -1.666871 0.557569 -1.633285 3.094873 -5.188310 1.393540 3.328920 -0.968562 -0.048378 0.131767 0.650044 -1.134018 0.614183 -1.084473 -4.173071
StructRef 0.003264 -1.521095 -2.624210 1.278072 -1.371992 -0.639388 1.203186 -0.695527 -1.182015 2.055988 -1.994082 -0.189684 -1.932254 1.684455 0.798250 2.888706 1.420195 -0.386335 1.355164 -1.925814 0.250134 -0.742400 -1.162512 -0.821350 0.298977 -0.799348 -0.859155 0.030424 0.419788 0.760323
Return -4.348757 -0.447384 0.774496 -2.144891 3.340240 0.590433 0.341766 3.331291 -4.140201 -1.532618 0.683265 -0.695652 -4.176568 -3.681424 3.286906 0.902336 1.549092 1.838429 -0.540610 0.456774 0.498793 0.719812 1.938449 1.998922 -0.425177 -2.259634 2.118252 2.916367 6.088257 -4.615246
PtrDecl -1.855118 -0.443511 -0.584968 2.104010 -0.016540 -0.555862 2.128125 -0.610058 0.850164 -1.283555 0.148781 -0.921072 -1.715991 -2.716388 0.879231 -2.473801 -0.766530 2.430754 1.085129 -0.783110 -2.476068 0.742002 0.095789 1.949109 0.732682 -0.542695 0.147267 -0.443486 0.075275 -0.823059
root -3.747749 -3.180664 1.678901 3.345047 5.598753 -4.701648 2.381900 -1.025802 -0.201969 5.156530 -7.662261 3.262871 0.696255 -10.170541 3.166921 -0.652244 2.294666 -4.012082 7.790807 -8.025328 5.837496 8.073524 -0.895111 1.369634 -1.298361 0.300305 0.708040 4.713531 -0.692815 -7.707942
Typename 0.918130 -0.210177 -3.519663 0.954396 -1.603602 2.812631 3.409449 -2.776291 1.901905 -3.822470 -0.270232 -1.609633 -3.108246 2.534534 -2.322628 -0.619174 0.615793 1.322972 -1.293727 -0.705212 -2.637747 -0.101346 -0.204443 0.722828 1.138310 -0.170271 -1.548066 -1.468378 -5.478388 -0.974604
ParamList -3.450239 -1.535184 -0.920726 0.646095 0.510942 0.107935 0.364554 1.025858 -0.685731 -0.132928 0.377244 0.212234 -2.410763 -3.796082 4.646667 -2.876670 0.348209 3.774459 1.577097 -2.045303 -3.191464 -1.203579 2.184801 2.867495 2.880728 -1.118740 0.118827 -1.223031 2.153611 -2.151968
Break 0.752647 1.575653 0.806691 1.366999 2.101760 0.724156 2.070166 -3.323903 -2.104711 0.613968 -0.633486 -0.560052 -5.004423 2.969174 0.230894 1.497136 -0.601371 0.464705 -0.191676 1.760223 3.198364 0.608860 -2.005568 1.503035 -1.217912 -0.948382 -2.015525 0.191705 -1.176657 0.876736
Case -2.184067 0.176079 1.054964 2.643132 2.704240 -0.414642 1.668628 -4.508706 -3.291392 -0.394469 -0.487713 -2.666476 -9.167290 3.224550 1.477573 1.927215 0.745929 0.897525 0.749779 1.076815 3.006972 1.850031 -1.777951 1.965255 -0.452147 -1.238109 -2.312310 0.572945 -0.536767 1.178087
Struct -4.283327 -3.105519 2.497324 -0.254946 2.659307 -2.291284 -2.264819 1.932271 -2.106029 -2.091485 -0.076943 0.583738 -0.060665 -4.787876 4.845449 -1.469993 0.938976 -0.438412 1.883783 -3.466881 -0.214928 1.603309 2.249116 2.079359 -0.298237 0.142760 1.050051 3.507935 3.402017 -2.188838
Cast -1.296142 -2.399678 -3.209017 0.294604 -3.678621 2.253892 0.048375 -1.160335 -1.213505 -2.953154 0.992630 -1.145370 -5.787384 3.584616 0.653200 -1.701059 1.180763 1.129318 0.440195 -0.329190 -2.501633 -0.996634 0.879819 1.149828 2.686483 -1.396184 -2.548399 -1.163732 -3.121199 -1.453091
While -2.794638 -2.667226 1.390686 -2.813466 1.390309 0.516176 0.275119 -0.486142 -1.418491 -0.283843 0.669331 -0.404512 -2.245451 -2.792385 5.118300 -0.398128 0.548878 1.580756 2.002266 -0.772669 1.569256 -0.466428 2.537342 2.121169 -0.648381 -0.642403 1.463552 2.784598 5.563258 -3.028362
InitList 1.395248 -0.807271 4.399038 -2.944946 6.329822 1.847652 1.796423 1.675240 -4.363050 0.933289 -4.190578 1.176414 -4.356898 -2.045851 8.168319 2.724108 3.194451 -0.755444 -0.488481 -0.863961 5.580033 -0.806607 0.649376 3.392092 -3.511580 -3.356777 1.567854 5.362114 3.246950 -5.925825
DoWhile 0.059006 -3.074033 0.481005 -0.497441 1.402012 -1.581353 -1.781219 2.656930 -0.885400 0.630170 1.032257 -0.237018 0.834303 -1.462296 2.068527 0.272986 -0.489780 -0.193461 1.074959 -2.311094 1.962008 0.009495 1.626837 1.393309 0.086479 -0.681210 0.817812 -0.504803 1.181955 -0.082126
Switch -2.023121 0.711643 1.747809 1.350774 0.746020 -0.073764 -1.314599 -0.118539 -0.130232 0.666043 -0.490265 1.001428 1.387698 -1.202755 1.477483 -1.113223 -0.480494 -1.239250 0.785431 0.080840 -0.038364 0.833806 0.367108 0.847489 0.417512 0.350803 0.885425 0.656971 0.160039 0.429538
Continue 2.439464 2.929136 -0.050166 1.119297 2.293214 1.544452 2.923711 -0.216029 -0.684842 1.911103 -1.160822 -0.844994 -1.135952 1.546945 -1.431123 1.696158 -1.269798 1.542263 -0.760521 2.217389 2.803409 -0.752810 -0.487919 1.266444 -0.394689 -0.940169 0.452153 -1.385480 -0.819079 2.297997
TernaryOp 0.180437 -0.755589 -0.258111 0.811696 -0.515781 -1.046925 -1.526279 0.192476 -0.058808 -0.141865 -0.122486 0.797934 -0.373195 0.372334 -0.264075 0.455665 -0.050824 -1.421502 0.432642 -0.941268 1.382105 0.078782 -0.254385 -0.402401 -0.000946 -0.166105 -0.275485 0.551876 0.098641 -0.405650
EmptyStatement 1.661417 1.653918 0.956352 1.191179 2.033742 0.711111 2.610595 -1.648988 0.577200 1.503410 -1.049252 -1.556124 -0.674384 -0.608617 0.424989 0.969612 -0.852615 1.433948 1.059565 1.441782 3.383565 -0.455366 -0.244219 1.450419 -0.674972 -0.878619 1.781062 -0.419310 -0.252909 0.884787
DeclList 1.955718 0.310888 0.500283 1.786201 1.490681 -2.315062 0.548319 -0.460393 0.682794 0.503333 -0.854061 -0.379026 2.428882 0.166751 -0.562647 2.997399 -0.370955 0.407267 -0.827214 -0.188190 1.343865 -1.014462 1.707603 1.472143 -1.025422 -2.665805 0.950421 -2.434502 -0.322213 0.790401
Goto 1.954345 2.534191 0.114989 2.023414 2.551496 0.699190 2.540330 -0.127419 -0.806190 2.557005 -1.390438 -0.710579 -1.024860 1.195773 -0.436254 1.062701 -1.209327 1.217212 -0.375188 1.635943 3.214278 -1.075671 0.526934 2.273014 -0.357999 -1.737834 1.134248 -1.254740 -0.529826 2.596414
Label -0.367963 2.732009 2.101306 2.115350 2.391113 2.887306 3.504860 -0.742079 0.306751 2.733356 -1.992627 -1.110706 -0.731293 -2.939001 1.630450 -1.768874 -0.665518 1.440777 1.987201 1.326532 1.733297 0.583711 0.478867 2.007910 -0.088692 -0.118462 3.160943 2.046233 -0.016785 2.108225
Default 1.229124 0.018842 1.302135 1.300732 2.427084 -0.721444 -0.994310 -0.670514 0.309647 1.963916 -1.627755 -0.713957 -1.925053 0.615817 0.215996 1.377220 -0.448070 1.235735 -0.255120 0.976632 3.109975 0.784248 0.485127 1.566029 -0.245162 -1.506458 0.890957 -1.216087 -0.005005 0.420564
Typedef -1.040053 -2.521195 0.929765 2.352318 2.534219 -1.017597 0.840765 -1.003636 -1.158301 2.705827 -2.273005 0.292220 0.283420 -3.973267 3.013954 -0.833517 1.376048 -2.023108 3.648618 -2.002394 2.750596 2.402299 0.580201 2.107644 -0.114894 -1.304788 1.933993 1.814351 -0.491277 -1.741173
Enumerator -0.822969 1.273953 2.945637 0.079459 2.403546 0.067524 -0.688209 -0.119980 1.373088 0.136085 -1.502100 1.304113 -0.842500 -0.085142 0.731460 1.756357 -2.310252 3.191162 -0.512970 1.655790 0.848302 1.297701 -1.240122 0.240386 -0.055976 -0.608463 -1.862277 -0.018610 -0.781209 -0.633216
Enum -0.390329 0.213777 0.804540 -0.060625 0.496952 0.170294 -0.134207 0.264029 0.309863 0.362303 -0.698276 0.268330 0.137826 0.110618 0.260454 0.315830 -0.574401 1.100079 -0.124833 0.391082 0.558066 0.646988 -0.008975 0.167160 -0.139634 -0.498278 -0.521633 -0.085883 -0.547695 -0.076412
EnumeratorList -0.367068 0.362823 1.268861 -0.041337 1.250369 0.033797 -0.129812 -0.190730 0.442799 0.096179 -0.558046 0.803310 -0.151501 -0.075236 0.367176 0.716329 -1.025765 1.255455 -0.200765 0.730155 0.446069 0.680225 -0.653056 0.276701 -0.175999 -0.073886 -0.893122 -0.304444 -0.536320 -0.102796
Union 0.056121 -0.086646 0.032469 0.078029 -0.028430 0.018638 0.015840 0.012796 -0.001324 0.023544 -0.115353 -0.078359 0.024556 0.090820 0.028561 0.048859 -0.007417 0.047879 -0.018219 0.022138 0.018654 0.059796 -0.017555 -0.007207 0.024859 -0.010203 0.025736 0.049074 0.014415 0.042933
