43 100
ID 0.114137 -0.722533 -0.615650 -0.352800 0.036236 0.241493 -0.584133 0.046497 0.246850 -0.156948 -0.615117 -0.383900 0.893020 -0.391090 -0.607656 0.149730 0.087930 -0.548613 0.298008 -0.331140 -0.068358 0.263768 0.075369 -0.759074 -0.493690 -0.077290 0.774589 0.436203 0.219260 -0.023910 -0.299482 -0.571220 -0.012591 -0.247944 0.199527 -0.302714 0.046597 -0.280457 0.412630 -0.534769 -0.130072 0.017741 -0.381028 0.254322 -0.395109 0.002115 0.240607 0.075334 -0.502446 0.890148 0.265528 0.590163 0.553365 0.465224 0.173415 0.646119 -0.048601 -0.543824 -0.740531 -0.464382 -0.305058 -0.374306 -0.064559 -0.155002 0.160779 -1.028628 0.851450 0.422181 0.132005 0.456321 0.167952 0.489083 0.790617 1.033668 0.141553 0.291154 0.090897 -0.868882 -0.531715 0.178332 -0.863779 -1.294197 0.844755 0.993363 -0.247930 0.076752 -0.186250 -0.080741 0.061839 -0.269720 -0.571132 0.530940 0.186619 0.021342 -0.322989 0.092357 -0.125200 -0.573782 0.143840 0.475197
BinaryOp 0.480957 0.249757 -0.114229 -0.153730 0.019612 0.139202 -0.817623 -0.052094 0.474991 -0.175039 0.700303 0.474744 -0.747767 0.131368 0.466058 -0.119327 0.729385 -0.028253 -0.232040 -0.258925 0.416538 -0.246356 0.416153 -0.271935 1.051771 0.574654 -0.613528 0.506773 -0.073552 -0.561268 -0.394034 -0.232271 0.901386 -0.081018 0.173051 -0.313895 -0.138150 -0.890336 -0.426784 0.303535 -0.096660 -0.280379 -0.009092 0.375874 -0.125417 -0.302315 0.527821 -0.918918 0.040248 -0.707791 -0.490412 0.172825 0.050576 0.260369 0.575423 -0.454864 -0.013970 0.231214 -0.406387 -0.054128 0.214846 0.190913 0.589641 -0.271909 0.408788 0.387008 -0.001262 0.106186 -0.378879 0.620628 1.031015 -0.340649 -0.032553 -0.341084 0.477658 -0.477488 -0.108750 0.294079 -0.280041 0.509112 0.506298 0.283888 -0.405484 -0.097854 -0.482807 -0.403374 0.308659 0.166329 -0.286712 0.610985 0.076437 -0.002684 0.322304 -0.113145 0.679524 0.112097 -0.520986 0.265427 -0.158271 0.740585
Constant -0.928667 -0.390131 -1.668966 0.047555 -0.125858 0.505258 -0.483585 -0.305429 0.234090 0.740729 1.027152 0.424466 0.384912 0.546272 -0.253152 0.566629 -0.056129 0.195708 -0.036836 -0.852859 0.118420 0.249792 0.795525 -1.201238 -1.461819 -0.781715 1.613682 0.505115 0.833844 -0.136117 -0.792791 -0.146406 0.107529 -0.210706 1.033640 1.092982 0.651173 -0.727264 -0.083880 0.027579 -0.336202 -1.060291 -1.355733 0.139430 0.101056 -0.214511 1.217303 -0.011991 0.610807 1.234330 0.642783 0.943469 0.365460 0.742061 0.644880 0.429277 -0.653580 -0.091977 -1.311804 -0.586349 -0.253105 0.369548 1.269742 0.228734 -0.757464 -0.426790 0.525174 -0.613080 1.069512 0.645054 0.353909 0.254206 -0.264532 0.060313 0.965651 -0.852428 -0.330950 -0.879834 0.219614 0.293145 -0.791383 -1.248017 0.242974 0.776377 -0.035179 -1.194595 -0.281610 -0.674854 0.393723 0.344017 -0.238093 1.401162 0.359809 0.179847 -0.012320 0.676923 -0.065124 0.837193 0.853904 -1.045952
TypeDecl 0.376169 -0.509549 0.760329 -0.511870 -0.222068 -0.530733 -0.163418 -0.520178 0.009369 -0.076565 -0.332572 0.600175 -0.215845 -0.692348 0.086245 0.328139 -0.152804 -0.023923 0.454296 0.507802 -0.629041 -0.202467 -0.264676 0.174982 0.789829 -0.166038 -0.239004 0.473693 0.375120 -0.419863 0.582607 1.107532 0.156057 0.225061 -0.864566 0.612605 -0.523977 0.897927 0.389394 -0.074762 0.841844 2.089720 1.317101 -0.211599 -0.146999 -0.006496 -0.515815 0.378619 -0.141401 1.126198 0.489515 0.429804 -0.021122 -0.492131 -0.228753 -0.177097 0.366528 -0.447712 0.500448 0.651136 0.235823 -0.373088 -0.479197 0.320812 0.497595 -0.109515 0.017742 -0.589604 -1.124483 -0.586091 -1.555545 -0.427032 -0.529558 0.213373 0.249401 0.328682 -0.106461 -0.631687 -0.228980 -0.651664 0.161396 1.001633 0.380959 -0.021195 0.200785 -0.355283 -0.816320 1.484770 -0.418847 -0.406577 -0.369429 -1.538268 -0.180703 -0.454935 -0.161094 0.009854 -0.666565 -0.786982 -1.390832 -0.189661
Decl -2.156129 -0.296536 0.028470 0.223549 0.742900 -0.051625 1.246200 -0.261318 0.237495 1.461517 -0.429769 2.063674 -1.865932 -1.281245 0.557463 0.322726 -0.486289 0.121051 1.462122 1.556151 -1.441852 0.446636 -1.047563 0.317804 -2.067595 -2.632733 -1.107135 -1.100492 1.960097 -1.005916 -0.239319 2.306314 -0.122272 0.929667 0.754888 2.083439 -0.045910 1.478507 0.079490 -0.033581 0.456294 0.956881 2.018814 -0.856527 1.397474 1.049255 -0.273042 -0.895124 0.964461 2.147732 0.541441 -1.117341 -0.411246 -0.413605 0.970402 -0.440351 1.053597 0.813494 2.013756 1.387453 -0.275524 0.352509 -0.054864 0.981360 -1.794849 1.330563 -0.277811 -2.967750 -0.295070 -0.919285 -0.691154 -1.111075 -2.611677 -1.800728 -0.426045 -1.262742 -1.775058 -0.446702 1.012193 -0.444564 1.080621 1.629400 -2.483641 -0.392032 -0.375287 -0.869351 -0.482702 1.940189 0.262716 -0.941291 1.022358 -2.276500 -0.798353 -0.027544 0.553252 -0.191452 -0.242300 1.564341 -0.724665 -3.125703
ArrayRef 0.058764 -0.958651 -0.103274 -0.439523 0.123989 0.008516 -0.535031 -0.364342 0.258298 -0.229737 -0.377890 0.039685 0.554280 -0.034641 -0.551208 0.044424 -0.010523 -0.981930 0.423504 0.025181 0.237923 0.237985 -0.391990 -0.359243 -0.523481 -0.136908 0.078780 0.053123 0.461873 -0.126655 -0.247272 -0.175456 -0.198996 -0.085119 -0.107606 -0.252839 -0.323049 -0.319270 0.058039 -0.696983 -0.165843 0.653554 -0.132415 0.570781 0.185618 0.040658 0.372078 -0.287990 -0.379724 0.856784 0.147448 0.075986 0.017057 0.089578 -0.038476 -0.005530 0.482487 0.057607 -0.894194 0.045664 -0.401720 -0.371001 0.694192 -0.183796 -0.243837 -0.348745 0.436122 -0.175327 -0.035071 -0.292019 0.009487 0.008751 0.279301 0.598816 0.093359 0.181541 0.115596 -0.002676 -0.091111 0.228542 -0.064427 -0.897800 0.307415 0.312602 -0.170215 0.352415 0.473850 0.276564 -0.027987 -0.446266 -0.282361 0.072918 0.559794 -0.450125 -0.063711 -0.444740 0.027689 -0.256207 -0.269374 0.612132
Assignment -1.393140 0.178585 -0.276324 0.131360 0.445203 0.001324 0.862251 -0.505121 0.616310 0.674396 0.400624 1.328448 -1.344458 -0.555677 0.142348 -0.057300 -0.165465 0.239387 0.470786 0.767191 -0.420433 0.723600 -0.488440 -0.277500 -1.033062 -0.943235 -0.505895 -0.287446 0.977056 -0.807356 0.111650 0.565996 0.101573 0.663561 0.485974 1.272559 0.453759 0.178012 -0.397223 0.618685 -0.091797 -0.030563 0.651450 -0.415179 0.589035 0.392247 -0.122786 -0.870882 0.673151 0.935680 -0.443027 -0.713918 0.022385 0.435010 1.057342 0.052158 0.464959 0.894819 0.890968 0.634723 -0.344689 0.555877 -0.035499 0.525327 -0.715197 0.372363 0.204420 -0.949358 0.076798 -0.122985 0.349593 -0.022519 -1.364275 -0.906324 -0.298548 -0.787445 -0.823100 -0.376641 0.389887 -0.026702 0.304584 0.621993 -0.972140 0.083510 -0.695632 -0.546807 0.019093 0.413883 0.174381 -0.194802 0.523948 -0.829834 -0.266653 -0.097165 -0.055897 -0.124801 -0.103667 0.801657 -0.115881 -1.762148
UnaryOp 0.218194 0.373422 -0.621378 0.228233 -0.485634 0.891481 -0.311575 0.948258 -0.018564 0.136013 1.443413 0.426542 -1.634908 0.496236 0.020633 0.149111 0.454198 0.642276 -0.855218 -0.234179 0.127599 -0.251206 1.209149 -0.757816 0.952168 0.710133 -0.608697 0.522933 -0.300493 0.454486 -1.533701 -1.030052 0.810525 -0.055420 0.627778 -0.123538 0.644532 -1.663874 -0.147883 1.004309 -0.193405 -1.517811 -0.333609 0.294661 0.029376 0.125684 0.696973 -0.768601 1.324865 -0.988219 -0.293824 0.869867 0.090451 -0.312789 1.045034 -0.831355 -0.667257 0.376719 -0.795004 -0.072840 0.232021 0.497586 0.885620 -0.013399 0.402208 0.535704 0.524511 0.118474 -0.634028 1.500991 1.034974 0.144127 -0.395412 -0.674613 1.138771 -1.060682 -0.330186 -0.029726 -0.986574 1.269912 0.655226 0.313785 -0.155752 -0.477320 -0.854794 -0.977563 0.197574 0.427057 0.413057 1.417719 -0.332896 1.155193 0.955764 0.547462 1.016483 0.377147 -0.388681 1.105242 0.059350 0.945225
ExprList 1.528499 -0.456277 -0.067249 -0.689737 -0.196833 0.414859 -1.034466 0.237779 -0.085368 -0.591922 0.261676 -0.016144 1.269211 -0.101700 -0.616926 0.593414 0.404134 0.425278 -0.869302 -1.163950 0.332245 -1.204177 0.492913 -0.001339 0.993559 0.636898 0.929137 0.745476 -0.476404 -0.161410 -0.039945 0.205282 -0.146737 -0.333208 -0.613562 -0.313743 -0.143879 -0.933635 0.457156 0.484003 -0.242645 0.481674 -1.000032 0.772417 -0.730015 -0.184503 0.305116 0.432213 -0.620237 0.342462 0.610123 2.117513 0.255738 -0.143980 -0.176534 0.354743 -0.725052 0.160944 -0.874448 -0.361861 0.697263 -0.557361 1.109107 -0.092953 0.108671 -1.191944 0.278388 0.207956 0.700066 0.204111 0.637749 0.217288 0.666796 0.663119 0.690953 -0.494792 0.377363 -0.319653 -0.534324 0.670956 -0.120221 -0.391075 1.466044 0.549119 -0.211536 0.097732 0.051200 -0.501749 -0.596071 -0.051985 -0.722813 0.324659 -0.009441 -0.012854 0.714374 0.358255 -0.274166 0.047894 0.949012 0.926482
FuncCall -1.724631 -0.386247 -0.003732 -0.038547 0.595195 -0.326083 0.918070 -0.609263 -0.008188 1.013339 -0.533483 1.549436 -1.446024 -1.176549 0.511168 0.360261 -0.415440 0.506266 1.406051 1.144284 -1.289285 0.265906 -0.920336 0.270992 -1.624694 -1.712986 -0.801929 -1.046939 1.602078 -0.471660 0.183067 2.193960 -0.406399 0.314656 0.319122 1.761801 0.053781 1.368459 0.081101 0.260534 0.479936 0.986335 2.031179 -0.671792 0.800482 0.878360 -0.362713 -0.379249 0.792712 1.656200 0.501418 -0.874354 -0.204536 -0.001962 0.510978 -0.318267 0.988863 0.529598 1.897481 1.255263 -0.247218 0.103582 -0.064288 1.046673 -1.119107 0.504868 -0.099067 -2.244441 -0.292189 -1.314018 -0.472907 -1.202749 -2.160624 -0.955906 -0.515179 -0.893147 -0.867951 -0.573104 0.303843 -0.198088 0.877008 1.786353 -1.816514 -0.512105 -0.513473 -0.624124 -0.255175 1.021976 -0.302585 -1.010745 0.535106 -1.863299 -1.361476 -0.262589 0.604244 -0.109121 0.474924 1.237297 -0.649876 -2.338558
Compound -2.257838 -0.296876 -0.390725 -0.304496 0.681574 -0.238916 0.962161 -0.920176 0.672612 1.153846 0.088181 2.112242 -2.041965 -0.943044 0.283703 0.594152 -0.712268 0.187653 1.626037 0.570889 -1.009225 0.354311 -1.866490 0.091865 -2.651650 -2.435651 -0.984960 -0.991816 2.217764 -1.381631 -0.740270 2.398355 -0.849162 0.681678 0.161359 2.003174 0.274494 0.445642 -0.763659 0.399892 -0.257053 0.717858 0.300643 0.359277 1.761445 1.080757 -0.247290 -1.061920 1.192364 2.227235 -0.162005 -0.424996 -0.977129 -0.003177 0.715846 0.143820 1.915472 0.632171 1.484487 1.364735 -0.393884 0.963667 0.394238 0.694093 -2.486494 0.877256 0.149941 -2.666516 0.583599 -0.959443 -0.165495 -1.542564 -2.357544 -1.149127 -0.176276 -1.966840 -0.580529 -0.582899 1.071015 -0.385426 0.821593 0.986665 -2.409967 -0.138908 -1.124400 -1.100496 -0.579854 0.365688 -0.026999 -0.913530 0.022798 -0.836452 -0.711547 -1.214471 0.624700 0.043729 -0.159201 1.586773 -0.400326 -2.331412
IdentifierType -1.923792 -0.319445 -3.687518 -2.540375 5.053816 -0.784443 1.561266 -1.017133 -0.266381 -1.675682 1.091228 3.116673 -2.880193 3.087858 -1.858779 3.398548 -0.381396 6.488904 1.226878 -1.625161 -3.870428 -1.218350 1.118131 0.843669 -4.008779 -0.110075 1.703679 1.339898 -0.366596 1.542316 -0.905236 4.375791 0.491104 -2.014005 -0.040288 -0.855708 3.934602 0.058227 0.793076 0.846255 1.475415 -0.931245 -1.698595 1.998334 -4.004656 -0.273002 0.058324 0.615990 0.772907 0.962464 3.500516 2.354613 -1.912945 3.656250 -2.099169 0.076201 -1.712094 1.207809 0.680639 1.742972 -2.894695 2.643015 3.411368 2.255682 0.000781 0.057379 0.660995 -3.558521 2.561510 -3.163405 0.658595 -1.182691 -2.385854 3.763420 -1.512280 -0.078076 -0.113847 -0.735851 -2.379019 3.472768 -1.134500 -1.499167 0.835315 -2.213309 -1.672611 -6.144234 3.612345 -4.501678 -1.199452 0.035021 -1.867317 3.946799 -2.863933 -0.842340 1.603938 0.367637 4.143188 7.187247 3.451782 -1.244709
If -1.310134 -0.251618 0.053709 -0.563836 0.227280 -0.030998 -0.093375 -0.860956 0.540836 1.164595 0.042848 1.759845 -1.972943 -0.596145 1.009189 0.703399 -0.472540 0.903224 1.003084 0.113111 -0.831325 -0.569789 -1.549066 0.336587 -0.636221 -1.109708 -1.222952 0.297415 1.599862 -0.330091 -0.661746 1.974860 -0.128105 -0.253583 0.274082 1.050653 -0.010265 0.517592 -0.061023 0.225820 0.153858 0.595254 0.900294 0.211994 0.665488 0.612523 -0.416169 -0.856626 1.488211 0.791227 0.281646 -0.360078 -0.153413 0.020729 0.572115 -0.663098 1.060410 -0.411454 1.921233 0.764659 0.063657 0.169418 0.167457 0.336504 -0.973271 1.207502 -0.642390 -2.381314 -0.656210 -0.303839 -0.316462 -2.198596 -1.536526 -0.332934 0.116981 -1.027310 -0.138442 -0.518198 -0.354439 -0.190261 0.905262 1.885139 -2.182707 -0.411043 -0.873220 -1.111424 -0.297500 0.100462 -1.613791 -0.472630 -0.155338 -0.632627 -0.339095 -0.852838 1.589458 -0.090589 -0.327748 1.405806 -0.817707 -0.957821
For -2.012545 -0.203832 -0.491517 0.133284 1.034231 -0.357171 1.406329 -0.486987 0.303313 0.918086 -0.193153 2.130315 -2.418005 -0.944807 -0.001296 0.505941 -0.860344 0.519341 1.353792 1.202991 -1.472039 0.157635 -1.085489 0.486387 -2.394148 -1.884755 -1.131357 -1.130530 2.207582 -0.566087 0.486819 2.725603 -0.105568 0.759268 -0.343791 1.962254 0.175508 1.303878 -0.932837 0.108351 0.145382 0.847746 1.963761 -0.327877 2.122435 1.628349 0.000776 -0.789182 0.953657 1.807077 0.164280 -0.668875 -0.850505 -0.105541 0.474498 -0.588718 0.829448 1.733316 2.030501 1.940690 -0.138914 1.044840 0.617982 1.074424 -1.606058 1.271661 -0.240098 -3.279268 0.478365 -1.990433 -0.421240 -1.087793 -3.618527 -1.773914 -0.453885 -1.882359 -1.132553 -0.165874 1.282316 -0.319109 1.446690 1.756936 -2.239120 -0.761020 -0.826597 -0.862842 -0.127110 1.413836 0.650101 -0.912706 0.674308 -1.620354 -0.845157 -0.388469 0.919027 -0.766223 0.531478 2.560052 -0.130752 -2.967142
ArrayDecl -0.741362 -0.329723 -0.628035 -0.693259 0.263371 0.255741 -0.287672 -1.314414 0.810072 0.737768 1.000757 0.460377 -0.339949 -0.172737 0.358202 0.862455 -0.035550 0.647428 0.386344 -0.267226 -0.247460 0.307868 -0.206636 -0.955296 -0.691416 -0.618204 0.813922 0.260297 1.487912 -1.090471 0.100142 0.657130 0.341651 0.413904 0.418377 1.651080 0.087475 -0.043199 -0.347378 0.365814 0.144617 0.315203 -0.553997 0.013463 -0.269826 -0.576523 0.658657 0.156854 0.621192 1.445985 0.228271 0.380560 0.112993 0.679017 0.593757 -0.375667 -0.428601 0.227475 0.137088 0.127740 -0.087408 0.201325 0.435493 -0.154806 -0.947635 0.471133 -0.196379 -1.494513 0.654285 -0.055434 -0.149799 -0.677374 -0.532077 -0.308467 0.451377 -0.308495 -0.298444 -0.925069 0.177692 -0.233015 -0.447697 -0.359203 -0.343314 0.307028 0.280646 -1.087928 -0.625759 -0.188105 -0.239745 0.112128 0.173513 -0.524474 0.039328 -0.490591 -0.264464 0.267716 -0.535200 0.548968 0.185747 -1.350776
FuncDecl 0.033442 -0.653542 -0.397082 0.878636 1.136868 0.016704 0.398167 0.576435 0.971468 0.289258 -0.461618 0.081348 -0.985872 -0.606565 -0.641702 -0.132514 0.675518 0.284660 1.013407 0.294050 -1.391679 -0.018506 0.729506 -0.001641 -0.446540 -1.295168 0.318731 -1.195086 0.741169 -1.223693 -1.055830 1.261428 0.783821 1.832615 0.302940 0.132292 0.202136 1.652513 -0.091063 0.574243 0.693138 0.701320 1.635003 -0.413959 1.116801 0.204672 0.504593 -0.489443 0.174474 1.342037 0.119670 -0.024867 0.380735 -0.993384 0.652250 -0.240114 -0.188159 2.024241 0.812207 0.730190 0.732480 -0.126458 -0.115632 -0.616666 -0.936576 1.257931 -0.256830 -1.599581 -0.257293 -0.150831 -0.153048 -0.032440 -0.800155 -1.819895 -0.183020 -0.759260 -1.267601 -0.086009 1.069354 1.082830 1.036555 -0.499809 -0.560787 -0.423608 -0.138165 0.517562 -0.009238 2.543758 1.329546 -0.261830 0.820395 -1.375663 -0.235484 0.250553 -0.863776 0.441441 -0.914428 0.916854 -0.959882 -1.453872
FuncDef -0.882361 1.544351 1.081788 0.293285 -0.263252 0.203196 -0.476547 1.374985 1.362340 0.670763 -0.002706 1.577516 0.462008 -1.349644 1.228992 -0.029418 0.589856 -0.274693 -0.159893 2.284637 -0.278193 1.361142 0.906603 0.109641 0.091714 -1.094504 0.211394 -0.864978 -0.651996 0.018835 -2.428543 -0.603833 0.682745 0.727744 2.406424 -0.866245 -0.266919 -0.880916 1.605507 0.591161 1.310371 -0.361771 2.612423 -2.018682 0.182460 -0.394354 -1.067916 -1.324809 1.061374 1.026931 -0.572964 0.611018 1.034678 -1.170977 1.203993 0.144068 0.433136 -0.152678 1.572153 0.229825 -0.580237 -1.702078 -0.144783 0.991529 -0.626393 0.016416 -0.470617 -0.955350 -2.139284 1.579162 0.816964 1.396999 1.417194 -1.762347 -0.406262 -0.999751 -2.910804 -0.731253 0.345295 0.171205 0.244685 -0.074271 -2.078362 -0.025332 -0.784615 -1.141802 -0.266590 2.763783 0.714921 0.752468 0.383137 -1.990103 1.014893 0.780360 0.480043 0.133645 -2.108844 -1.444106 -1.342965 -1.513008
StructRef 0.026055 -1.322192 -0.356804 -0.993025 -0.148102 0.165233 -0.003728 -0.023725 0.673694 0.164440 -0.820267 0.384882 -0.173913 -1.496494 -0.614638 0.385561 -0.482047 -0.556605 0.219272 -0.197362 -0.185127 -0.025434 -0.580121 -0.463831 -0.275742 0.185259 -0.248487 0.103767 0.280095 0.303329 -1.285477 -0.991173 -0.127770 -0.029346 0.067019 -0.237258 -0.437802 -0.480741 1.235896 0.257677 -0.270292 0.605109 1.051628 1.059785 0.150175 1.233641 -0.727947 -0.625414 -0.249280 1.455256 0.435746 0.843266 0.794714 -0.086163 1.156235 0.696209 1.184683 0.040994 -0.493735 0.277875 -0.605014 -0.623885 -0.045362 -0.499402 -0.209663 -1.126202 1.301565 0.289714 -0.761164 0.451676 0.213949 -0.030649 0.311863 1.091886 -0.413186 -0.561580 -0.112138 -1.455264 -1.655269 0.772073 0.482490 -0.576403 0.861438 0.968831 -1.205317 0.350588 0.072164 0.672106 -0.610913 -0.358633 -1.128834 0.448460 0.689939 0.136953 0.087107 -0.362996 -0.110263 -0.222809 -0.790450 1.463723
Return -2.264746 -0.626273 0.224955 -0.223651 0.395954 0.028459 1.041767 -0.414378 -0.140853 1.386035 -0.563925 2.184261 -1.177100 -2.183729 0.195102 0.606922 -0.897302 1.032586 1.672292 1.481019 -1.736480 -0.073122 -2.318832 0.271130 -2.450981 -2.666556 -0.305711 -1.021879 1.772889 -0.453162 -0.089978 2.586683 -1.424729 0.672958 0.469814 2.863085 0.355408 1.283762 0.675619 1.033074 0.029315 1.028289 2.015666 -0.593825 1.228048 1.586257 -1.026544 -0.185005 1.415681 2.632511 0.765007 -0.814776 0.141330 -0.366560 1.050838 -0.133334 1.166180 0.873954 2.688743 1.675860 -0.183907 -0.674638 -0.175626 0.957394 -1.826606 0.045351 -0.153675 -3.111068 0.014294 -1.120700 -0.772571 -1.109992 -2.388186 -1.308442 -0.561738 -1.693586 -1.147272 -1.331622 0.134571 -0.130196 0.878851 2.082260 -1.776148 -0.215294 -0.897277 -0.112466 -0.402092 0.920143 -1.391687 -1.884171 0.138728 -2.429053 -1.643349 -0.115765 0.825927 -0.410267 0.699669 1.619371 -0.428468 -3.369510
PtrDecl 0.770674 -0.070972 0.178535 1.150224 -1.009914 -0.320019 0.234860 0.403013 -0.043601 0.100935 -0.447035 0.180342 0.848122 -0.422110 0.801413 0.328357 -0.226464 0.015101 -0.592455 0.449728 -0.068153 0.798410 0.031722 0.201658 1.380322 0.869365 -0.160833 0.195906 -0.124737 0.217816 0.887878 0.493570 -0.019581 -0.374365 -0.851279 -0.500358 -0.768804 1.777324 0.567246 -0.025269 0.402736 1.134382 2.116282 -1.519160 -0.388433 -0.327088 -0.411099 1.434745 -0.067756 -0.346277 0.339270 0.378154 0.604654 -1.039352 -0.377544 -0.202943 0.073954 0.077672 1.241916 -0.111095 0.411840 -0.378360 -0.879614 0.188399 0.412632 -0.413446 -0.008460 0.256436 -1.353306 -0.114247 -0.550286 -0.551736 -0.519867 0.188499 -0.373836 0.250511 0.350026 -0.454528 -0.022079 -0.763649 0.604337 1.305469 -0.180207 -0.751984 1.055614 -0.114641 -0.386559 0.821145 0.374943 -0.585035 0.119336 -0.786314 -0.063178 0.008825 -0.085919 0.532645 -0.425238 -0.813197 -0.936695 -0.436345
root -2.401775 2.030679 0.968119 -0.405729 -0.066208 -0.337908 -2.076424 0.462295 2.701667 1.617935 0.826177 4.773441 -1.205066 -3.206024 2.836109 -0.498963 1.614554 -0.503297 -0.035715 3.104774 -2.354045 0.990874 1.729387 -0.217814 0.337438 -2.114228 1.151283 -0.555592 0.397147 -0.815926 -3.727464 0.896709 2.305730 1.784976 4.713712 0.311373 -0.479191 -1.304373 2.060629 1.262148 2.658245 -0.354010 5.277850 -2.980835 0.570910 -1.403032 -0.911559 -3.799600 2.285284 2.078906 -0.945623 0.737094 1.248878 -0.939284 2.498441 -0.185445 0.267464 -0.361441 3.423297 1.598395 -0.382923 -2.636947 -0.275750 1.652599 1.130510 1.555669 -1.706698 -2.136669 -4.280409 2.287473 -0.305593 0.458657 1.337526 -3.991320 -0.253766 -2.504197 -5.393731 -2.354161 0.243274 -0.517232 0.331923 1.959199 -3.726048 -0.713421 -2.117835 -2.633602 -0.855499 4.607346 -1.836655 0.660518 0.602922 -4.856479 0.971845 1.595411 1.146735 1.560077 -3.468696 -1.598978 -3.406035 -3.233204
Typename 2.757318 -0.105819 -0.483610 0.745780 -1.570230 -0.086520 -0.995565 1.182898 0.092367 -0.997773 -0.093339 -1.312096 2.620316 -0.478659 0.274823 0.481229 0.160060 0.862467 -1.578614 -1.974156 0.711283 -0.683224 -0.378425 -0.350325 2.137846 2.407517 1.550125 1.137164 -1.355265 0.878590 -0.454156 -0.904557 -0.689054 -1.136989 -1.290191 -1.128425 -0.600281 -0.424452 0.838885 1.370946 -0.881303 -0.258644 -0.751078 0.540393 -0.645599 -0.284397 -0.378655 2.123301 -0.120641 -1.066223 -0.099546 2.240685 1.341095 -0.997469 -0.575697 0.566342 -0.111026 0.025809 -0.462662 -0.833738 0.982569 -1.110091 -0.276616 -1.728148 0.491149 -2.407112 0.465799 1.498850 0.017002 1.362243 0.833021 -0.131509 1.462524 1.068807 0.412346 -0.982797 2.336687 -1.161582 -1.202412 0.508163 0.310606 -0.597361 1.724217 -0.014233 0.431619 0.953643 -0.403048 -1.570778 -1.020782 -0.573588 -1.439799 1.703360 -0.010700 -0.023465 0.296220 1.144167 -0.030254 -0.960694 0.280519 2.325794
ParamList -0.276860 0.104820 0.152778 1.440153 -0.457545 -0.313732 1.410641 0.863262 -0.617505 0.286331 -1.715403 1.191085 1.117027 -1.028828 1.635135 0.451381 -0.393314 0.143451 0.291101 1.507823 -0.654977 2.626850 -1.185192 0.058099 0.250474 -0.859109 -1.374554 -0.052437 -0.126835 -0.586385 2.393086 0.465930 0.270106 -1.115727 -0.842073 0.535779 -0.595505 2.706391 0.728794 -1.209719 0.091248 1.042820 2.842935 -2.874827 -1.016933 -0.261367 -0.639162 2.184163 -0.489421 0.135197 1.006712 -1.320146 0.821695 -0.357592 -0.372654 -0.603564 0.676442 -0.075483 2.722679 0.175513 -0.614075 0.208258 -2.128413 0.023963 -0.146636 -0.283484 -0.113949 -0.468321 -1.002000 -0.126636 -0.547634 -0.855270 -1.590271 0.290441 -0.915414 0.450539 0.481272 -1.206772 0.325795 -1.755748 0.666598 1.238086 -1.637508 -0.676558 2.479431 -0.476335 -0.085106 0.674372 0.409662 -1.962721 0.968067 -2.454402 -1.301139 0.524747 0.229032 -0.283541 0.624814 -0.532517 -0.108574 -1.974007
Break -0.300843 -0.541431 -1.313670 -2.004325 -0.094530 -0.419224 -2.312046 -0.053013 1.207347 0.225465 -0.007944 3.286294 -2.051720 -1.621629 0.151222 1.270535 0.228228 2.676578 0.658995 -0.986422 -1.974292 -0.718969 -0.786227 -0.506125 0.770376 0.286670 0.857859 1.061504 -0.273368 0.247670 -0.674460 0.467823 1.661733 -0.046398 -0.830263 0.258349 0.896800 -1.261772 -0.473425 1.472404 0.049801 -1.703372 1.653602 -0.179607 -0.981467 -0.264387 0.185448 -1.281708 0.669689 -0.232873 0.902832 3.240036 0.895347 1.463942 1.744262 0.759475 0.316415 0.072541 1.407110 1.329403 -0.409712 -0.268586 -0.990945 -1.358501 1.815968 -0.088146 -0.081482 0.379867 -0.182505 1.016566 0.399724 -1.408998 0.924535 0.460632 0.484968 -1.798042 0.077127 -3.119793 -2.147146 1.574938 0.196560 -0.534153 -0.383777 0.100916 -2.721057 -1.212302 0.669728 -0.599423 -3.004750 -0.468193 -2.547320 -0.415108 -0.483282 0.066189 1.557258 0.402010 1.418228 0.263043 0.335032 0.329489
Case -0.522691 -0.549002 -1.325800 -1.807387 -0.142417 -0.712532 -2.507006 -0.069261 1.101816 0.533249 -0.180046 3.290200 -0.861356 -1.522870 0.256870 1.856241 0.058865 3.291730 0.915468 -0.859029 -1.925258 -0.358404 -0.774265 -0.488655 0.069184 0.218997 1.898690 1.181768 -0.350861 0.772782 -0.640323 0.723179 1.309211 -0.431187 -0.479086 0.552569 0.892410 -0.693554 0.221609 1.629551 0.273206 -1.764584 1.991222 -0.978162 -1.405077 -0.452315 0.103962 -0.710001 1.015187 0.298305 1.668035 3.445560 1.474005 1.775911 1.759789 1.135353 0.090586 0.018297 1.468069 0.909497 -0.698018 -0.915703 -0.679612 -0.981831 1.345255 -0.949169 -0.119187 -0.113067 -0.148656 0.806014 0.347979 -0.938115 1.068249 0.633899 0.477301 -1.831524 -0.182173 -3.637893 -2.259540 1.837427 -0.153214 -0.920007 -0.341172 0.202310 -2.415277 -1.552860 0.890082 -0.856259 -3.204282 -0.606998 -2.468675 -0.313369 -0.910411 0.416270 1.616663 0.396150 1.621891 0.252213 0.628824 -0.753819
Struct -1.562874 -0.504644 -0.584919 1.116412 1.014522 -0.274397 0.788650 -0.049569 0.564890 0.386809 -0.943622 1.353128 -0.215094 -1.934897 -0.333794 -0.682314 1.003347 -0.034534 1.252766 1.477324 -1.805531 1.656139 0.877200 -0.350298 -1.328142 -2.306332 0.989992 -2.619799 0.694674 -1.309101 0.435989 1.041308 0.560025 1.788154 0.792729 1.017403 0.514011 1.746203 0.094385 0.653432 0.836696 0.649763 3.297650 -2.158725 0.846042 -0.151750 0.007846 -0.051022 -0.228564 2.159418 0.265615 -0.834821 0.709888 -0.006372 0.774856 0.382032 -0.082694 1.814206 1.871109 1.236426 -0.100903 -0.473861 -0.567262 0.447306 -0.623371 0.504554 0.082548 -0.809297 -0.128957 -0.744017 -0.165746 0.328053 -1.081035 -1.944194 -1.263272 -0.512072 -1.764413 -1.004915 1.327125 0.171238 0.187780 0.064693 -0.982900 -0.608274 0.396862 0.371907 -0.066277 2.502141 1.357735 -1.244337 1.190033 -3.492302 -1.446536 0.870515 -1.542718 0.609076 0.260909 0.133355 -0.657786 -3.344149
Cast 0.742362 -0.734487 -0.814622 -0.203972 -0.550223 -0.336028 0.044306 0.006165 -0.226405 -1.128322 -1.355080 -0.697104 2.854519 -1.072965 0.195021 0.211133 -0.279596 0.588283 -0.436492 -0.583293 0.224497 1.691640 -1.249251 -1.477798 -0.194788 0.781261 1.121931 0.403982 -0.436522 0.605972 1.915123 -0.833561 -0.841368 -1.717369 -1.171194 0.414171 -0.083156 -0.375944 0.716594 -0.091103 -0.751992 -0.148795 -1.028799 -0.291275 -1.515870 -1.005343 -0.734310 2.902203 -0.887225 1.005010 0.192374 0.365625 0.900330 1.230415 -1.101352 0.837587 0.429793 -1.142740 0.083851 0.028993 -0.997892 -0.860198 -0.977793 -1.102024 0.418774 -2.524189 1.289479 1.364593 0.690412 0.115050 0.110367 0.016676 0.749565 2.207816 -0.836562 0.550042 2.680043 -2.230990 -1.475305 -1.128706 -1.140936 -1.021532 1.160954 0.201591 1.327198 0.288273 -0.531311 -2.772134 -0.916285 -1.802265 -0.953591 -0.129817 -1.654438 -0.409773 -0.471102 0.319804 1.644145 -1.274118 1.327937 0.864572
While -1.897201 -0.239096 0.043939 0.543541 0.366645 -0.761301 1.342794 -0.392139 0.658862 1.908531 -0.534323 2.125232 -1.437010 -1.327362 0.642989 0.091430 -0.284536 0.475526 1.509229 1.380552 -1.153420 0.694158 -1.569961 0.110651 -1.603765 -1.901624 -0.301470 0.316559 1.562909 -0.831204 0.079563 1.401681 0.311902 0.958614 0.774552 1.984675 -0.234968 2.168191 0.568013 0.295193 0.043288 0.670072 2.235243 -1.359533 0.581597 0.953478 -0.571193 -0.841007 1.012772 1.649274 0.490373 -1.693608 0.675380 0.321918 1.608199 0.522571 1.214920 0.720233 1.803768 0.762913 -0.481523 0.116447 -0.850434 0.418640 -1.107576 0.233810 0.415498 -1.795799 -0.584310 0.117535 -0.412766 -0.496287 -2.291295 -1.000964 -0.600144 -0.782646 -1.517250 -1.091526 0.390940 -0.290880 0.693225 1.146497 -1.701074 0.259881 -0.650372 -0.858435 -0.224578 1.711017 -0.364976 -1.068032 1.259911 -1.865892 -0.879500 0.487277 -0.054135 -0.001888 -0.163686 0.774512 -1.172639 -3.307342
InitList -2.865987 -0.406133 -2.043203 -0.528555 0.419259 1.049281 0.779016 -0.592267 1.201694 2.430241 2.062426 2.722239 -2.421169 -1.263088 0.772513 1.309068 -0.615975 1.306342 0.574255 0.808017 -1.421986 0.373732 -0.108311 -1.765218 -2.973647 -2.718379 0.630669 -0.301530 3.363288 -1.268870 -1.418886 2.076239 0.396511 1.290479 2.129019 4.323409 0.716419 -0.544028 -0.212675 1.289714 0.007743 -0.776762 0.324352 -0.216918 1.269817 0.682191 1.290948 -1.096619 2.364936 3.626465 0.515461 0.822323 0.066022 0.228506 2.367760 -0.778867 -0.102276 1.729991 0.962302 1.658659 -0.394095 0.578822 1.514107 0.707910 -2.431659 1.080928 0.187079 -4.318443 1.021326 0.162466 0.350087 -1.067798 -3.150542 -2.567228 0.761079 -3.098048 -2.328338 -1.945438 0.619615 0.261827 0.768426 0.765463 -2.344283 0.248150 -1.144001 -2.454036 -1.121359 0.995881 0.201689 -0.143716 0.651614 -1.223307 -0.217913 -0.034265 0.999278 0.674697 -0.322279 2.974686 0.595008 -4.062516
DoWhile -0.594738 -0.192088 -0.698431 0.290135 1.162497 -0.627875 0.212177 -0.597318 0.316133 -0.323170 -1.166465 0.610786 -0.707087 -1.685193 0.935763 -0.962268 0.550091 0.165049 0.236417 0.002236 -0.690097 0.367369 0.787967 -0.398798 -0.247632 -0.669130 -0.305016 -1.732130 0.074956 -0.558086 0.591766 0.378550 1.392751 -0.218373 0.577710 1.092703 -0.627847 0.006319 0.447692 0.490375 1.024364 0.075340 1.888820 0.002778 0.636841 -0.214612 -0.676930 -0.206279 -1.470658 1.218132 0.252422 -1.235205 0.150250 1.210444 0.970539 0.113066 0.386653 -0.136842 0.019992 1.056459 -0.515365 -0.312055 -0.046615 -0.461585 0.120478 1.059693 -0.216959 -0.338173 -0.274425 -0.645563 0.036750 -0.766345 -0.628020 -1.474289 -1.286917 -0.478715 -0.962496 -0.724533 -0.560938 -0.721706 0.965437 0.971587 -0.638580 -0.738292 0.549648 -0.307027 -0.478289 0.486996 -0.280824 -0.177271 0.813241 -2.157309 -1.637661 0.956316 -0.602644 0.264062 0.355753 1.061173 -0.418069 -0.574040
Switch 0.417902 -0.042658 0.555066 -0.045019 0.221667 -0.397888 -0.436759 -0.045785 0.143596 0.425948 -0.271398 0.380661 -0.033692 0.721559 0.669983 1.021606 0.383723 -0.190666 0.394218 0.598168 -0.453919 0.245735 -0.013476 0.621347 0.127292 0.542400 -0.308267 0.242380 0.497661 0.054407 -0.144210 0.708013 0.877250 0.132924 -0.183224 -0.749158 -0.949954 0.652571 -0.228764 -1.055733 0.650202 0.690510 1.219009 -1.222462 -0.841323 -0.556768 0.579667 -0.587057 0.117268 -0.608115 0.570589 0.706969 -0.225859 0.027026 -0.207815 -0.540997 0.194721 0.236247 0.268415 -0.047783 -0.266499 0.170910 0.087788 0.188270 0.033220 0.280781 -0.493791 -0.863042 -0.377837 -0.273843 -0.181088 -0.671688 0.118116 -0.079901 0.274604 0.258144 -0.816271 0.254052 0.291145 0.513928 0.052595 -0.630781 -1.259846 -0.508286 0.163933 -0.829956 0.824862 1.163353 0.217156 0.319130 0.518462 -0.456783 0.954776 0.136385 0.605012 -0.171669 -0.231683 -0.450779 -0.245219 -0.355830
Continue 0.115150 0.030686 0.123557 -0.566597 -0.446789 0.733133 -1.128466 -0.366570 0.351084 0.478552 0.531549 0.510051 -1.139287 0.958620 0.856864 0.760348 -0.262848 0.767165 -0.360142 -1.420208 0.289568 -1.560994 -0.498804 0.531337 1.447126 0.360930 -1.209209 1.675177 0.370844 0.543238 -1.563907 0.439272 0.032184 -1.417729 0.348529 -0.973924 0.233802 -0.550293 0.274003 -0.182278 0.109938 0.111127 -0.910412 1.145954 -0.203720 0.030478 -0.155633 -0.573923 1.497065 -0.977350 0.412598 0.587284 0.234180 -0.552451 -0.050075 -1.122265 -0.050228 -1.773052 0.568232 -0.906632 0.631438 0.180553 0.578016 0.017680 -0.124557 1.225257 -1.061334 -1.113484 -1.162644 0.988339 0.008586 -1.989005 0.330626 1.099168 1.096077 0.067890 0.869809 0.420543 -1.141697 0.316839 0.326642 1.099198 -0.872686 -0.041833 -0.467656 -1.107513 -0.087097 -0.770011 -1.745868 0.637029 -0.901703 1.783817 1.235658 -0.973809 2.028241 0.107174 -1.267882 0.973397 -0.719077 1.841192
TernaryOp 0.240846 0.039106 -0.147546 0.013665 0.447734 -0.116979 -0.025350 0.289650 -0.005105 -0.735097 0.162277 -0.299521 0.061502 -0.261783 -0.491524 -0.561909 0.382611 -0.477482 0.531486 0.532767 -0.120070 -0.297581 -0.294990 -0.216237 -0.191172 -0.195451 0.381362 0.148427 -0.444424 -0.766051 -0.224597 0.019792 0.026359 0.599188 -0.008075 -0.186913 0.012877 -0.221364 -0.030754 0.024190 0.018908 0.318861 -0.214437 0.840814 -0.072562 0.277465 -0.019031 -0.255901 -0.986291 0.110685 -0.443130 -0.348539 -0.261723 -0.143345 0.011411 0.294731 0.264513 0.417873 -0.880705 0.369910 -0.285194 -0.110263 -0.057537 -0.228184 0.329738 -0.520908 0.543971 0.234542 0.342271 0.076746 0.310212 0.643449 0.346326 0.038421 -0.237417 0.175991 -0.627962 0.476951 0.465065 0.205573 -0.188041 -0.673997 0.706206 0.328427 -0.337496 0.233370 0.045545 0.554165 0.408982 -0.243087 -0.143585 -0.103732 -0.131908 -0.308949 -0.936454 -0.016268 0.082040 -0.222300 -0.384227 0.053882
EmptyStatement 0.019840 0.071873 -0.197313 -0.517838 -0.564844 0.139307 -1.136062 -0.471518 0.815502 1.274848 1.354371 1.232790 -1.386569 1.031477 0.982029 0.610026 0.285735 0.350489 0.040460 -0.500075 0.048992 -1.235229 0.174221 0.484703 1.292464 0.406755 -0.199380 2.009315 1.166364 0.049151 -1.140028 0.879803 0.970294 -0.066552 0.652251 -0.564009 -0.024695 0.442493 -0.348510 -0.441206 0.013899 0.178569 0.240407 -0.020138 -0.469068 -0.049746 1.103052 -1.179478 1.455126 -1.105027 0.153062 0.812358 0.243291 -0.516330 0.144845 -0.840407 -0.236063 -0.261818 0.655885 -0.421006 0.705399 0.425195 0.523451 0.253206 0.524182 0.752446 -0.675321 -0.989139 -0.749307 0.793195 0.249517 -1.431047 -0.488882 0.455930 1.179123 -0.132334 -0.163383 0.485950 0.184820 0.576088 0.407313 0.699556 -1.033059 0.141936 -0.971014 -1.269639 0.027199 0.727274 -0.791796 0.588748 0.042630 0.772643 1.327227 -0.807721 1.597292 0.591739 -1.004226 0.178031 -0.970616 0.265136
DeclList 1.079674 -0.488709 -0.060973 -0.695637 0.368408 0.178253 -1.017584 0.143983 -0.191848 -0.003516 0.481787 0.359717 -1.369391 -0.140103 0.559823 0.388526 0.060945 0.588480 -0.448725 -0.742231 0.017832 -1.487235 1.338942 0.638946 1.392860 0.815563 -1.110181 -0.050009 -0.537878 0.061103 -0.909271 0.486108 1.308415 -0.043579 0.057423 -0.010289 -0.700137 -0.198758 0.684133 0.527812 0.622562 0.058622 1.294968 0.979128 0.235752 0.383271 0.240855 -1.129420 -0.596433 -0.559091 1.074076 0.895979 -0.527620 -0.179336 0.995508 -0.678407 -0.276123 0.593377 -0.579315 0.408664 0.548873 -0.238436 0.980931 -0.685327 0.569104 1.531515 -0.908589 -0.529859 -0.945781 -0.335972 -0.262758 -1.048978 -0.403486 -1.096803 0.253350 -0.981625 -1.049429 0.200408 -1.143753 0.844004 1.952005 1.394210 0.052757 -0.647275 -0.108069 -0.040196 0.221694 0.675179 -1.237324 1.224402 -0.319307 -0.156319 0.139645 0.913115 1.167377 -0.052220 -0.416896 1.474126 -0.216873 1.191882
Goto 0.103823 -0.116660 -0.149104 -0.539119 -0.547370 0.747546 -1.159701 -0.632215 0.599713 0.940716 0.181599 0.423812 -1.129621 0.926468 1.177547 0.995862 -0.366792 0.511012 -0.502716 -1.413182 0.223491 -1.107359 -0.205811 0.296154 1.425101 0.585793 -1.338165 1.694336 0.976871 0.702233 -1.117383 0.525769 0.451627 -1.583995 0.239345 -1.118208 -0.185609 -0.148771 0.169756 -0.875304 0.253009 0.216458 -0.410472 0.558182 -0.344417 -0.237342 0.090248 -0.386713 1.295125 -0.871337 0.475898 0.663070 0.322535 -0.110841 -0.096257 -1.155215 -0.236282 -2.116678 1.053173 -1.011891 0.663456 0.292470 0.402662 0.108567 0.023093 1.578202 -1.009070 -1.169342 -1.298186 0.837877 -0.112002 -2.489073 0.129998 1.333043 0.830663 0.443468 0.939501 0.095755 -1.349759 -0.290477 0.093667 1.253268 -1.340388 -0.022516 -0.219480 -1.415787 -0.327948 -0.791627 -1.541514 0.683923 -0.642809 1.584794 1.358027 -0.822138 2.131037 0.083156 -1.342017 0.847682 -0.613874 1.706143
Label -0.623296 0.055028 -0.235560 0.319250 -1.013100 0.621328 -0.776944 -0.615495 1.008971 1.752206 0.532166 0.694266 -0.654514 1.369194 1.688807 0.845195 0.050392 -0.674058 -0.591981 -0.480102 0.350585 0.145167 0.548098 -0.026039 1.190470 0.307512 -0.940386 1.520268 1.922359 0.381401 -0.936469 0.443765 0.716809 -1.006557 1.275149 -1.059089 -0.435263 0.786636 -0.295763 -1.654488 0.396480 0.159906 0.355128 -1.095539 -0.389414 -1.003492 1.296808 -0.788193 1.979180 -0.860224 0.203555 0.168015 0.669829 -0.646689 -0.154626 -1.458172 -0.421308 -1.531162 1.162262 -1.382877 0.530492 0.564636 0.283455 0.893015 -0.112827 1.553976 -1.037169 -1.179344 -1.773526 0.948042 0.131403 -2.077626 -0.143802 0.729171 1.054895 0.808880 0.239735 0.534749 0.101093 -0.393865 -0.141749 0.971880 -2.343047 -0.077235 0.156977 -1.714157 -0.144335 0.415302 -0.024235 0.515654 0.729596 0.940874 1.883117 -0.823087 1.718562 0.767862 -1.789665 -0.097568 -1.083663 0.335189
Default -0.047313 0.153486 -0.743213 -0.049708 0.455508 -0.440035 0.408903 -0.473960 0.226037 -0.153360 -0.072693 0.176798 -1.057823 1.636492 0.059900 0.760345 -0.799994 1.967616 -0.217585 -0.682067 -0.826354 -0.290698 0.232304 -0.242159 -0.222833 1.085748 0.134533 1.629216 0.491166 1.453461 0.357967 1.106673 0.481736 -1.561125 -0.795608 -0.070197 0.852684 -0.085116 -0.373018 -0.075394 0.909171 0.019152 -0.372045 -0.007299 -0.840510 -0.220124 -0.305371 0.725190 0.967066 0.135805 0.083801 1.177741 0.354997 0.976048 -0.813147 -0.165887 -0.285173 -1.048276 0.234971 0.191783 -0.262198 0.755369 0.248763 0.734915 1.038260 -0.583298 0.038081 -1.101281 0.007894 -0.333950 -0.522139 -0.399344 -0.560248 1.484820 0.686522 0.166275 1.141581 -0.731567 -1.181875 -0.049063 -0.322900 0.216480 0.278929 -0.335048 -0.657363 -1.940165 0.095990 -1.280573 -0.385115 0.594959 -0.888698 1.844771 0.103932 -0.872747 0.817432 -0.042606 0.530248 0.884509 -0.033072 0.139183
Typedef -1.247668 0.265770 -0.211244 0.047135 -0.705728 0.530289 -0.835557 0.376593 0.997463 1.095224 0.699451 1.807272 -0.302918 -0.487445 1.319618 -0.646860 0.760150 -0.641693 -0.486126 1.265536 0.128774 1.185383 1.369220 -0.586504 0.586439 -0.956497 -0.064740 0.020174 0.652979 0.016210 -0.904546 -0.171203 1.121477 0.371361 2.166832 -0.495170 0.058066 -0.414599 0.506953 -0.583461 0.481211 -0.911518 1.405190 -1.689029 0.036774 -1.174090 0.470160 -1.124751 1.307430 0.496991 -0.373901 0.073006 0.463223 -0.514300 0.272080 -0.273595 -0.109488 -0.653715 1.304133 0.200034 -0.287278 -0.729262 0.241664 0.711221 0.494830 0.958914 -0.303581 -0.206663 -1.703553 1.285015 0.410210 -0.134879 0.095351 -0.740234 0.017849 -0.279484 -1.343772 -0.412879 0.607432 -0.568792 0.167384 0.970482 -2.100554 -0.395603 -0.085441 -1.148547 -0.623145 1.437506 0.357355 0.315014 0.661021 -1.593646 0.787828 -0.020068 0.923950 1.103057 -1.282817 -1.109089 -0.729260 -0.990129
Enumerator 1.500882 0.586438 -0.380552 0.142689 0.944359 -0.355348 0.368334 0.809981 0.807946 -0.556734 -0.636410 -0.213028 0.465137 0.975589 -0.276496 0.631770 -1.193052 1.497847 -0.210500 -1.010499 0.107923 -0.622620 0.527971 0.675192 0.495346 0.318085 -0.433924 1.438897 -0.516578 0.026830 -0.016669 1.281767 0.190546 -1.059713 -1.035861 -0.346520 0.492585 1.379833 0.705686 0.109165 0.723739 0.786652 -0.893358 0.994770 -0.286408 0.028693 -0.071811 1.147882 -0.760117 0.550850 0.674022 0.573506 0.496822 -0.350131 -0.184027 -0.205326 -0.696283 0.496115 0.430005 -0.542716 0.494701 0.290034 -0.067872 -0.245680 -0.508857 0.280957 -0.522007 -1.482796 0.008913 -0.551319 -0.029514 0.567286 -0.293679 0.360278 -0.049827 0.207233 0.579480 0.202975 -0.298023 0.247854 0.665256 -0.667235 1.090049 0.546138 -0.212060 -0.322309 0.358659 -0.417027 0.324755 -0.301892 -0.185106 1.349891 -0.627652 -0.442301 0.562499 -0.891259 -0.668158 1.593940 0.329796 0.527304
Enum 0.530407 0.192874 0.016489 -0.045851 0.479845 -0.181363 0.260637 0.308068 0.274228 -0.313205 -0.272821 -0.224870 0.050311 0.427569 -0.184760 0.162575 -0.324528 0.692544 -0.082974 -0.297184 0.034738 -0.187891 0.125920 0.253666 0.140573 0.228828 -0.187696 0.612478 -0.117156 0.235578 0.099217 0.353895 0.155827 -0.343871 -0.311212 -0.106039 0.236987 0.336269 0.176068 -0.004928 0.211664 0.160524 -0.472891 0.294931 -0.068531 0.047354 -0.100391 0.297325 -0.033971 0.162205 0.093964 0.040202 0.110202 0.017602 -0.240406 -0.129305 -0.311064 0.191677 0.123570 -0.047686 0.087126 0.078408 0.074771 -0.161938 -0.116178 0.071644 -0.219890 -0.598775 0.018404 -0.229797 -0.006856 0.362193 -0.209655 0.126298 0.025573 0.135819 0.303996 0.164655 -0.167226 0.131251 0.268202 -0.247128 0.342777 0.108084 -0.050984 -0.101972 0.050465 -0.199414 0.138238 0.046428 0.051047 0.358240 -0.257883 -0.152177 0.258181 -0.355140 -0.174911 0.608307 0.243141 0.216727
EnumeratorList 0.750661 0.163532 -0.011125 -0.133286 0.663000 -0.097049 0.207697 0.311877 0.385227 -0.251756 -0.412281 -0.213443 0.164992 0.470183 -0.139546 0.312189 -0.558898 0.803616 -0.112659 -0.440515 -0.008856 -0.455320 0.225104 0.453603 0.186897 0.290232 -0.369124 0.721754 -0.033780 0.145459 -0.008148 0.778328 0.092918 -0.559695 -0.390983 -0.247831 0.157654 0.655658 0.446461 -0.024307 0.387005 0.449336 -0.370912 0.543551 -0.147748 0.061952 -0.034018 0.340220 -0.197587 0.284299 0.277717 0.206120 0.136707 -0.188280 -0.216431 -0.255238 -0.418043 0.377417 0.399708 -0.192267 0.265150 0.017734 0.161982 -0.036789 -0.239877 0.185019 -0.418975 -1.073539 -0.028225 -0.452823 0.086218 0.235500 -0.187832 0.147776 -0.016159 0.076607 0.206673 0.200784 -0.255627 0.249509 0.515144 -0.106037 0.442253 0.137960 -0.190992 -0.048821 0.278293 -0.206888 -0.063507 -0.133302 0.034032 0.508429 -0.288653 -0.190249 0.592401 -0.526026 -0.326510 0.949541 0.224191 0.279409
Union 0.042073 0.024782 -0.000037 -0.056213 0.019642 0.025690 0.038397 0.051594 0.010794 -0.040951 0.031462 -0.041969 -0.026184 0.016031 0.010383 0.032841 -0.037473 0.048504 -0.037906 0.064805 -0.018399 -0.023538 0.010662 -0.025906 0.028371 0.058329 -0.035605 0.040907 -0.015688 0.023604 0.003492 0.026681 0.010639 0.013719 -0.008733 -0.030613 -0.007021 -0.024911 0.028575 0.000538 0.041906 -0.015089 -0.047435 0.042434 -0.098815 -0.041439 -0.026502 0.037190 -0.008231 0.010545 -0.007357 0.053238 -0.031224 -0.027587 -0.045054 -0.026991 -0.011653 -0.015736 -0.003337 0.037449 -0.043216 0.005811 -0.044778 0.013435 0.040920 -0.010774 0.041696 -0.013686 -0.016001 0.004325 -0.007265 0.023314 0.012251 0.047181 -0.038348 0.039885 -0.018407 -0.003241 -0.035932 0.007710 -0.019429 -0.005904 0.010002 -0.014782 -0.018936 -0.062422 -0.008137 -0.012154 0.042449 0.024763 -0.015661 0.032832 0.010887 -0.050865 0.013033 -0.007247 -0.005948 -0.015030 0.036046 0.063305
