43 100
ID -0.135414 -0.029808 0.246893 0.060755 0.276059 -0.500253 -0.390199 0.514748 -0.528047 -0.591847 0.398507 0.028664 0.201564 0.157150 -0.845013 -0.738221 0.378319 0.767942 0.943285 0.916637 -0.397038 0.424959 0.152424 -0.132921 0.002575 0.193249 0.542858 0.570051 -0.244551 0.695021 -0.462117 0.735584 -0.565386 0.706974 -0.176544 -0.735436 0.727636 -0.076798 0.209261 0.271807 0.376806 -0.411316 -0.054898 -0.073894 -0.025637 -0.490180 0.155157 0.007662 0.159409 -0.427536 -0.308536 -0.531726 -0.671821 -0.496084 -0.543829 0.704293 -0.389831 0.355265 0.375051 0.507258 0.176062 -0.637524 -0.056347 0.289841 0.800958 -0.290664 0.384528 0.242587 -0.702550 -0.444106 0.051878 0.828189 0.056434 0.333590 -0.209163 -0.414688 -0.283163 0.268923 -0.162471 0.478257 -0.183017 0.646696 0.558695 -0.913436 -0.420087 0.091779 0.236026 0.209589 -0.066171 -0.621241 -1.150519 -0.291719 -0.347094 -0.378892 -0.011939 -0.065781 0.686983 -0.345672 -0.589788 -0.404073
BinaryOp 0.163515 -0.128657 -0.530265 0.259288 -0.426147 0.054057 -1.350389 -0.474511 -0.182303 0.394635 -0.094117 0.782917 0.348758 0.134401 0.533160 -0.479927 -0.052227 0.126862 0.077325 -0.169773 0.641494 -0.082548 -0.284007 0.152338 -0.280169 0.010535 0.566923 0.119434 0.312162 -0.193198 -0.105345 0.563817 0.268854 -1.360849 -0.202568 -0.228704 -0.404275 -0.065681 0.703047 -0.372158 0.061592 -0.042891 -0.117427 -0.057816 -0.421195 -0.249714 0.234675 0.693996 -0.065135 -0.286663 0.008273 0.591676 -0.758188 0.370997 -0.288363 -0.165130 0.083056 -0.752668 0.100285 -0.395795 -0.233326 -0.581736 1.042166 0.060603 -0.309775 0.114911 -0.153214 -0.467532 0.552922 0.307307 0.268582 -0.758162 0.491361 -0.014643 0.236687 0.382027 -0.274326 0.101148 0.064918 -0.800279 0.762622 -0.067582 -0.212561 -0.905553 -0.198131 -0.679648 -0.461178 -0.257582 -0.412737 0.069693 -0.097845 -0.102119 0.088436 -0.357040 0.641529 0.660416 -0.068218 0.276734 -0.191421 -0.451945
Constant 0.032979 0.177572 -0.131806 -0.372470 -0.237882 -0.414200 -0.766897 0.454651 -0.636115 -0.213415 -0.699844 -0.565699 -0.246499 0.723036 -0.626215 -0.404127 -0.170691 0.572041 0.807348 0.749801 -0.184423 0.161380 1.178765 -0.536480 -1.223566 0.016083 0.000629 0.456949 0.015847 1.286722 -0.622572 1.096685 0.108134 -0.839625 -0.707686 0.553713 0.529555 -0.629982 0.600198 -0.487962 1.266329 -0.295117 -0.331249 -0.111406 0.609286 -0.328415 0.482062 -0.340900 1.373109 1.365086 -0.542526 0.915049 -0.788315 0.365120 -1.341172 -0.418002 -0.024542 -0.898886 -0.002265 0.359878 -0.103859 -0.688215 0.582529 1.032511 0.787847 -0.614267 -0.160830 -1.061881 -0.864640 -0.114745 -1.165650 1.300893 0.660709 -0.491370 1.301991 0.230015 0.023062 -0.427402 -0.603835 0.280667 0.086879 -0.456038 0.057366 -0.337344 -1.313661 -0.238923 -0.832519 0.684472 0.221157 0.276500 -0.900682 -0.002965 -0.364853 -0.157217 0.914229 0.075834 0.279485 -0.786220 -0.436644 0.045945
TypeDecl 0.619663 -0.361082 0.502673 -0.104140 0.853053 -0.758729 0.668213 0.078489 0.230033 -0.322368 -0.611783 -0.237867 -0.318586 -0.276811 -0.972707 0.824367 0.570838 -0.300699 0.074376 -0.348753 -1.010521 1.068843 -0.393139 0.464935 -0.586387 1.097574 -0.268467 -0.012463 -0.184369 -0.050035 -0.526978 -0.220682 -0.193602 0.700040 -0.868701 -1.028880 -0.011971 0.897671 0.225081 0.711526 -0.586412 0.490674 0.444617 -0.244484 0.189002 -0.397506 -0.067827 -0.267892 0.380956 -0.215900 -0.611303 -0.495112 -0.961059 0.467246 -0.018808 0.556079 0.216159 1.443190 0.917687 -0.298996 0.081772 0.614069 -0.380404 -0.310374 -0.015557 0.286443 0.783545 0.947333 -0.889111 -0.290889 -0.212250 0.280435 -0.276541 0.030678 -0.718384 -0.271277 0.461382 -0.622160 -1.095519 0.751788 -0.060286 -0.090216 0.587248 -1.142522 -0.301531 0.265031 0.881025 -0.132003 -0.312946 -0.497333 0.090206 0.112192 -0.596011 1.279712 -0.485185 0.305265 -0.195704 0.494108 -0.410174 0.112537
Decl 0.492114 -0.718530 1.515598 -2.850300 0.819773 -0.923750 1.212423 0.075043 1.300048 0.046370 -2.113011 -1.426309 -0.666787 -1.855478 0.227642 3.054880 -0.177060 -1.775858 -1.332885 -1.516043 -0.949366 -0.175528 0.960179 1.075444 -0.444701 1.929107 -1.222462 -2.569473 -0.590004 0.105037 0.771881 -2.616619 1.087185 0.675433 1.027864 -1.199905 -2.284526 2.140836 0.105438 -0.413177 -0.746328 -1.122350 1.721514 -0.164970 -0.786889 -0.072661 -0.210835 -1.882311 1.557033 -0.075082 1.474014 0.569221 0.544913 0.846412 -0.124173 -0.273363 0.796933 1.161540 0.105414 -0.644584 -1.402938 1.383658 -1.594258 -1.054916 -0.188202 0.857267 0.071191 2.303183 -1.435871 -0.916605 -0.941393 0.115497 0.315543 -0.378763 -1.052649 0.411688 0.879496 -2.053330 -0.836774 1.403379 0.595684 -1.128547 -0.951644 0.022969 0.140560 0.735142 1.487263 -0.245452 -0.039135 1.642736 2.820839 0.392316 -1.382545 2.676872 0.462202 0.898758 -1.128616 -0.047707 1.531313 2.842986
ArrayRef -0.217241 0.296363 -0.303609 0.262998 0.070273 -0.348644 -0.939745 0.588183 0.027917 -0.652272 0.000832 0.202404 0.444919 -0.297038 -0.669552 -0.432158 0.138745 -0.078396 0.173733 0.787827 -0.700125 0.533189 0.142639 -0.435503 -0.618562 0.369537 1.396343 0.404616 -0.418977 0.571908 -0.319130 0.145019 -0.117653 -0.113316 0.025069 -0.989019 0.423321 -0.146576 0.337401 -0.108799 0.281922 -0.570065 0.735840 -0.225965 0.122413 -0.196628 0.271332 0.217755 0.239550 -0.196923 -0.607343 0.136042 -0.302506 -0.157521 -0.468378 0.217568 -0.467110 0.008419 0.470080 0.242816 -0.075889 -0.811627 0.200949 0.345807 1.086816 -0.294102 0.132870 0.298100 -0.679743 -0.103737 -0.329804 0.990512 0.614225 0.129864 -0.303426 0.001707 -0.533283 -0.288308 -0.073685 -0.394369 -0.513040 0.038405 0.498994 -0.796200 -0.664472 -0.286052 0.153103 0.107666 -0.228797 -0.396473 -0.817840 -0.007572 -0.231949 0.086364 -0.164420 0.175580 0.291357 0.007172 -0.792000 -0.649139
Assignment 0.235132 -0.553255 0.888471 -1.287885 -0.079008 -0.018590 0.155735 0.069119 0.071572 0.562266 -0.777229 -0.948558 -0.293669 -1.026641 -0.046518 1.179103 -0.123111 -0.655914 -0.101506 -0.451741 -0.307220 0.065848 0.895145 0.017231 0.118931 0.285387 -0.560850 -1.576954 0.212721 0.054195 0.511857 -1.332532 0.121485 0.268115 0.513538 -0.114145 -0.794795 0.709202 -0.033209 -0.348975 -0.271163 -0.436715 0.866436 -0.416755 -0.619356 0.240019 0.260141 -0.000121 0.736851 -0.026964 0.971508 0.262297 0.498518 0.287682 0.105076 -0.269250 -0.030564 -0.168982 0.301411 -0.285515 -0.127452 0.125985 -0.587718 -0.310538 -0.327059 0.410954 0.441588 0.977881 -0.549845 -0.593279 -0.525167 -0.298886 -0.129118 0.210160 -0.152134 0.432132 0.626871 -1.053759 -0.639621 0.322856 -0.110048 -0.014531 -0.492940 0.264852 0.333339 0.500251 0.151615 0.136991 0.101072 0.868400 0.804216 -0.290108 -0.837255 0.978770 0.432303 -0.060239 -0.113059 -0.120423 0.612080 1.273503
UnaryOp 0.355301 0.285365 -0.352797 0.809353 -1.222970 -0.236347 -1.093396 -0.489653 -0.757357 -0.040063 -0.253504 1.931288 0.137084 0.234526 0.607737 -0.753715 0.143440 0.939118 -0.221251 -0.250356 1.405797 -0.673543 -0.115333 1.048227 1.252364 0.165783 -0.603611 0.554783 0.145176 0.976346 0.237542 1.395985 0.161539 -1.795754 -1.464710 0.715895 0.055344 -0.755517 0.670705 0.524765 0.782584 1.032661 -0.817321 -0.089450 0.108416 -0.707195 -0.638147 0.539675 0.033966 0.020878 0.605062 0.997256 -0.686728 0.668076 0.035609 0.027612 0.306103 -1.538150 -0.416916 -0.460390 -0.510634 -0.051123 1.148058 0.881481 -0.225577 -0.296186 0.176049 -0.415836 0.266984 0.428656 0.152253 -0.935410 -0.043442 -0.187730 0.542118 0.814768 0.049159 0.931553 -0.596407 0.198562 0.284542 -0.033379 -0.129478 -0.764427 -0.845371 -1.117068 -1.015248 0.636222 0.146216 -0.471190 -0.408551 -0.408686 0.237575 -0.584908 1.024331 0.894322 0.092600 0.078822 -0.007868 0.349774
ExprList 0.046228 0.858721 -0.453872 0.366684 0.437141 -0.524278 -0.274930 0.243274 -0.454656 -0.975645 1.030007 0.936347 0.502180 1.210267 -0.119164 -1.286874 0.367898 0.599614 0.059929 0.729469 -0.196314 0.629327 -0.081266 -0.051507 -0.794037 0.397201 1.007379 1.633436 -0.751114 0.125959 -1.132415 0.805704 0.048552 -0.448450 -0.252138 -0.458304 0.837743 -1.192496 0.727730 0.293573 0.250555 -0.216421 -1.032882 0.486255 -0.235808 -0.600701 0.163466 -0.064844 -0.064302 -0.287301 -1.482002 0.013759 -1.510575 -0.406190 -0.999084 0.275350 0.209431 0.686976 -0.206627 0.458843 -0.152761 -0.096578 0.773876 0.425302 1.044727 -1.083419 -0.185348 -0.343466 0.347766 0.635130 0.265153 1.427014 0.558186 -0.212939 0.458112 -1.122503 -0.546742 0.292730 0.362868 -0.247531 0.490239 -0.310082 1.204533 -1.243719 -0.652937 -0.796370 0.342883 -0.291295 -0.525039 -0.589551 -1.082805 0.424766 0.590464 -0.353209 0.201767 0.450539 0.429992 -0.351997 -0.948112 -0.846830
FuncCall 0.747778 -0.784606 1.532417 -1.997094 1.027152 -0.686671 1.064972 0.207102 1.270618 -0.065005 -1.887007 -0.958078 -0.655141 -1.633139 -0.262520 1.730842 0.128018 -1.372938 -1.089016 -1.312472 -1.072324 -0.568109 0.373475 0.676044 0.078893 1.408755 -0.837090 -1.886733 -0.265801 -0.138386 0.362413 -2.089539 0.656665 1.067789 1.035031 -1.089797 -1.789466 0.978960 -0.198568 0.067207 -0.678614 -0.869136 0.918656 0.094025 -0.728518 0.083525 -0.398208 -1.821725 0.596761 -0.228744 0.754832 0.229089 0.757440 0.455263 0.587733 0.291022 0.629804 1.069199 -0.424726 -0.139663 -0.661935 0.726091 -1.290902 -1.019045 -0.157776 0.437227 0.484023 2.015294 -0.739213 -0.428343 -0.009558 0.243685 0.456499 -0.437090 -0.784981 -0.096669 0.469839 -1.443366 -0.862615 1.292577 0.503801 -0.803324 -0.248473 0.257788 -0.514542 0.976175 1.523729 -0.103427 -0.222411 1.139069 2.178765 0.049199 -0.884456 1.942515 0.211858 0.425291 -0.909105 0.058785 1.013652 2.381666
Compound 0.597535 0.187012 1.430083 -2.126852 0.762089 -0.280085 0.477361 1.101622 2.027052 0.654725 -2.246638 -1.782578 -0.346697 -1.815554 0.380790 2.166370 0.007106 -1.930685 -1.143003 -0.578437 -0.421985 0.112257 1.129386 -0.070465 -1.206267 0.402346 -0.964486 -1.918440 -0.900097 -1.004593 0.420858 -2.376250 1.280760 0.116665 1.635121 -1.136136 -1.934593 1.527154 0.772366 -0.921377 -0.777473 -1.299646 1.806403 -0.354460 -0.606444 0.412625 -0.221512 -1.308285 1.414880 1.168731 0.217057 0.345840 1.609789 1.265284 0.032571 -0.327706 1.195100 0.151298 1.008175 -0.810855 -0.728262 -0.264367 -0.931368 -0.865125 -0.422433 0.506694 0.361753 1.352582 -1.700158 0.374745 -0.535352 0.915189 0.578568 -0.211350 -1.094480 0.538798 0.471613 -2.223550 -0.685625 0.119233 0.090946 -0.908933 -1.974275 1.341623 -0.320090 0.730237 1.022306 -0.369248 -0.508685 1.850594 2.861877 0.121362 -2.049423 2.250642 0.818011 0.267781 -1.782946 -0.051401 1.074709 1.524599
IdentifierType 2.176673 -2.421838 2.277916 -2.001364 1.061483 -0.978484 -0.787397 1.427264 0.174956 0.114809 -3.808179 1.995571 2.945709 -0.750117 1.623855 1.350070 -2.768995 -0.867311 -2.562469 -2.405269 1.517682 -0.920933 -1.361563 2.178873 -1.895724 1.195722 -3.004479 -2.022671 0.211671 -0.841872 -1.025301 2.616512 -0.334543 -1.317945 0.009140 0.073434 -5.745656 -0.460523 2.527566 -1.068496 0.823847 -2.942360 -4.409633 2.014290 -0.393248 -5.003676 -0.372816 -2.830038 -1.426595 1.758111 3.316163 3.393311 -3.689722 -0.684813 1.540123 3.224645 3.065223 1.491000 -3.565398 -0.777202 -3.010753 -0.306520 0.633683 -2.605325 -3.104753 2.285077 -1.004067 -1.080165 0.665147 -0.442267 0.889572 -1.237207 3.171231 -4.156076 0.500521 -5.128981 -2.021024 -1.794357 -0.605287 0.398075 6.553978 -0.936500 -2.025367 -3.609349 -0.639455 0.351408 2.897921 -2.512928 -2.120707 -0.383633 1.570712 0.359712 0.147444 1.772563 4.442387 2.676316 -2.462348 0.975102 4.148357 1.978454
If 0.732314 0.102377 0.656068 -1.082111 0.430455 -0.786766 -0.761886 -0.278184 1.712063 0.788506 -1.794436 0.224719 -0.128041 -1.418675 0.750619 0.430824 0.227686 -1.388823 -0.403867 -1.158877 0.750771 -0.642838 0.428308 0.678824 -0.536873 0.195173 -0.759328 -1.374736 -0.292711 -1.452823 0.329134 -0.573882 1.044270 -0.537125 0.730811 -0.834993 -1.974725 0.994366 0.530636 -0.284041 -0.501022 -0.645552 0.733587 0.239335 -0.093927 -0.177267 -0.309545 -1.498618 0.135500 0.541012 -0.123429 0.137976 0.569659 1.654684 0.449640 0.678754 1.247693 -0.023250 0.447053 -0.895210 -0.529693 -0.214179 0.284659 -0.481950 -0.810497 0.479290 0.274994 0.830784 -0.303859 0.273661 1.023493 -0.265062 0.680324 -0.862804 -0.662261 0.024351 0.054628 -0.976826 -0.030978 -0.111615 1.264135 -0.373774 -1.523034 0.488955 -1.202840 0.422477 0.625179 -0.414955 -0.691780 0.982596 2.211443 -0.257633 -1.579999 1.127360 1.088084 0.691256 -1.635461 0.118008 0.795082 0.974512
For 1.546329 -0.297695 1.160222 -2.312688 0.734068 -0.388505 0.761341 1.420521 1.546718 -0.145898 -2.530539 -0.747273 -0.304643 -1.928769 0.064419 2.797535 -0.023975 -2.163003 -2.497942 -1.214966 -1.102420 -0.852876 1.332926 0.587048 -0.121559 1.629374 -0.789704 -1.868442 -1.207647 0.312043 0.971364 -2.790074 1.585840 0.058480 1.181013 -1.578472 -2.436927 0.858160 0.535791 -0.861599 -0.852167 -1.023529 1.859394 -0.392357 -1.411275 0.673871 -0.556222 -1.116271 0.358932 0.289035 1.387040 1.569941 1.535455 1.172513 0.170410 -0.478024 0.603820 0.396494 -0.502682 -0.201332 -1.080734 0.405750 -0.659314 -0.623684 0.346009 -0.004954 1.032578 2.361142 -1.010519 0.028031 -0.581194 0.702077 0.041972 -0.084286 -1.165745 0.475540 0.368558 -2.187056 -1.294156 0.737935 -0.071978 -1.411472 -0.717171 0.917780 -0.401102 0.176782 1.773196 0.002848 -0.000647 1.876937 3.046972 0.442136 -1.232801 3.042475 1.051754 0.219660 -1.083887 0.540656 2.000258 2.947665
ArrayDecl 0.248286 0.193013 0.411360 -1.587367 -0.188387 -0.635210 -0.344261 0.306474 -0.091759 -0.003709 -1.476241 -0.698834 -0.173801 -0.610748 -0.171674 0.287264 0.016478 -0.525332 0.056574 -0.016965 0.014148 0.459571 1.480640 0.383215 -1.275965 0.617993 -0.751355 -0.517893 -0.040876 0.683613 -0.179996 -0.032925 0.680926 -0.918782 -0.688111 -0.179189 -0.464284 0.260610 0.968928 -0.768513 0.348147 -0.378351 0.443728 -0.053845 0.754074 -0.046258 0.430002 -1.050782 1.921488 1.306501 -0.667724 1.155434 -1.139636 0.488337 -1.730907 -0.292840 0.671424 -0.213626 1.209569 -0.268368 -0.278911 0.195221 0.073641 0.555619 0.373670 -0.498804 -0.352635 0.023843 -0.973422 -0.208859 -0.995813 1.209268 0.601342 -0.643411 0.705056 -0.035643 0.629954 -1.225598 -0.349017 0.102374 0.856301 -0.475930 -0.418098 -0.341465 -1.166533 0.310025 -1.031174 0.640235 0.148983 0.406302 0.194155 -0.408690 -0.937671 0.926310 1.653457 0.854676 -0.533451 -1.123788 0.066627 0.963057
FuncDecl -0.078406 -1.733946 -0.088741 -1.792298 0.188748 -0.679226 0.858355 -0.936288 -0.263914 0.035396 -0.510803 -1.447248 -0.741568 -0.513165 -0.289745 2.171073 -1.050299 -0.890463 0.303304 -0.871127 -1.216148 0.419755 -0.020563 -0.160969 -1.114476 1.886365 -0.373295 -0.364512 0.683496 -0.001683 0.426615 -0.812751 0.258897 0.300375 -0.524671 -0.286260 -1.582489 2.213312 -0.253227 -0.862913 -0.278741 -0.208931 1.647270 0.372552 0.296997 0.645991 0.983819 -1.087673 1.431485 -0.068381 0.825036 0.540136 -1.182073 -0.843181 -1.089159 -0.670579 -0.139684 1.451085 -0.231489 0.088267 -0.433670 1.691022 -0.867647 -0.477960 0.076584 0.295640 -0.681245 -0.011787 -0.962135 -1.625813 -1.295464 -0.320308 -0.344746 -0.197731 0.992626 -0.647318 0.538514 -1.722335 0.114875 0.193488 1.994481 0.487324 0.752269 -0.982894 0.931811 0.092960 -0.172932 0.222266 0.416549 0.703647 0.096165 0.716630 0.306483 0.870174 0.040700 0.389120 -0.516512 -0.193230 -0.208952 0.900925
FuncDef -1.540634 -0.576512 1.465688 -0.766377 0.299117 0.401678 0.338514 -1.194229 0.202521 1.296305 1.225954 -1.097231 0.198607 0.745878 1.215043 2.699571 -0.971778 0.899082 1.593856 -0.326403 0.644950 2.747464 -1.854346 0.592577 -1.715969 -0.606854 -0.866711 -1.794471 0.424200 -2.140575 -0.871897 -1.016915 -0.603722 0.183330 0.136253 0.227872 -0.017149 2.759492 0.051035 0.647998 -0.882463 -0.464174 -0.107057 -0.459676 -0.411141 -1.409963 0.605682 1.097937 2.975779 -0.233941 1.105033 -0.656319 -0.926648 -1.058956 0.416975 -0.686522 1.483211 1.588410 1.764707 -2.177735 -0.998990 1.416143 -1.238311 -2.214122 -3.523592 2.117800 -1.649644 -1.232367 -0.111336 -0.150622 -0.912465 -1.307802 0.356619 -0.129215 0.407059 -0.854920 0.931536 -1.172163 1.184393 0.664955 1.392094 -1.080087 -1.954996 -1.825276 2.924323 -0.066010 0.859312 -0.963761 -0.397597 0.558713 0.289441 0.928290 0.358795 -0.315109 -0.174520 0.458962 -1.373101 0.092345 -0.449476 -1.680972
StructRef 0.150421 0.950680 0.299409 0.243818 -0.443271 -1.693066 -0.950099 0.020407 -0.002767 0.055539 0.913316 1.403664 -0.435504 0.210288 -0.809412 -0.897617 0.196972 0.503715 1.186651 0.792090 -0.023924 0.655067 1.082170 -0.135264 0.457257 -0.030558 0.680033 0.904198 -0.504907 0.242693 -0.695121 0.891015 -0.538377 0.028644 -0.566259 -0.188188 0.898159 0.308935 0.301107 0.852294 0.729182 0.342456 0.554964 -0.099455 0.227173 -0.539587 0.683364 0.390894 0.543195 -0.339835 -0.630093 -0.923277 -0.580897 0.125617 -0.123301 0.509308 -0.573775 -0.052446 0.760600 0.281566 0.473603 -0.619530 0.749952 1.179243 0.865642 0.277082 0.908311 0.519451 -1.812563 -0.758583 -0.165341 0.763475 -0.404943 0.045946 0.073821 0.280467 0.064362 0.330485 -0.575311 -0.234177 -0.016875 1.358202 0.753955 -1.000429 -1.563182 -0.854262 0.141656 0.709335 -0.091514 -0.508589 -1.104324 -0.510197 -1.433418 -0.316657 -0.043385 -0.255077 0.395182 0.172952 -1.951784 -0.320144
Return 0.413637 -0.312739 1.878682 -2.677506 1.273224 -1.284193 1.510521 0.323139 1.660284 -0.445566 -2.191176 -1.962077 -0.653936 -2.293790 -0.218158 1.775149 0.045468 -1.851281 -1.046732 -1.311663 -1.016446 -0.441182 1.570905 0.749953 -0.249029 1.816644 -1.301262 -2.356258 -0.668818 -0.273656 0.701969 -2.454139 0.876873 1.390035 1.361710 -0.919267 -1.912054 1.891972 0.101901 0.281376 -0.290439 -1.203502 1.192099 0.624309 -0.263153 -0.276641 -0.475120 -2.665992 1.639862 0.597528 0.593739 -0.318045 1.080061 0.568362 0.140651 0.422710 1.100207 1.402778 -0.119886 -0.597663 -1.049430 1.188782 -2.181704 -0.939515 0.304929 0.188543 0.363518 2.565916 -1.803052 -0.722030 -0.850855 1.478892 0.504977 -0.854666 -0.991747 -0.149970 0.712083 -2.082275 -0.573753 1.857978 0.203763 -1.009566 -0.250602 0.701244 -0.700792 1.572369 1.473379 0.213242 -0.126198 1.255389 2.726040 0.415131 -1.759522 2.505877 0.164297 0.883779 -1.551188 -0.536700 0.765878 3.032215
PtrDecl 0.097772 0.285712 1.225781 -0.098840 0.674785 -0.135316 2.132747 -0.040182 0.211611 0.220389 0.012050 -1.046205 -1.124270 -0.130201 -0.097796 0.725942 0.387178 -0.132105 -0.016023 -0.717415 -1.069228 0.883996 -0.757850 -0.085803 0.379579 0.177987 -1.013447 -0.414036 0.279743 -1.159214 -0.932198 -1.657441 -0.328467 0.799165 0.289514 0.033386 0.047922 -0.105883 -0.675525 0.916768 -0.643821 0.300597 -0.315251 0.051454 -0.206453 0.372678 -0.087989 -0.065925 0.499814 -0.893936 -0.881450 -1.176360 -0.109053 -0.750785 0.791604 -0.183794 0.295604 0.796101 0.290520 -0.277297 0.560279 1.309559 -1.403433 -0.711541 -1.048060 0.518754 0.316000 0.540988 -0.392506 0.449286 0.551915 -0.298314 -0.115715 0.031047 0.311739 -0.670885 0.778963 -0.320218 -0.642884 0.287641 0.261972 0.270303 0.169129 -0.086669 0.616208 0.001809 0.290287 -0.044626 0.277792 0.276134 0.290888 0.124332 0.029191 0.633653 -0.912928 -0.176015 -0.492922 0.338271 -0.957664 0.552492
root -2.576895 -0.340905 3.631058 -2.427406 0.931735 -1.124408 0.171005 -2.624710 0.457266 1.942888 1.330900 -0.099863 0.324045 1.431023 1.115603 5.162805 -1.503667 1.777208 3.061146 -0.856492 0.666169 5.440257 -2.982646 2.042597 -4.480647 -0.612430 -1.124445 -3.309015 -0.170631 -3.047634 -2.351851 -1.666157 -1.148679 0.010503 -0.426838 1.215001 0.399647 4.201729 0.491186 2.212903 -1.380096 -1.001812 -0.637529 -1.182012 -0.355268 -3.342946 1.269597 0.038480 6.452652 0.202042 1.703573 -0.663201 -2.666145 -0.108311 1.149402 -0.471663 2.939695 3.885908 2.987209 -3.814442 -2.542484 2.674589 -1.451737 -3.199640 -5.823729 3.400881 -2.987072 -1.540964 -0.664670 -0.716839 -2.077953 -0.592614 1.639910 -1.693838 1.275110 -1.882268 1.734517 -2.826318 0.783449 2.389604 2.738050 -3.352478 -2.691079 -3.938085 2.587353 -0.077280 2.931893 -1.917840 -2.039500 0.868208 0.664954 1.012984 -0.599741 1.087828 0.297479 1.015118 -2.006888 0.121004 -0.567690 -2.831614
Typename 0.305119 0.748680 -0.587311 1.873889 0.403291 1.003782 1.324897 0.183457 -0.613172 -0.241437 0.961475 -1.194651 -1.140660 1.706239 -0.361754 -1.971298 0.309384 0.401602 1.150486 1.272320 -0.491601 -0.014624 -1.486609 -1.969654 -0.106504 -1.184324 -0.819391 2.648139 0.714192 -1.164419 -0.957602 1.088389 -0.633833 0.024100 -0.866406 1.078899 1.329494 -2.154672 -0.815129 0.071926 0.394094 1.753825 -1.745304 1.120483 0.550954 1.137802 -0.349190 0.924854 -1.384185 0.627348 -3.079339 -1.695876 -0.060000 -0.737854 -0.112058 -0.677381 0.131517 -0.914586 -0.493006 0.934869 1.571671 0.002026 -0.048652 0.757252 0.307305 -1.209348 0.827255 -2.232873 0.784633 1.487178 1.006083 0.258812 -0.579793 0.595836 1.473097 -0.370102 0.030178 1.124690 -0.072190 -1.234242 -0.608768 0.998202 1.015362 1.162651 -0.219425 -0.445503 -1.228052 0.497333 0.586743 -0.700540 -1.542018 0.391419 1.343706 -1.938794 -1.080785 -1.810276 0.108782 -0.229641 -2.058453 -1.066568
ParamList 1.086867 0.000845 1.829741 -0.657155 1.302331 0.005327 2.536019 0.483463 0.879169 0.190965 -0.717797 -2.235606 -1.113983 -0.196699 0.218674 1.713178 0.111787 -1.252532 -0.451674 -1.279848 -1.167669 0.478241 -0.784737 0.158489 0.563102 0.580094 -2.186577 -1.241487 -0.256629 -1.339938 -0.392350 -2.638815 0.148391 1.999057 0.454709 -0.746047 -1.056364 0.192561 -1.614876 0.349757 -1.157454 -0.222535 -0.738847 0.155012 -0.398765 -0.025346 -0.800295 -0.575028 -0.640759 -1.122592 -0.529389 -1.245016 0.524330 -0.050186 1.163798 0.410984 0.848915 0.893542 -0.351570 -0.366816 0.230121 1.927098 -2.713839 -1.982964 -0.920853 1.184954 0.798521 1.617382 0.005070 0.583112 0.297602 -0.536209 -0.020425 -0.126031 -0.341994 -0.904568 1.165689 -0.949967 -0.585000 0.549913 -0.458953 -0.799260 -0.473336 0.835943 1.365969 0.962775 1.162683 -0.516809 0.439884 1.137697 1.270517 0.992707 0.458740 1.500004 -1.208483 -1.025935 -1.160992 -0.290207 0.584646 2.077680
Break 0.823519 0.520764 0.184693 -0.236251 0.073180 -1.773691 -3.151476 -1.047124 -0.054627 -0.573291 -0.072061 0.092197 0.600220 -0.021908 0.400540 -2.646834 1.825720 1.275782 1.880094 -1.205614 1.759399 -0.315661 2.652830 1.105612 0.922847 0.678352 0.530962 -1.315052 -0.169256 0.460650 -1.180686 1.248489 0.626238 -0.616556 -0.366284 -0.861582 0.430545 -0.963942 -0.055244 1.233920 1.037268 -1.065179 -0.806544 0.522372 1.187261 -1.653458 0.713002 -1.500371 0.912976 -0.732297 -1.276886 0.251565 -1.215003 1.055653 -1.195770 1.481550 0.321383 -0.256666 0.445146 -0.476398 0.689978 -0.780493 1.585571 -0.328435 0.235939 -0.405386 -0.916892 0.613346 0.317902 -0.595347 1.647687 0.231810 1.664900 -1.605222 0.911896 -1.172284 0.896126 0.664845 0.605189 1.418281 1.616769 -0.202420 -0.255898 -1.572048 -1.710758 1.146048 -1.174923 0.135898 -0.399507 0.503822 -1.006005 -0.939952 -1.442120 -0.745202 1.652977 1.614272 -0.081547 -1.597158 -0.452949 1.427428
Case 1.120674 0.051316 1.120873 -0.991575 0.530083 -2.126327 -2.508746 -0.611542 -0.434675 -0.762841 -0.428724 -0.947628 0.153619 0.095772 -0.400912 -2.565019 1.716966 1.988098 2.292115 -1.615466 0.796623 -0.043959 3.705611 1.123251 1.071422 1.150543 0.183205 -2.093775 0.178751 1.091324 -1.880974 0.861692 0.300087 0.351839 -0.411634 -0.748498 0.828309 -1.214801 -0.333325 1.911642 1.560075 -1.725412 -1.546945 0.458991 1.045490 -2.110853 0.981012 -1.843991 2.029054 -0.731936 -1.142071 0.816886 -1.640466 0.132019 -1.374186 1.814429 0.273676 0.297884 0.158442 -0.214702 1.041171 -0.394519 0.525922 -0.667328 0.141320 -0.571766 -0.780918 1.028335 0.079739 -0.930409 0.947139 1.145733 2.054296 -2.134723 1.873204 -2.193072 1.362785 -0.180854 0.218945 2.795713 1.796595 -0.794331 0.560348 -2.014937 -1.980919 1.844044 -1.089032 0.710598 0.070065 0.892532 -1.651470 -0.705626 -1.265849 -0.453671 1.859620 1.724245 0.030949 -2.301118 -0.647301 2.439383
Struct -0.800328 -2.323826 1.331174 -3.034988 1.048350 -0.165962 1.443080 -0.841176 0.043288 -0.538048 -1.075648 -3.024024 -0.395323 -1.039475 -0.875415 3.246653 -0.876745 -0.603565 -0.288310 -1.184285 -1.688443 0.753455 -0.475013 0.326163 -1.239614 2.678828 -0.228672 -1.696899 0.595263 1.037491 0.485951 -2.429193 -0.113366 1.202617 0.670162 -1.244936 -1.307240 2.507797 -0.456373 -0.681785 -0.915669 -1.534649 1.245933 0.206899 -0.163596 0.097107 0.744378 -2.026494 2.741368 -0.764194 1.576233 0.199731 -0.846086 -1.012332 -0.783300 -0.546510 -0.391641 2.027126 0.006398 -0.433249 -1.052391 1.753758 -1.947686 -1.589984 -0.157065 1.072675 -1.412583 1.110021 -1.206929 -2.051985 -1.591915 0.180495 0.725124 0.266006 -0.063373 0.008733 1.066317 -1.804036 -0.551320 1.483372 1.096816 -0.375766 0.497699 -1.226198 1.372558 1.267952 0.773871 -0.989555 -0.226808 1.227485 0.905038 0.832186 -0.011787 1.476755 -0.160486 0.867433 -0.529379 -0.096021 0.897822 1.732587
Cast 1.047776 0.638383 -0.144990 1.581685 1.165268 1.025001 0.491285 0.747576 -0.589139 -1.179141 0.720337 -3.332846 -1.109314 1.037112 -0.578981 -2.164498 0.896587 0.492641 1.999641 1.386127 -0.869231 -0.337411 -0.498212 -2.032660 0.680650 -0.454569 -1.038679 1.425529 0.306564 -0.450403 -1.181708 0.694491 -0.529005 1.435991 -0.515490 0.437740 1.520344 -2.247086 -1.336835 0.647794 0.982790 1.170616 -1.411723 1.331140 0.864803 0.648861 -0.741229 0.867130 -1.937029 0.115370 -3.309530 -2.350384 0.417684 -0.475505 -0.079773 -0.551673 -0.331555 -0.697830 -0.398697 1.192503 1.905426 -0.802488 -1.235203 -0.362012 1.290180 -0.788410 0.813225 -1.469172 0.171255 0.953606 0.576295 0.581601 -0.032858 0.126150 0.786477 -0.518822 0.106030 1.013799 -0.585952 0.023371 -1.599354 0.596368 1.083875 1.162849 0.207043 1.302665 -1.201460 0.877610 0.478536 -0.233017 -2.039193 0.270820 1.001541 -1.496259 -1.740294 -2.456633 0.257040 -0.903633 -1.859344 0.339219
While -0.426822 -0.207311 1.505984 -2.753036 0.741753 -0.726899 1.118977 -0.824403 0.253118 0.188318 -0.942886 -2.118110 -1.529454 -1.672292 0.185342 2.169679 -0.001655 -0.987372 0.445601 -0.913756 -0.908900 -0.418007 1.251805 0.542873 0.102085 1.215945 -1.235789 -2.889001 0.060367 -0.192341 0.711818 -2.482296 0.378011 0.750285 1.438060 -0.457383 -1.319151 1.709384 -0.580994 -0.041587 -0.019540 -0.944264 1.528056 0.191794 -1.057306 0.440829 0.120012 -1.084790 1.449469 -1.051899 1.196571 -0.960540 0.350352 0.555555 -0.183743 -0.856132 -0.310491 0.314530 0.199132 -0.491870 -0.904824 1.386042 -1.756906 -0.144558 -0.208552 1.058740 0.157447 1.675242 -1.264441 -1.638790 -0.332070 -0.371601 0.008520 0.086226 -0.456959 0.968313 0.723528 -1.068994 -0.669866 1.329149 0.143661 0.100414 -0.636084 0.008894 0.447178 0.399649 0.654156 0.217992 0.606587 1.830317 1.833054 0.023164 -1.635297 1.609271 -0.148216 0.020334 -0.274315 0.065692 0.600900 2.573532
InitList 0.120612 -1.551833 1.216043 -3.220236 -0.365941 -0.905991 -1.107690 -1.194090 0.108961 1.023314 -2.539847 -1.903054 -0.633131 -0.187169 0.707437 3.430115 -0.620098 -0.629868 0.841265 -0.998127 0.506093 0.830194 1.173848 0.785980 -2.966175 1.471653 -1.786685 -2.493002 0.404291 0.860017 -0.178293 -0.536771 1.308649 -1.886853 -0.895863 0.717239 -1.985154 2.360004 1.173850 -1.128614 0.428505 -0.470942 1.418284 -0.500659 0.410125 -0.886249 1.024291 -1.852331 4.920028 2.418178 1.400944 2.249038 -1.069393 1.807599 -1.846838 -1.813322 2.044377 -0.024699 0.707286 -1.518674 -1.939953 0.814488 0.469845 -0.574879 -1.300789 0.486627 -1.436212 -0.963912 -1.679821 -0.949309 -2.642207 -0.265230 1.193306 -1.316532 1.792491 0.903430 1.791306 -2.727130 -1.079106 1.857948 2.305125 -2.292937 -2.302789 -1.316193 -0.487898 0.447997 -0.227894 0.393141 -0.527209 2.119106 1.821753 0.226916 -1.316162 1.628809 2.580262 1.610433 -1.351719 -1.228377 0.805811 1.898241
DoWhile 0.590228 -2.030944 -0.549286 -0.804461 0.134910 -0.032189 0.061421 -0.543621 0.553714 -0.322322 -0.498617 -0.623004 -0.399016 -0.483248 -0.415618 0.895342 -0.737093 0.443327 -0.181684 -1.430734 -0.097927 -0.742105 -0.425598 -0.034604 0.545969 1.121607 -0.241866 -0.668309 0.292913 -0.239649 0.625731 0.130042 -0.073366 0.864896 -0.482470 -0.155573 -0.822528 1.553376 -0.232480 0.564755 -0.328926 -0.427540 0.001134 0.608794 -0.120307 -0.052461 -0.148896 -0.384697 0.140281 0.087086 1.245102 1.041820 -0.037311 -0.675059 -0.051060 0.085213 0.127494 1.137024 -0.945773 0.415609 -0.145792 0.228531 -0.798055 -1.369148 -0.583196 0.438616 -0.214727 0.534740 -0.078476 -0.688818 -0.520983 -0.700769 -0.067209 -0.292678 -0.020079 -0.280420 0.599243 -0.818674 0.090892 1.136831 1.495554 -0.266250 0.741077 -0.317217 0.483736 1.044828 0.098922 -0.498905 0.110778 0.381342 0.085361 0.597578 0.152205 -0.528960 -0.483589 0.719339 -0.454254 -0.001227 0.816673 1.146710
Switch 0.234448 -0.435724 0.801291 -0.915530 0.689738 0.319936 0.572110 0.413659 -0.006670 -0.060901 -0.702825 -0.050307 0.532778 -0.771683 0.279220 0.991097 -0.407674 -0.424519 -0.957829 -0.271755 -1.065173 0.490359 -0.667400 0.294159 -0.475056 0.397444 0.198267 -1.354789 0.532197 -0.285057 0.160531 -0.736781 -0.061353 -0.086692 0.416879 -0.683373 -1.025761 -0.220445 -0.093632 -0.530196 -0.465031 -0.604656 0.163489 -0.240613 -1.039881 -0.194138 0.325884 0.663312 -0.507446 -0.644156 0.404696 0.879315 -0.712852 -0.924169 0.120353 -0.138373 0.056789 0.819107 0.302198 0.246254 -0.236748 0.314457 -0.479795 -0.758803 -0.695695 0.421568 -0.266562 0.155706 1.040309 -0.588794 0.464466 -0.579717 0.472052 -0.114672 -0.416455 -1.026146 -0.127456 -0.770480 0.044174 -0.662381 0.932646 -0.138549 -0.186729 -1.180382 0.669941 -0.129449 0.775454 -0.614178 -0.027872 -0.138367 0.499454 -0.583631 0.060941 0.575798 0.648679 0.190446 0.266907 0.585570 0.731200 0.090126
Continue 0.998963 0.402308 0.233221 0.318769 -0.310870 -0.802547 -1.130544 -0.017877 0.712351 0.684689 -0.652161 2.971809 0.821790 -0.603299 0.521604 -1.110614 0.266016 -1.084531 -0.722112 -0.373401 1.397734 -0.715458 -0.214205 0.827150 0.055479 -0.648831 -0.292167 0.143055 -0.278510 -1.169586 0.162745 1.110858 0.141010 -0.927897 -0.265998 -0.284027 -1.400982 -0.614410 0.826404 -0.027687 -0.456672 0.372581 -0.742038 0.444446 -0.208124 -0.746519 -0.335828 -0.425356 -1.486659 0.527956 -0.145178 0.249764 -0.263682 1.217712 0.853482 1.543025 1.238218 -0.257974 -0.328944 -0.331113 -0.279655 -0.538373 1.831283 0.539847 -0.636584 -0.244743 1.303035 0.532422 0.822968 0.591562 1.806907 -0.496406 -0.099000 -0.623465 -0.569359 -0.709204 -0.510923 0.232063 0.124049 -0.911065 1.118264 0.372898 -0.608928 -0.181013 -1.798645 -0.551786 0.926584 -0.280310 -0.770888 -0.770473 1.103605 -0.701579 -0.844077 0.266793 1.556260 0.474305 -0.608815 0.488337 0.551833 -0.000314
TernaryOp 0.246300 -0.548147 -0.140880 -0.010533 -0.096617 0.122328 -0.451683 0.417618 -0.311367 0.133686 -0.281842 -0.442769 -0.096151 0.389858 -0.532028 -0.076895 -0.636988 0.110786 0.176690 0.279517 -0.281191 0.061969 0.084666 -0.486399 -0.281203 0.085932 0.271638 0.376428 0.370378 0.439593 0.240512 0.352143 -0.131187 -0.216919 -0.260794 -0.210084 -0.033463 0.387096 0.088617 -0.725006 0.216824 -0.364827 -0.101766 -0.180208 -0.168705 0.046089 0.532762 0.725380 0.001854 -0.080567 0.211006 0.270172 -0.479105 -0.419741 -0.415163 -0.276343 -0.556840 -0.425890 -0.171014 0.228304 0.238747 -0.529998 0.023084 0.040957 0.254100 0.436362 0.111016 -0.271059 -0.237717 -0.353758 -0.761777 0.178597 -0.035779 0.182486 0.358873 0.437754 -0.098577 -0.093201 -0.134178 -0.624847 0.199289 0.266855 0.391509 -0.412689 0.045844 -0.075208 -0.270123 0.035902 0.256209 0.169475 -0.374167 0.166657 0.028023 -0.307887 0.135301 -0.283431 0.170114 0.231173 -0.175123 -0.248089
EmptyStatement -0.244692 0.337403 0.735061 -1.051624 -0.400836 -0.968493 -0.670576 -0.891604 0.298343 0.865895 -0.279555 3.071865 0.061382 -0.595043 0.451992 0.102545 -0.152899 -0.556087 -0.214569 -0.558916 0.929416 -0.018390 -0.157193 1.346870 -0.179667 -0.548933 -0.142460 -0.952072 -0.111608 -0.904852 0.172586 -0.170114 0.159980 -1.057045 0.067897 -0.232251 -1.004754 0.076344 0.521529 0.000575 -0.453565 -0.145493 -0.094415 -0.094575 -0.764375 -0.453970 0.149178 -0.309281 0.029040 -0.381349 0.765458 0.412783 -0.909092 0.612456 0.480285 0.638637 0.666845 0.051254 0.070714 -0.530885 -0.907017 0.504369 1.204228 0.722048 -1.220166 0.479640 0.440376 0.746621 0.677248 -0.240105 1.279374 -0.572942 0.094908 -0.410995 -0.019965 -0.240348 -0.244904 -0.082132 0.387120 -0.509347 1.674435 0.030577 -0.498910 -1.001530 -1.157151 -1.200957 0.941259 0.014274 -0.053814 -0.034955 1.076297 -0.865211 -0.703416 0.390799 1.441150 0.572876 -0.261717 0.467971 0.383945 0.025216
DeclList 0.976384 -0.422099 -0.760119 0.981870 -0.136258 -0.794050 -0.851709 0.158643 0.151772 0.059271 -0.641513 3.123965 0.147521 0.627219 0.394533 0.090888 -0.455892 0.018729 -0.915304 -1.313249 -0.120681 -0.328614 -0.684222 1.533118 0.195498 0.152316 0.344982 0.387122 -0.769263 -0.965101 -0.514578 1.096300 0.548538 -1.213270 -0.838623 -0.432450 -0.667582 0.946262 1.065525 0.395674 0.091342 0.372908 -0.015224 -0.354425 -0.882974 -0.818230 -0.127037 0.465955 -0.927943 -0.732736 1.146229 1.683718 -1.132902 -0.177197 0.562977 0.330350 0.837678 0.728732 -0.875855 -0.407879 -0.679466 0.187553 0.534648 -0.397954 -0.471959 0.500526 -0.205460 0.403144 0.339939 0.773492 -0.451757 -0.838523 0.482754 -0.983835 0.336786 -0.509695 -0.921051 -0.119928 0.288686 0.100465 1.964082 -1.147763 0.590106 -1.628407 -0.389193 -0.996809 1.368418 0.163680 -0.650512 -0.534784 0.164557 0.606011 0.608027 0.529351 0.178800 1.483482 -0.376341 1.067849 -0.347448 -0.523453
Goto 0.852058 0.163262 0.316744 -0.234343 -0.035801 -0.947473 -1.000036 -0.318220 0.503060 0.739671 -0.699421 3.538014 0.781209 -0.512730 0.437719 -0.519259 0.111510 -1.107480 -0.615813 -0.719774 0.906630 -0.538380 -0.211325 1.437729 0.037869 -0.448287 -0.281396 0.021474 -0.420059 -1.048890 -0.161277 0.716263 0.237710 -0.794730 -0.106119 -0.883715 -1.498605 -0.358672 0.918295 -0.285756 -0.478746 0.278068 -0.438115 0.177916 -0.691395 -0.785886 -0.340679 -0.769581 -1.722984 -0.166529 0.516066 0.484587 -0.766644 1.150946 0.881899 1.782659 0.855081 0.092606 -0.243773 -0.417376 -0.608852 -0.006984 1.550586 0.568363 -0.567521 0.116500 1.063891 0.824817 0.861127 0.313699 1.805787 -0.737766 0.186779 -0.411606 -0.549743 -0.887230 -0.833793 -0.020464 -0.001554 -0.679302 1.376937 0.120428 -0.272755 -0.546257 -1.511727 -0.863465 1.443806 -0.251313 -0.837102 -0.634640 0.841603 -0.557976 -0.278833 0.844419 1.559064 0.367882 -0.517662 0.510188 0.791338 0.219130
Label -0.628690 0.351594 1.272926 -1.979275 -0.007670 -0.704035 -0.143476 -1.079913 0.241688 1.053792 -0.128388 2.587174 0.257116 -1.013715 0.411641 1.021315 0.013040 -1.136543 -0.267529 -0.508078 0.279232 0.815098 -0.431165 1.495339 -0.550457 -0.178720 0.013382 -1.548011 0.026427 -0.617132 -0.015641 -1.740567 0.136086 -0.484073 0.662590 -1.287896 -1.193918 -0.144500 0.071928 -0.614039 -1.263352 -0.692496 0.383781 -0.519569 -1.141972 -0.195268 0.362258 -0.587485 0.017582 -1.427627 0.714075 0.058379 -1.186639 0.659027 0.454157 0.794680 0.106652 0.487490 0.918292 -0.648895 -1.063817 1.183869 0.688695 0.384822 -1.201581 0.876413 0.371357 1.392619 1.042646 -0.597139 1.831862 -0.806983 0.359313 0.261622 -0.596501 -0.416465 -0.074403 -0.512001 0.196595 -0.778161 1.144740 -0.068108 -0.697979 -1.159228 -0.473994 -1.173437 1.331137 -0.493772 -0.053350 0.208406 1.122651 -0.990370 -0.250044 1.265938 1.427390 0.008326 0.037355 0.293051 1.008862 0.368857
Default 0.709765 -0.988366 0.755856 -0.880875 0.049110 -0.047873 -0.177120 0.309667 0.387425 0.124803 -1.235044 2.138202 0.921919 -0.191306 0.094638 0.416886 -0.792200 -0.043540 -1.243548 -0.500584 0.850705 0.316674 -0.460978 0.431803 -0.403062 -0.093550 -1.238101 -0.589492 0.151827 -0.226848 -0.180271 0.884469 -0.231024 -0.842349 -0.542043 0.038482 -1.396145 -0.837684 1.133192 -0.066083 0.066541 -0.252126 -1.612612 0.377036 -0.620348 -1.779963 -0.335554 -0.251386 -0.420652 1.548315 1.059821 1.675933 -0.940053 -0.037241 0.668592 0.962951 1.318223 0.381138 -0.947712 -0.012204 -1.064960 -0.221972 1.052594 -0.139612 -1.484232 0.300111 0.661186 -0.205976 0.374513 0.167997 0.905009 -0.293725 0.507945 -0.700210 0.033189 -1.443557 -0.118804 -0.819752 -0.779925 0.074167 2.169058 -0.364748 -0.432460 -1.249187 -0.863435 -0.549163 1.297280 -0.651368 -0.259145 -0.530983 0.524572 -0.471370 0.038453 0.039884 2.021004 0.665541 -0.693439 0.361607 1.389375 0.639975
Typedef -1.248477 0.177118 1.189646 -1.469798 -0.222806 -0.650324 -0.583621 -1.550876 0.311266 1.272470 0.855501 2.566943 0.055296 0.195465 0.598004 1.726905 -0.676542 -0.092407 0.636782 -0.610865 0.495528 1.796693 -0.735322 1.739818 -1.140463 -0.488973 -0.170817 -1.696134 -0.288165 -1.087021 -0.947264 -0.971916 -0.457251 -0.255324 0.254541 -0.298521 0.063476 1.139291 0.088250 0.617155 -0.900023 -0.590546 0.144328 -0.797557 -0.729390 -1.288954 0.534884 -0.452467 1.664246 -0.998071 1.040171 0.284737 -1.350127 0.355059 0.864274 0.460214 0.810817 1.407536 1.434269 -1.393349 -1.332470 1.370205 0.052705 -0.305686 -1.807626 1.584887 -0.777629 0.693563 0.327683 -0.430376 0.226327 -0.871644 0.824455 -0.474853 0.099008 -0.647402 0.265308 -0.856498 0.467319 0.436443 1.306899 -1.018642 -0.929792 -1.723283 -0.075166 -0.629690 1.822955 -0.797829 -0.882171 0.201693 0.297507 0.063715 0.078738 0.728523 0.755476 0.521870 -0.386401 0.042178 0.259694 -0.648585
Enumerator -0.270509 -0.399338 0.624739 -0.527535 -0.529302 -0.146903 -0.186918 0.080754 -0.220488 -0.097530 -1.107499 2.756932 0.129702 -0.712880 -0.768070 0.891307 -0.556964 -0.624196 -0.310052 -0.939556 0.179987 0.006579 -0.751505 0.691499 0.158376 -0.977253 -1.125834 -0.328711 -1.059000 -1.260558 -0.105879 -0.524527 -0.779850 -1.231471 -0.443191 -0.262619 -0.340194 -0.227538 0.565839 0.048546 -0.383421 0.167420 -0.087234 0.192507 -0.352882 0.106330 -0.256822 -1.007710 0.084790 0.148763 1.700562 1.004006 -0.141366 -0.176241 1.048243 0.567237 0.497307 -0.282074 -0.739885 -0.731302 -0.837337 0.569580 0.529875 0.912809 -1.222272 0.190479 0.435824 0.688478 -0.719246 0.239517 0.683232 -0.150903 0.671059 0.183308 0.875036 -0.272810 -0.140168 -0.505042 -0.510785 0.382463 1.122342 0.004054 0.148739 0.180894 -0.860086 -0.777467 1.394292 -0.072190 -0.366191 -0.405414 -0.325236 0.043763 -0.254675 0.477322 1.008681 0.045984 -0.661595 0.798571 0.493805 0.687013
Enum -0.076567 -0.165091 0.380570 -0.356898 -0.052674 0.127926 -0.096368 -0.031774 -0.051077 -0.113108 -0.501759 0.844846 0.098065 -0.221702 -0.199075 0.453280 -0.128659 -0.063050 -0.245990 -0.217291 0.052945 0.120521 -0.279786 0.318634 0.015983 -0.131916 -0.468539 -0.108130 -0.242075 -0.119685 -0.027423 -0.195977 -0.080540 -0.533184 -0.229185 -0.238127 -0.149947 -0.366421 0.207320 -0.108515 -0.032304 0.147909 0.049140 -0.060301 -0.140743 -0.020505 -0.247596 -0.446616 0.102138 0.193794 0.464853 0.593890 -0.079776 0.077109 0.311912 0.174004 0.195823 -0.155598 -0.082649 -0.244943 -0.349145 0.207594 0.315540 0.321809 -0.378149 -0.046861 -0.019648 0.015758 -0.076217 0.093643 0.359935 -0.038506 0.355784 0.116186 0.310414 -0.143512 -0.056587 -0.239993 -0.366416 0.106008 0.392694 -0.066187 -0.053723 -0.035020 -0.314467 -0.366783 0.367980 -0.008414 -0.126576 0.018129 -0.124297 -0.143573 0.149405 0.201809 0.640076 -0.027047 -0.327136 0.183222 0.303119 0.217338
EnumeratorList -0.197372 -0.202661 0.473081 -0.393261 -0.101157 -0.131133 -0.113712 -0.130137 -0.156279 0.003052 -0.488966 1.386288 0.248708 -0.169654 -0.247639 0.440745 -0.144781 -0.257644 -0.054935 -0.344495 0.017957 0.120245 -0.278267 0.507930 -0.027741 -0.412467 -0.459694 0.022424 -0.500160 -0.415978 -0.248870 -0.226439 -0.229039 -0.652986 -0.114884 -0.290079 -0.158104 -0.146493 0.453727 -0.141756 -0.061948 0.285588 0.071316 0.053796 -0.313112 -0.123206 -0.148711 -0.689512 0.122985 0.145264 0.847561 0.429308 -0.099352 0.026454 0.429126 0.402545 0.344207 -0.152914 -0.236350 -0.455751 -0.536288 0.331321 0.387124 0.472535 -0.405216 -0.056818 0.077049 0.166426 -0.292285 0.129616 0.314690 -0.051898 0.490029 0.267332 0.443392 -0.138239 -0.132012 -0.283085 -0.333421 0.250132 0.442857 -0.129506 0.097041 0.011704 -0.399929 -0.500131 0.803054 0.047118 -0.435980 -0.230520 -0.180036 -0.002665 0.076356 0.359357 0.661020 0.034554 -0.319182 0.196538 0.068094 0.287586
Union 0.068442 -0.064982 0.040789 -0.000076 0.030258 0.049726 -0.054898 0.017108 -0.012841 -0.030806 -0.106920 -0.047110 0.022982 -0.044437 -0.047092 0.009829 0.019728 -0.006389 0.000839 0.004360 0.012266 -0.016833 -0.074178 -0.024847 0.002450 0.041794 -0.051709 0.002347 0.035961 0.034320 0.022347 -0.037845 0.016924 -0.038255 -0.039154 -0.008853 -0.052427 -0.069865 0.021016 -0.008254 -0.020347 0.010073 -0.016923 0.001050 0.003780 0.019398 -0.017057 -0.017419 -0.021264 0.023084 0.009801 -0.001010 0.011207 0.046900 0.061120 -0.032324 -0.020841 -0.022698 -0.057799 -0.021461 0.003773 -0.058753 0.038437 -0.030543 -0.042534 -0.006706 0.035149 -0.040658 0.010644 0.025616 0.044981 0.015579 0.015357 -0.018385 0.018239 0.020698 -0.013728 -0.005551 -0.102989 0.042021 0.009787 -0.039338 0.010061 0.002281 -0.020631 0.045815 0.014990 0.026633 -0.016415 0.011815 0.024273 -0.048098 0.028774 0.044056 0.059985 -0.082711 -0.025636 0.045814 0.054007 0.052320
